~o
<STREAMINFO> 1 39
<VECSIZE> 39<NULLD><MFCC_D_A_0><DIAGC>
~s "silst"
<MEAN> 39
 -1.255068e+01 -5.359204e-01 6.507159e-01 7.857428e-01 1.438946e+00 1.459666e+00 2.467469e+00 2.045463e+00 1.908384e+00 1.140768e+00 1.793158e+00 1.934048e+00 4.549228e+01 -1.660003e-01 -2.421355e-02 -5.990400e-03 1.281218e-01 1.546727e-01 8.635858e-02 1.351885e-01 1.560681e-01 1.014609e-01 1.539629e-01 1.138066e-01 9.061673e-02 -2.295945e-01 5.739021e-02 -1.763706e-02 4.107634e-02 -1.504962e-01 -1.549231e-01 -1.329949e-01 -1.272122e-01 -9.676593e-02 -1.167338e-01 -7.014838e-02 -7.649767e-02 -5.492554e-02 2.447005e-01
<VARIANCE> 39
 1.763406e+01 2.284043e+01 1.959149e+01 2.282236e+01 2.498436e+01 2.576074e+01 2.183209e+01 2.492245e+01 2.501187e+01 2.414714e+01 1.918043e+01 1.487907e+01 3.784105e+01 1.346352e+00 1.580224e+00 1.566822e+00 2.149384e+00 2.195458e+00 2.243229e+00 2.157450e+00 2.166574e+00 2.163734e+00 1.988747e+00 1.727398e+00 1.364155e+00 2.723304e+00 2.353291e-01 2.846608e-01 2.702950e-01 3.892901e-01 3.946384e-01 4.190650e-01 4.090716e-01 3.917306e-01 3.942213e-01 3.662852e-01 3.120709e-01 2.587394e-01 4.271634e-01
<GCONST> 1.067717e+02
~h "@"
<BEGINHMM>
<NUMSTATES> 5
<STATE> 2
<MEAN> 39
 -6.567255e+00 -6.160437e+00 -5.159490e+00 -1.281026e+01 -2.644831e+00 -3.095214e+00 -6.267351e+00 -2.718452e+00 -2.122135e+00 -4.266429e+00 -5.018368e+00 -3.996653e+00 6.648556e+01 1.700314e+00 -1.272479e+00 -1.401809e+00 -1.871522e+00 4.630847e-01 1.265435e+00 -1.544832e-01 -5.854906e-03 -6.176798e-01 -6.315619e-01 -1.583441e-02 -6.569058e-01 6.584283e-01 -4.916311e-01 2.852778e-01 3.207450e-01 5.222973e-01 1.979871e-01 1.728527e-01 2.833684e-01 -5.030173e-02 -1.199163e-01 1.100925e-01 3.379676e-01 1.729336e-01 -3.671645e-01
<VARIANCE> 39
 2.381708e+01 3.306815e+01 2.927695e+01 5.089750e+01 3.971260e+01 5.732354e+01 4.457279e+01 3.725314e+01 4.305909e+01 4.946360e+01 3.669818e+01 2.495916e+01 2.905812e+01 2.969172e+00 2.431381e+00 2.298495e+00 4.009174e+00 4.486907e+00 4.203001e+00 4.220240e+00 4.230975e+00 4.004858e+00 3.778185e+00 3.535523e+00 2.255799e+00 1.502799e+00 4.836737e-01 4.077292e-01 3.155771e-01 5.923683e-01 6.246233e-01 8.019763e-01 6.856196e-01 6.676776e-01 6.223082e-01 5.817610e-01 5.493047e-01 3.719331e-01 2.795748e-01
<GCONST> 1.252167e+02
<STATE> 3
<MEAN> 39
 -4.423386e+00 -6.128455e+00 -7.150763e+00 -1.347798e+01 -8.230892e-01 1.442742e+00 -4.527529e+00 -3.195989e+00 -5.659883e+00 -5.637747e+00 -2.651103e+00 -4.495003e+00 6.510998e+01 3.503302e-02 3.450670e-01 2.159555e-01 2.060180e-01 -9.717789e-02 -9.751786e-02 1.281844e-01 -1.812066e-01 -2.279146e-01 4.297711e-02 -4.784731e-02 5.168851e-02 -3.246788e-01 -1.482027e-01 2.285967e-01 3.561893e-01 3.634934e-01 -1.264722e-01 -3.677081e-01 -1.046569e-01 -1.073892e-01 1.434202e-01 1.920552e-01 -1.630294e-01 6.988651e-02 -1.565933e-01
<VARIANCE> 39
 1.637473e+01 3.050916e+01 2.717055e+01 5.759822e+01 5.124422e+01 4.522332e+01 6.858614e+01 4.508797e+01 5.195856e+01 5.221469e+01 3.494746e+01 3.197783e+01 3.162712e+01 2.522049e-01 7.398559e-01 1.037772e+00 1.285692e+00 1.463878e+00 1.926191e+00 2.034832e+00 1.681398e+00 2.039243e+00 1.662464e+00 1.635014e+00 1.158450e+00 2.907496e-01 9.108630e-02 1.484234e-01 1.897644e-01 3.070805e-01 3.123893e-01 3.155625e-01 3.872996e-01 3.740478e-01 3.558346e-01 3.206487e-01 3.009726e-01 2.392424e-01 6.289305e-02
<GCONST> 1.019477e+02
<STATE> 4
<MEAN> 39
 -5.492356e+00 -2.574074e+00 -2.502990e+00 -9.735425e+00 -2.775114e+00 -3.635031e+00 -5.186483e+00 -5.852503e+00 -5.180588e+00 -3.537651e+00 -4.868409e+00 -3.929886e+00 6.229796e+01 -8.529156e-01 1.535832e+00 1.691451e+00 2.115516e+00 -2.804846e-01 -9.969614e-01 -6.535091e-02 -6.785486e-01 3.348440e-01 5.832005e-01 -2.981930e-01 4.098879e-01 -1.237681e+00 -3.815159e-01 6.333602e-02 4.274751e-02 1.564060e-01 1.646660e-01 1.793420e-01 2.120178e-01 2.027695e-01 1.036323e-01 -8.244161e-02 2.047617e-01 9.352637e-02 -7.496584e-02
<VARIANCE> 39
 1.948278e+01 3.449353e+01 4.236890e+01 6.354272e+01 4.602494e+01 6.292200e+01 5.797039e+01 5.364357e+01 5.488086e+01 5.760745e+01 4.079562e+01 3.180494e+01 3.086982e+01 1.875147e+00 2.182891e+00 2.367172e+00 3.561106e+00 3.225852e+00 3.204269e+00 3.889355e+00 4.174266e+00 3.360342e+00 3.294460e+00 2.606974e+00 2.066737e+00 1.334262e+00 3.431201e-01 3.866788e-01 5.064925e-01 7.123100e-01 4.941958e-01 5.638548e-01 6.338511e-01 7.554117e-01 6.199597e-01 5.811732e-01 4.770200e-01 3.648214e-01 2.319465e-01
<GCONST> 1.245124e+02
<TRANSP> 5
 0.000000e+00 1.000000e+00 0.000000e+00 0.000000e+00 0.000000e+00
 0.000000e+00 6.510419e-01 3.489582e-01 0.000000e+00 0.000000e+00
 0.000000e+00 0.000000e+00 8.150385e-01 1.849615e-01 0.000000e+00
 0.000000e+00 0.000000e+00 0.000000e+00 6.808910e-01 3.191090e-01
 0.000000e+00 0.000000e+00 0.000000e+00 0.000000e+00 0.000000e+00
<ENDHMM>
~h "E"
<BEGINHMM>
<NUMSTATES> 5
<STATE> 2
<MEAN> 39
 -7.839284e+00 -5.983205e+00 3.064601e+00 -9.670418e+00 -1.127355e+01 -9.920178e+00 -4.187645e+00 -8.674784e-01 -2.828477e+00 -3.618985e+00 -4.271904e+00 -1.439984e+00 6.617047e+01 9.629814e-01 -1.393995e+00 2.181957e-01 -1.377903e+00 -1.240119e+00 -6.636880e-01 2.429812e-01 4.051977e-01 -4.500167e-01 -3.858511e-01 -5.505698e-01 -1.404239e-01 1.395198e+00 -4.472008e-01 3.008780e-01 -1.392650e-01 4.260357e-01 5.743095e-01 5.579474e-01 2.097042e-01 -3.540530e-02 6.072360e-02 1.098101e-01 2.103219e-01 7.256921e-02 -4.574215e-01
<VARIANCE> 39
 1.955653e+01 3.751056e+01 4.067655e+01 5.839316e+01 3.820259e+01 4.113328e+01 5.019236e+01 4.304071e+01 3.994253e+01 4.267711e+01 2.847723e+01 2.251024e+01 3.072087e+01 2.944777e+00 2.200306e+00 3.101254e+00 4.053087e+00 3.662078e+00 4.313402e+00 4.236483e+00 3.390943e+00 3.044627e+00 3.150962e+00 2.426628e+00 1.835914e+00 2.136831e+00 4.116988e-01 4.296023e-01 3.476503e-01 5.857833e-01 5.020946e-01 5.746301e-01 5.769702e-01 5.641113e-01 5.004027e-01 4.746214e-01 3.855182e-01 3.131031e-01 3.367931e-01
<GCONST> 1.224243e+02
<STATE> 3
<MEAN> 39
 -7.630271e+00 -8.662036e+00 1.363257e+00 -1.023387e+01 -1.064787e+01 -7.499237e+00 -1.510371e+00 5.278296e-01 -3.251594e+00 -5.373443e+00 -4.524795e+00 -1.652831e+00 6.786351e+01 -1.185856e-02 6.091060e-02 2.751452e-02 2.162223e-01 1.068189e-01 1.487828e-01 -9.394589e-03 -1.106313e-01 -1.369702e-01 -1.686841e-01 -4.057317e-02 6.706771e-02 -2.104980e-01 -4.873632e-02 2.761964e-01 4.605182e-02 2.540452e-01 2.224587e-01 2.807993e-02 -1.602828e-01 -1.519618e-01 4.804221e-02 5.058715e-02 4.624113e-02 1.337789e-02 -2.969758e-01
<VARIANCE> 39
 1.643068e+01 3.638393e+01 4.236927e+01 6.465202e+01 4.516587e+01 3.988990e+01 5.584886e+01 5.239420e+01 4.356315e+01 4.953233e+01 2.768085e+01 2.250915e+01 3.033563e+01 3.093799e-01 8.245575e-01 1.075282e+00 1.071217e+00 1.481068e+00 1.429917e+00 1.627626e+00 1.450489e+00 1.337974e+00 1.391123e+00 1.019370e+00 9.384405e-01 4.360293e-01 1.039079e-01 1.786891e-01 1.772403e-01 2.918619e-01 3.030015e-01 2.962858e-01 3.135138e-01 2.923932e-01 2.486491e-01 2.456541e-01 1.914800e-01 1.751565e-01 1.270062e-01
<GCONST> 9.911700e+01
<STATE> 4
<MEAN> 39
 -7.893957e+00 -5.963121e+00 3.454610e+00 -8.925472e+00 -1.161401e+01 -8.673185e+00 -3.681362e+00 -1.787440e+00 -4.051214e+00 -3.969201e+00 -3.767727e+00 -5.652995e-01 6.410308e+01 -2.507299e-01 1.389014e+00 1.517879e-01 1.666118e+00 1.320328e+00 5.669078e-01 -1.507367e-01 -4.890854e-01 2.640284e-01 1.594079e-01 1.737290e-01 5.395285e-02 -1.934565e+00 -2.502815e-01 2.629118e-01 -1.197215e-01 3.553255e-01 5.217126e-01 3.173747e-01 1.283921e-01 5.750599e-02 1.514025e-01 1.024616e-01 1.052181e-01 -5.436455e-02 -3.767666e-01
<VARIANCE> 39
 1.860962e+01 3.967026e+01 4.875880e+01 6.450687e+01 4.756870e+01 4.615587e+01 5.371138e+01 6.275581e+01 4.813327e+01 5.813786e+01 4.056709e+01 3.193061e+01 4.121347e+01 1.292190e+00 2.020999e+00 2.217921e+00 2.945354e+00 3.205215e+00 3.311872e+00 3.967968e+00 3.520683e+00 3.220174e+00 3.016294e+00 2.518734e+00 2.263878e+00 2.457835e+00 2.362098e-01 3.681889e-01 3.890184e-01 4.860225e-01 4.911865e-01 5.301289e-01 5.227366e-01 6.731641e-01 5.741152e-01 5.492262e-01 4.670855e-01 3.920431e-01 3.849140e-01
<GCONST> 1.234195e+02
<TRANSP> 5
 0.000000e+00 1.000000e+00 0.000000e+00 0.000000e+00 0.000000e+00
 0.000000e+00 5.005440e-01 4.994560e-01 0.000000e+00 0.000000e+00
 0.000000e+00 0.000000e+00 7.772322e-01 2.227678e-01 0.000000e+00
 0.000000e+00 0.000000e+00 0.000000e+00 5.053589e-01 4.946411e-01
 0.000000e+00 0.000000e+00 0.000000e+00 0.000000e+00 0.000000e+00
<ENDHMM>
~h "N"
<BEGINHMM>
<NUMSTATES> 5
<STATE> 2
<MEAN> 39
 -5.222367e+00 -1.314678e+00 -3.556186e+00 -9.182087e+00 -3.898077e+00 -5.144802e+00 -5.717114e+00 -4.005476e+00 -4.615235e+00 -2.240357e+00 -5.066727e+00 -4.699119e+00 6.258704e+01 1.866366e+00 -8.429210e-01 -8.739629e-01 -2.048223e+00 -4.595677e-01 1.232522e+00 -3.563657e-01 9.355240e-02 -6.561704e-01 -3.918637e-01 2.593917e-02 -7.781285e-01 6.776649e-01 -3.492765e-01 1.055198e-02 2.365252e-01 1.928813e-01 5.350542e-02 3.554908e-01 4.314831e-01 3.525073e-02 -8.290476e-02 -2.994096e-02 2.881265e-01 3.113139e-01 -2.800371e-01
<VARIANCE> 39
 2.650230e+01 3.036959e+01 3.106601e+01 5.823188e+01 3.705473e+01 5.851984e+01 4.517854e+01 3.621180e+01 4.283143e+01 4.567202e+01 3.789783e+01 2.241105e+01 2.865031e+01 4.561250e+00 2.881808e+00 3.754465e+00 4.437262e+00 5.963848e+00 4.890533e+00 4.459198e+00 4.831654e+00 4.394926e+00 3.976483e+00 3.245439e+00 2.576764e+00 1.409606e+00 5.939394e-01 3.976588e-01 4.577358e-01 6.613161e-01 6.500496e-01 7.627497e-01 6.852506e-01 8.470110e-01 6.730781e-01 5.864344e-01 4.998463e-01 4.066548e-01 3.206942e-01
<GCONST> 1.282449e+02
<STATE> 3
<MEAN> 39
 -2.712579e+00 -5.572998e+00 -6.131939e+00 -1.498885e+01 -3.142032e+00 -5.098218e-02 -5.389868e+00 -3.466695e+00 -6.780440e+00 -4.606863e+00 -2.651651e+00 -5.226367e+00 6.489259e+01 2.693396e-01 8.799820e-02 1.305123e-02 -5.172806e-01 -2.465300e-01 6.474084e-01 7.218421e-01 9.406126e-02 -3.872034e-01 -4.230836e-01 2.779660e-01 2.726907e-01 -3.280539e-01 -2.868244e-01 3.241705e-01 3.359771e-01 5.479779e-01 1.714393e-02 -4.710746e-01 5.924991e-02 -6.077830e-02 1.850132e-01 1.008663e-01 -1.701822e-01 1.137046e-01 -2.626176e-01
<VARIANCE> 39
 1.801362e+01 2.575575e+01 3.280087e+01 5.973646e+01 5.497527e+01 7.195473e+01 4.889170e+01 3.582688e+01 3.818756e+01 5.149464e+01 4.035442e+01 2.488031e+01 2.036250e+01 4.008763e-01 1.030726e+00 1.207963e+00 2.018924e+00 2.101464e+00 2.840875e+00 2.297275e+00 2.146028e+00 2.347879e+00 1.950811e+00 2.017089e+00 1.464589e+00 5.995692e-01 2.210958e-01 2.188734e-01 2.533978e-01 4.101888e-01 5.186284e-01 4.546303e-01 4.588239e-01 4.905415e-01 4.478726e-01 4.226441e-01 3.470576e-01 3.151977e-01 1.284187e-01
<GCONST> 1.099830e+02
<STATE> 4
<MEAN> 39
 -3.006267e+00 -1.060017e+00 -1.903279e+00 -9.969380e+00 -5.094843e+00 -1.533510e+00 -2.489461e+00 -4.285989e+00 -6.586613e+00 -3.372374e+00 -3.871752e+00 -3.770241e+00 5.973436e+01 -3.400598e-01 4.491633e-01 5.707564e-01 1.123332e+00 2.876132e-01 -3.377212e-01 -9.066362e-02 -3.123514e-01 2.152445e-01 2.732295e-01 -6.374412e-02 1.757130e-01 -7.847531e-01 -2.170541e-01 3.570692e-02 3.253933e-02 2.575669e-01 1.559511e-01 -1.714836e-02 -4.383329e-02 4.994882e-02 1.180306e-01 8.840957e-02 6.967752e-02 3.775376e-02 -9.664334e-02
<VARIANCE> 39
 2.340235e+01 2.569926e+01 3.411776e+01 6.387514e+01 4.782930e+01 5.635152e+01 6.135247e+01 5.507562e+01 4.988313e+01 5.078210e+01 3.827379e+01 2.887551e+01 2.372286e+01 6.479024e-01 1.189822e+00 1.393666e+00 2.692930e+00 2.017140e+00 2.183291e+00 2.471165e+00 2.683375e+00 2.308543e+00 2.074055e+00 1.681647e+00 1.480541e+00 1.379494e+00 1.723365e-01 1.813604e-01 2.424994e-01 4.366904e-01 3.759490e-01 4.003017e-01 4.702651e-01 5.202171e-01 4.543878e-01 3.882749e-01 3.108562e-01 2.868389e-01 1.185690e-01
<GCONST> 1.117389e+02
<TRANSP> 5
 0.000000e+00 1.000000e+00 0.000000e+00 0.000000e+00 0.000000e+00
 0.000000e+00 5.493468e-01 4.506532e-01 0.000000e+00 0.000000e+00
 0.000000e+00 0.000000e+00 6.782730e-01 3.217270e-01 0.000000e+00
 0.000000e+00 0.000000e+00 0.000000e+00 8.161402e-01 1.838598e-01
 0.000000e+00 0.000000e+00 0.000000e+00 0.000000e+00 0.000000e+00
<ENDHMM>
~h "O"
<BEGINHMM>
<NUMSTATES> 5
<STATE> 2
<MEAN> 39
 -3.440131e+00 -4.477015e+00 -3.852076e+00 -1.090829e+01 -6.506097e+00 -4.296954e+00 -8.231343e+00 -3.603987e+00 -2.392693e-01 -1.081438e+00 -4.066983e+00 -3.114591e+00 6.422482e+01 1.471390e+00 -1.253238e+00 -7.098988e-01 -1.852641e+00 -5.377643e-01 1.180011e-01 -7.405140e-01 9.900747e-02 4.230931e-01 3.313833e-02 -8.628702e-01 -6.737464e-01 1.207626e+00 -5.589220e-01 3.093711e-01 2.309113e-01 6.473315e-01 4.442066e-01 3.058371e-01 4.788927e-01 1.229644e-01 -1.177194e-01 -4.501517e-02 1.867918e-01 1.505776e-01 -5.870674e-01
<VARIANCE> 39
 1.931409e+01 2.760979e+01 3.583947e+01 6.476521e+01 3.386588e+01 8.459298e+01 4.277680e+01 4.754376e+01 3.822496e+01 4.625154e+01 4.541153e+01 2.962154e+01 2.334033e+01 3.380629e+00 1.881105e+00 2.334237e+00 4.978416e+00 3.687393e+00 4.708125e+00 3.712035e+00 4.324980e+00 3.454081e+00 3.553539e+00 3.009069e+00 2.360190e+00 1.283311e+00 4.617589e-01 3.594775e-01 3.538466e-01 6.150734e-01 4.029804e-01 6.638007e-01 5.041579e-01 7.652134e-01 5.511782e-01 5.704545e-01 5.524397e-01 3.883810e-01 3.207546e-01
<GCONST> 1.243411e+02
<STATE> 3
<MEAN> 39
 -3.171024e+00 -6.046998e+00 -4.773038e+00 -1.108572e+01 -5.465731e+00 -1.685728e+00 -6.838977e+00 -1.346215e+00 -7.064650e-02 -2.207470e+00 -4.765011e+00 -3.586053e+00 6.473946e+01 5.606267e-02 2.289026e-01 -5.551178e-02 4.428553e-02 3.808207e-01 2.391697e-01 2.013873e-01 -2.016135e-01 -2.096678e-01 -2.000838e-01 -8.913513e-02 2.038177e-02 -3.261026e-01 -1.572186e-01 3.683842e-01 3.139726e-01 4.263501e-01 2.879534e-02 -1.429049e-01 6.818113e-02 -1.643262e-01 -2.358045e-01 -6.336909e-03 1.162999e-01 1.241806e-01 -3.159477e-01
<VARIANCE> 39
 1.796437e+01 2.666088e+01 3.180088e+01 7.054396e+01 3.232688e+01 8.856109e+01 5.376585e+01 5.124330e+01 4.657516e+01 5.947078e+01 4.640187e+01 3.104497e+01 2.184535e+01 2.818706e-01 7.017801e-01 1.039050e+00 1.425669e+00 1.465924e+00 1.981771e+00 1.475332e+00 1.812831e+00 1.641151e+00 1.573140e+00 1.376162e+00 1.146037e+00 3.409789e-01 1.920079e-01 1.838986e-01 1.658625e-01 4.156324e-01 3.142387e-01 3.290320e-01 3.592457e-01 4.389906e-01 3.518454e-01 3.499113e-01 2.904885e-01 2.320298e-01 9.483424e-02
<GCONST> 1.035978e+02
<STATE> 4
<MEAN> 39
 -3.675695e+00 -4.081290e+00 -2.828841e+00 -1.022741e+01 -5.139600e+00 -4.395228e+00 -7.422489e+00 -3.239040e+00 -1.307156e+00 -2.665892e+00 -5.396411e+00 -2.872261e+00 6.314526e+01 -6.547371e-01 1.747382e+00 1.180907e+00 2.191572e+00 5.177806e-01 -2.746709e-01 5.797950e-01 -8.704574e-01 -1.053704e+00 -1.316545e-01 2.500044e-01 3.113330e-01 -1.503705e+00 -4.320124e-01 1.897118e-01 1.640735e-01 5.511360e-01 1.885287e-01 6.333015e-02 3.365334e-01 -6.111682e-02 -9.440166e-03 1.542230e-01 1.601076e-01 5.870061e-02 -2.443964e-01
<VARIANCE> 39
 1.868033e+01 2.532205e+01 3.460527e+01 6.424506e+01 3.060002e+01 8.999293e+01 5.201779e+01 4.515339e+01 4.763629e+01 5.792796e+01 4.118820e+01 3.418550e+01 2.237227e+01 1.752462e+00 1.531087e+00 1.875866e+00 3.152711e+00 3.334800e+00 4.323682e+00 3.345807e+00 3.539669e+00 3.013957e+00 2.885790e+00 2.529245e+00 1.914151e+00 7.083008e-01 3.721510e-01 3.146311e-01 3.440340e-01 5.294773e-01 4.157640e-01 6.297811e-01 5.921897e-01 7.584156e-01 4.982000e-01 4.746583e-01 4.257567e-01 3.607028e-01 1.410566e-01
<GCONST> 1.195437e+02
<TRANSP> 5
 0.000000e+00 1.000000e+00 0.000000e+00 0.000000e+00 0.000000e+00
 0.000000e+00 5.378542e-01 4.621458e-01 0.000000e+00 0.000000e+00
 0.000000e+00 0.000000e+00 7.448165e-01 2.551835e-01 0.000000e+00
 0.000000e+00 0.000000e+00 0.000000e+00 4.638013e-01 5.361987e-01
 0.000000e+00 0.000000e+00 0.000000e+00 0.000000e+00 0.000000e+00
<ENDHMM>
~h "R"
<BEGINHMM>
<NUMSTATES> 5
<STATE> 2
<MEAN> 39
 -7.385352e+00 -4.678358e+00 -2.414446e+00 -8.848166e+00 -1.349548e+00 -9.918641e-01 -6.000503e+00 -3.644504e+00 -1.404105e-01 -3.603434e+00 -4.550117e+00 -1.283258e+00 6.182260e+01 -9.292380e-01 3.401773e-01 1.520076e-01 9.199319e-01 1.455261e+00 7.076373e-01 -5.269682e-02 3.005091e-01 3.248209e-01 1.732048e-01 3.324375e-01 1.487468e-01 -7.849876e-01 -2.961878e-01 -1.426675e-02 6.292100e-02 2.124170e-01 -2.831905e-02 -1.851911e-01 2.867280e-01 2.976347e-01 -4.266148e-02 1.131995e-01 1.785365e-01 2.983506e-02 -6.635648e-02
<VARIANCE> 39
 3.276213e+01 3.482681e+01 3.024868e+01 6.760604e+01 4.650481e+01 5.900395e+01 5.287397e+01 4.275316e+01 4.134000e+01 6.869639e+01 3.657014e+01 2.545566e+01 3.438477e+01 2.203164e+00 2.159997e+00 2.005772e+00 4.606252e+00 3.991550e+00 3.683653e+00 3.211361e+00 3.390769e+00 2.798311e+00 2.958683e+00 2.408534e+00 1.912753e+00 1.304818e+00 2.635482e-01 3.099990e-01 3.306206e-01 5.879000e-01 4.884692e-01 5.076835e-01 5.696332e-01 5.396718e-01 5.275000e-01 5.498337e-01 4.096409e-01 3.259836e-01 2.506116e-01
<GCONST> 1.217209e+02
<STATE> 3
<MEAN> 39
 -1.334191e+01 -4.857033e+00 -2.585093e+00 -4.482363e+00 4.232314e+00 6.171423e-01 -4.122698e+00 2.052707e-01 1.211962e+00 -1.932614e+00 -2.149691e+00 -1.099892e-01 5.956016e+01 -1.075101e+00 1.064187e-02 -4.164051e-03 6.858299e-01 6.099194e-01 -1.733978e-01 4.870473e-01 8.589172e-01 3.735574e-01 4.503482e-01 6.174260e-01 1.182400e-01 -4.083891e-01 4.594934e-01 4.229397e-02 8.719603e-02 -3.816832e-01 -7.869374e-01 -3.461854e-01 6.227835e-02 -2.382504e-01 -2.074397e-01 -1.222482e-01 -1.080953e-01 -8.833677e-02 1.681426e-01
<VARIANCE> 39
 4.219386e+01 3.231488e+01 3.385589e+01 5.335631e+01 6.103168e+01 5.246751e+01 4.663229e+01 4.458208e+01 3.642039e+01 4.643476e+01 3.045902e+01 2.543604e+01 3.573457e+01 2.523402e+00 2.055018e+00 2.200267e+00 3.286272e+00 3.906642e+00 3.376822e+00 3.301543e+00 3.431760e+00 3.196183e+00 3.678050e+00 2.523110e+00 1.962669e+00 1.389012e+00 4.446407e-01 4.220948e-01 4.200423e-01 7.392684e-01 7.116079e-01 6.375296e-01 6.495996e-01 7.026892e-01 5.600870e-01 5.756518e-01 4.795879e-01 3.719738e-01 3.659786e-01
<GCONST> 1.245132e+02
<STATE> 4
<MEAN> 39
 -1.463364e+01 -4.869657e+00 -3.157307e+00 -4.731706e+00 4.641198e+00 6.401720e-01 -2.474396e+00 1.589225e+00 2.446871e+00 -4.922115e-01 -2.285279e-01 2.288487e-01 5.807391e+01 3.827905e-01 3.728403e-01 3.931946e-01 -1.450064e-02 -7.220169e-01 -3.635642e-01 1.400017e-01 -2.292501e-01 -2.729001e-01 -1.176775e-01 6.117627e-02 -1.074111e-01 -3.654095e-01 2.924852e-01 3.155255e-02 1.010145e-01 -1.650311e-01 -3.064795e-01 -2.963545e-02 -2.882356e-02 -2.005280e-01 -1.659189e-01 -8.750582e-02 -1.153145e-01 -2.593734e-02 2.113372e-02
<VARIANCE> 39
 4.100909e+01 3.081984e+01 3.393829e+01 4.502623e+01 6.499454e+01 4.982571e+01 4.262400e+01 4.608420e+01 4.031846e+01 3.813327e+01 2.888446e+01 2.393921e+01 3.315989e+01 2.249047e+00 1.773844e+00 1.721638e+00 2.726880e+00 3.223571e+00 2.559855e+00 2.636520e+00 2.751742e+00 2.545820e+00 2.497433e+00 1.967088e+00 1.582110e+00 1.879447e+00 2.828389e-01 3.063653e-01 2.600476e-01 4.943544e-01 5.012930e-01 4.762437e-01 4.780873e-01 5.281334e-01 4.379192e-01 4.179201e-01 3.598014e-01 2.960337e-01 2.638429e-01
<GCONST> 1.172569e+02
<TRANSP> 5
 0.000000e+00 1.000000e+00 0.000000e+00 0.000000e+00 0.000000e+00
 0.000000e+00 4.854104e-01 5.145896e-01 0.000000e+00 0.000000e+00
 0.000000e+00 0.000000e+00 4.397963e-01 5.602038e-01 0.000000e+00
 0.000000e+00 0.000000e+00 0.000000e+00 6.017309e-01 3.982691e-01
 0.000000e+00 0.000000e+00 0.000000e+00 0.000000e+00 0.000000e+00
<ENDHMM>
~h "S"
<BEGINHMM>
<NUMSTATES> 5
<STATE> 2
<MEAN> 39
 -1.729293e+01 -6.187278e-01 7.434474e+00 -1.960809e+00 -4.039375e+00 -1.805817e+00 -1.069020e+00 -2.198762e-01 -9.625018e-01 -3.856191e+00 -1.478655e+00 -8.395926e-01 6.169817e+01 -4.530934e+00 1.754689e-01 5.767069e-02 -3.763120e-02 1.121947e+00 1.221310e+00 1.108126e+00 6.063058e-01 1.167218e+00 3.042390e-01 1.001247e+00 1.365238e-01 7.332937e-01 3.733142e-02 -2.056515e-01 -3.007324e-01 -3.900980e-01 -2.218421e-01 -9.869323e-02 -1.603602e-01 -5.700912e-02 5.250431e-03 2.420103e-01 2.110846e-02 5.513066e-02 1.080415e-01
<VARIANCE> 39
 6.434192e+01 2.826037e+01 2.546905e+01 4.695722e+01 2.777275e+01 3.101436e+01 3.263241e+01 3.310003e+01 3.715148e+01 2.414505e+01 2.029158e+01 1.511507e+01 1.712955e+01 2.212804e+00 2.419061e+00 3.007940e+00 3.075626e+00 3.382057e+00 3.123321e+00 3.789602e+00 3.832672e+00 2.682235e+00 3.043451e+00 2.052626e+00 1.670606e+00 1.309054e+00 9.946141e-01 3.656565e-01 3.612962e-01 4.540263e-01 4.473169e-01 5.071234e-01 5.300273e-01 4.747746e-01 4.450540e-01 3.790435e-01 3.181987e-01 2.922304e-01 1.996969e-01
<GCONST> 1.164673e+02
<STATE> 3
<MEAN> 39
 -2.940672e+01 -1.067182e+00 6.672837e+00 -5.027180e+00 -2.314935e+00 6.519488e-02 2.411622e-01 4.129581e-01 2.037976e+00 -1.588464e+00 1.474635e+00 4.385589e-01 6.450040e+01 -3.901233e-01 -8.295999e-02 -1.655764e-01 -2.751399e-01 1.330481e-02 -2.876109e-02 -6.329703e-02 -2.634874e-02 1.901041e-01 8.676214e-02 8.231968e-02 1.261038e-01 7.702449e-02 7.346232e-01 -6.341890e-02 -3.427928e-02 5.692630e-02 -1.323287e-01 -1.854423e-01 -1.360642e-01 -5.235897e-02 -1.303104e-01 -1.022781e-01 -1.840062e-01 -6.264334e-02 -1.924042e-01
<VARIANCE> 39
 8.144606e+00 2.692964e+01 1.840898e+01 3.684112e+01 2.823341e+01 2.406103e+01 2.410156e+01 1.956341e+01 2.050694e+01 1.618340e+01 1.301280e+01 1.076321e+01 1.311783e+01 1.852439e+00 8.007503e-01 8.106723e-01 8.812092e-01 9.271489e-01 1.123872e+00 1.072885e+00 1.088850e+00 1.068519e+00 1.022538e+00 9.509536e-01 8.204399e-01 4.737171e-01 2.968447e-01 1.571737e-01 1.914672e-01 1.771861e-01 2.190551e-01 2.464905e-01 2.369391e-01 2.483028e-01 2.221815e-01 2.175885e-01 1.915278e-01 1.641245e-01 7.540773e-02
<GCONST> 8.765829e+01
<STATE> 4
<MEAN> 39
 -2.262560e+01 -2.985168e+00 4.776079e+00 -4.653770e+00 -3.557876e+00 -1.616441e+00 -1.352552e+00 4.264830e-01 2.755742e+00 -2.067968e+00 -1.915998e-01 1.057027e-01 6.207909e+01 4.394322e+00 -6.258613e-01 -1.008316e+00 -5.570095e-01 -1.091840e+00 -1.069730e+00 -1.353946e+00 -3.360925e-01 -6.250256e-01 -4.236397e-01 -1.228833e+00 -6.569926e-01 -4.353462e-01 7.366912e-01 -1.634046e-01 -2.000455e-01 -3.240791e-01 -1.977914e-01 -6.211418e-02 -1.525234e-01 -6.249233e-02 -2.818850e-01 -1.654995e-02 -2.107489e-01 -1.462053e-01 2.251627e-01
<VARIANCE> 39
 5.642877e+01 2.253690e+01 1.915423e+01 3.715014e+01 2.888420e+01 3.024369e+01 3.225149e+01 2.679812e+01 2.832825e+01 2.374798e+01 1.979783e+01 1.549089e+01 1.934302e+01 6.184033e+00 2.644501e+00 2.595477e+00 2.834596e+00 3.508690e+00 3.858708e+00 2.782991e+00 2.483123e+00 2.141154e+00 2.753405e+00 2.743720e+00 1.433779e+00 1.524735e+00 1.040247e+00 3.703163e-01 3.328424e-01 4.832049e-01 4.485763e-01 5.705097e-01 4.967189e-01 4.545402e-01 3.914847e-01 4.478205e-01 4.541628e-01 2.730567e-01 3.207674e-01
<GCONST> 1.164232e+02
<TRANSP> 5
 0.000000e+00 1.000000e+00 0.000000e+00 0.000000e+00 0.000000e+00
 0.000000e+00 7.011592e-01 2.988407e-01 0.000000e+00 0.000000e+00
 0.000000e+00 0.000000e+00 8.442614e-01 1.557386e-01 0.000000e+00
 0.000000e+00 0.000000e+00 0.000000e+00 6.340071e-01 3.659929e-01
 0.000000e+00 0.000000e+00 0.000000e+00 0.000000e+00 0.000000e+00
<ENDHMM>
~h "Z"
<BEGINHMM>
<NUMSTATES> 5
<STATE> 2
<MEAN> 39
 -1.349071e+01 -9.829038e-01 3.552326e+00 -3.349883e-01 -1.224411e-01 -1.352489e-01 9.781209e-01 1.627271e+00 1.394146e+00 1.934428e-01 1.723860e+00 2.153638e+00 4.950391e+01 -7.782273e-01 2.093281e-01 4.879320e-01 1.379901e-01 -9.432742e-03 -7.040293e-02 -1.767520e-03 -1.193543e-01 1.264950e-01 -1.281161e-01 1.331825e-02 -3.102424e-02 3.362374e-01 -8.362550e-02 -4.594484e-04 4.758978e-02 -7.084101e-02 -4.585024e-03 1.198230e-02 -2.111587e-02 -1.125612e-03 -4.211367e-02 -1.948804e-02 -3.520460e-02 -2.783362e-02 1.034262e-01
<VARIANCE> 39
 1.988366e+01 2.032358e+01 2.250605e+01 2.949439e+01 3.556672e+01 3.547126e+01 3.606470e+01 3.383197e+01 2.680500e+01 2.591166e+01 2.049587e+01 1.617819e+01 7.086696e+01 3.019142e+00 1.633480e+00 1.711882e+00 1.795229e+00 2.115921e+00 2.266379e+00 2.072762e+00 1.856571e+00 1.808104e+00 1.656841e+00 1.422802e+00 1.145406e+00 1.602158e+00 2.052720e-01 1.754380e-01 1.690926e-01 2.239490e-01 2.630606e-01 3.159622e-01 2.966455e-01 3.040852e-01 2.745378e-01 2.757218e-01 2.286896e-01 2.050777e-01 1.321926e-01
<GCONST> 1.035673e+02
<STATE> 3
<MEAN> 39
 -1.663831e+01 -2.030345e-01 9.703092e+00 -2.829869e+00 -5.419539e+00 -4.663500e+00 -4.182136e+00 -2.921138e+00 -8.979007e-01 -3.692003e+00 -1.477457e+00 1.282088e-01 5.968335e+01 -2.327646e+00 7.865728e-01 9.003770e-01 -1.433244e-01 1.444430e-01 7.495320e-02 -1.263312e-01 -3.028083e-01 6.533058e-02 -5.653874e-01 1.583620e-02 -3.940704e-01 1.625435e+00 1.107728e-01 4.102135e-03 -3.111488e-01 -1.627956e-02 1.755821e-01 2.153870e-01 1.065212e-01 1.823488e-01 3.948450e-02 1.641652e-01 2.292928e-02 4.156629e-02 -1.961850e-01
<VARIANCE> 39
 5.652157e+01 3.340009e+01 3.012225e+01 5.970058e+01 5.160662e+01 5.410259e+01 4.652617e+01 4.281652e+01 3.822029e+01 3.463491e+01 2.598704e+01 2.541362e+01 4.276791e+01 4.901696e+00 2.991495e+00 2.609091e+00 3.262064e+00 4.288235e+00 4.624740e+00 4.247077e+00 3.473603e+00 2.794610e+00 2.776872e+00 2.195637e+00 1.993478e+00 3.251636e+00 1.014956e+00 6.482660e-01 4.338836e-01 5.929102e-01 7.581830e-01 8.109916e-01 7.534488e-01 6.078397e-01 5.120831e-01 5.064729e-01 4.362095e-01 3.753370e-01 4.423012e-01
<GCONST> 1.278749e+02
<STATE> 4
<MEAN> 39
 -2.409451e+01 2.148097e+00 1.056791e+01 -3.595251e+00 -3.933744e+00 -3.015984e+00 -4.226974e+00 -2.464747e+00 -1.212942e-01 -4.663374e+00 -1.270180e+00 -7.324416e-01 6.456900e+01 8.320321e-01 -3.344007e-01 -5.093244e-01 -3.241835e-01 -4.237114e-01 -5.863836e-01 -4.863408e-01 3.592948e-02 -6.595875e-02 -3.419106e-02 -2.058986e-01 5.677206e-02 2.619198e-01 1.119435e+00 -4.298559e-01 -2.948527e-01 -2.331063e-01 -3.643668e-01 -3.931690e-01 -2.560169e-01 -3.277619e-02 -1.647528e-01 5.903110e-02 -1.314848e-01 4.734546e-02 -1.459531e-01
<VARIANCE> 39
 3.242668e+01 2.727867e+01 2.122454e+01 4.866755e+01 3.908311e+01 4.093522e+01 3.685785e+01 3.223427e+01 2.898383e+01 2.351160e+01 1.934223e+01 1.400283e+01 1.517434e+01 6.368667e+00 1.530134e+00 1.552482e+00 1.527497e+00 2.593950e+00 3.676293e+00 2.600777e+00 1.951637e+00 1.632662e+00 1.461806e+00 1.254239e+00 1.001302e+00 5.578751e-01 5.046502e-01 3.072577e-01 3.009237e-01 3.282577e-01 4.293949e-01 5.821853e-01 4.718924e-01 3.967662e-01 3.071263e-01 3.108444e-01 2.600328e-01 2.185694e-01 1.012193e-01
<GCONST> 1.074919e+02
<TRANSP> 5
 0.000000e+00 1.000000e+00 0.000000e+00 0.000000e+00 0.000000e+00
 0.000000e+00 7.291931e-01 2.708069e-01 0.000000e+00 0.000000e+00
 0.000000e+00 0.000000e+00 6.046637e-01 3.953363e-01 0.000000e+00
 0.000000e+00 0.000000e+00 0.000000e+00 7.846500e-01 2.153500e-01
 0.000000e+00 0.000000e+00 0.000000e+00 0.000000e+00 0.000000e+00
<ENDHMM>
~h "^"
<BEGINHMM>
<NUMSTATES> 5
<STATE> 2
<MEAN> 39
 -1.197688e+01 -1.139325e+00 1.886833e+00 -5.946942e+00 -5.038342e+00 -7.181230e+00 -6.174301e+00 -3.104757e+00 -1.385259e+00 -2.780106e+00 -3.526621e+00 -7.032401e-01 6.169716e+01 2.242053e+00 -6.844524e-01 5.850910e-01 -1.384561e+00 -1.513231e+00 -1.387333e+00 -1.510861e+00 -5.169606e-01 -2.355788e-01 -1.354327e-01 -1.000349e+00 -1.521355e-01 7.901485e-01 -1.345934e-01 -7.127535e-02 -1.501224e-01 8.162034e-02 2.309577e-01 3.270901e-01 3.389924e-01 2.763011e-01 1.174184e-01 1.648732e-01 9.848492e-02 6.468040e-02 -1.705996e-01
<VARIANCE> 39
 8.731040e+01 2.385183e+01 2.485281e+01 4.891021e+01 3.861831e+01 5.606358e+01 4.041893e+01 2.712729e+01 3.119331e+01 3.173781e+01 2.721965e+01 1.648645e+01 2.817527e+01 4.595535e+00 2.976661e+00 2.139351e+00 4.221580e+00 4.275864e+00 4.916656e+00 4.152599e+00 4.040721e+00 2.996173e+00 3.149029e+00 2.749820e+00 2.201797e+00 2.884735e+00 8.866562e-01 3.060623e-01 3.048072e-01 4.515813e-01 3.619441e-01 4.765846e-01 3.913004e-01 3.831573e-01 3.842611e-01 3.441472e-01 3.667032e-01 2.581093e-01 4.236651e-01
<GCONST> 1.210494e+02
<STATE> 3
<MEAN> 39
 -9.317401e+00 -4.820642e+00 1.468469e+00 -1.027086e+01 -6.244056e+00 -8.704885e+00 -7.850673e+00 -1.890888e+00 -4.140162e-01 -1.753582e+00 -5.508447e+00 -3.260451e-01 6.463004e+01 6.556396e-01 -4.941803e-01 2.667847e-01 -4.571793e-01 -2.623663e-01 -4.058888e-01 -1.871995e-01 4.014191e-01 8.133496e-02 1.571714e-01 -4.150410e-01 1.808577e-01 1.088821e-01 -4.322601e-01 4.587851e-01 -2.926211e-02 6.244458e-01 4.553238e-01 4.660326e-01 4.248521e-01 2.842955e-02 1.187092e-03 -8.209141e-02 3.127768e-01 4.587691e-02 -5.394450e-01
<VARIANCE> 39
 7.098460e+01 3.161431e+01 2.880251e+01 6.446396e+01 4.289734e+01 6.795967e+01 5.707994e+01 3.992550e+01 3.991956e+01 4.670399e+01 3.929671e+01 2.217935e+01 3.096931e+01 1.515376e+00 2.407112e+00 1.387027e+00 2.883436e+00 2.176465e+00 3.601291e+00 2.326577e+00 2.457517e+00 2.009550e+00 2.003196e+00 1.682136e+00 1.453032e+00 2.806641e+00 7.691527e-01 3.347484e-01 3.332975e-01 4.840932e-01 5.032011e-01 7.277998e-01 5.819702e-01 6.278790e-01 4.683798e-01 5.002936e-01 4.018692e-01 3.650214e-01 2.650913e-01
<GCONST> 1.202738e+02
<STATE> 4
<MEAN> 39
 -9.823340e+00 -4.219463e+00 2.581249e+00 -9.340809e+00 -5.952575e+00 -9.420230e+00 -6.023072e+00 -1.715640e+00 -5.618880e-01 -2.811540e+00 -5.144713e+00 4.503625e-01 6.393196e+01 1.450689e-01 1.202660e+00 3.087837e-01 1.209998e+00 5.827246e-01 6.200080e-01 1.853602e-01 -2.283055e-01 -1.010951e-01 -1.513960e-01 3.150702e-01 -2.928434e-02 -1.541830e+00 -1.628795e-01 2.992638e-01 -1.168428e-01 4.589560e-01 2.487278e-01 4.425682e-01 1.896376e-01 -3.025269e-02 -3.444135e-02 3.780197e-02 2.245559e-01 -1.061497e-01 -4.948124e-01
<VARIANCE> 39
 6.524961e+01 4.292228e+01 2.505178e+01 6.333614e+01 3.920004e+01 7.627109e+01 6.236429e+01 4.010424e+01 3.759917e+01 4.070121e+01 3.890738e+01 2.581571e+01 4.903462e+01 2.286283e+00 2.668598e+00 1.866181e+00 3.319957e+00 2.420192e+00 2.835022e+00 3.026754e+00 2.565378e+00 2.287582e+00 2.088560e+00 1.681482e+00 1.737439e+00 4.227440e+00 4.315009e-01 4.428738e-01 2.648010e-01 4.703421e-01 4.444203e-01 8.390245e-01 6.690296e-01 5.958374e-01 3.999520e-01 4.444890e-01 3.210274e-01 3.535247e-01 4.691578e-01
<GCONST> 1.223308e+02
<TRANSP> 5
 0.000000e+00 1.000000e+00 0.000000e+00 0.000000e+00 0.000000e+00
 0.000000e+00 2.421899e-01 7.578101e-01 0.000000e+00 0.000000e+00
 0.000000e+00 0.000000e+00 4.196836e-01 5.803164e-01 0.000000e+00
 0.000000e+00 0.000000e+00 0.000000e+00 3.691230e-01 6.308770e-01
 0.000000e+00 0.000000e+00 0.000000e+00 0.000000e+00 0.000000e+00
<ENDHMM>
~h "a"
<BEGINHMM>
<NUMSTATES> 5
<STATE> 2
<MEAN> 39
 -6.146411e+00 -8.360779e+00 -2.784549e+00 -1.090460e+01 -7.015842e+00 -6.602833e+00 -3.943487e+00 1.554450e-01 -4.080652e-01 -3.734338e+00 -6.065954e+00 -2.760977e+00 6.711681e+01 6.103030e-01 -1.685278e+00 -7.980596e-01 -9.551566e-01 -5.263364e-02 2.593766e-01 6.271582e-01 7.376492e-01 1.044364e-01 -7.657666e-01 -7.355485e-01 -2.106989e-01 1.275778e+00 -3.636656e-01 4.105879e-01 2.356050e-01 5.067927e-01 3.498951e-01 2.648706e-01 1.071823e-01 -2.160726e-01 -1.423931e-01 6.928756e-02 2.907997e-01 1.726357e-01 -5.218399e-01
<VARIANCE> 39
 1.905390e+01 3.252282e+01 3.316937e+01 5.333294e+01 4.535049e+01 5.389483e+01 4.924146e+01 4.284437e+01 3.868999e+01 6.007995e+01 3.376477e+01 2.627954e+01 2.757930e+01 2.271465e+00 2.084221e+00 2.190977e+00 3.507333e+00 3.037614e+00 3.664040e+00 3.378789e+00 3.492105e+00 2.846946e+00 3.099795e+00 2.476433e+00 2.010132e+00 1.687911e+00 3.453900e-01 4.219905e-01 3.195063e-01 4.527345e-01 5.088407e-01 5.839688e-01 5.503768e-01 5.869145e-01 4.751069e-01 5.348215e-01 4.257312e-01 3.207884e-01 3.510731e-01
<GCONST> 1.210641e+02
<STATE> 3
<MEAN> 39
 -5.833399e+00 -1.029584e+01 -4.191775e+00 -1.110483e+01 -5.300928e+00 -3.749637e+00 -2.029551e+00 7.965818e-02 -9.980707e-01 -5.197930e+00 -6.024827e+00 -2.699290e+00 6.786517e+01 3.790874e-02 1.185946e-01 1.129758e-01 2.578864e-01 9.087864e-02 -1.277183e-02 3.556405e-03 -1.309074e-01 1.388225e-02 -8.973578e-02 1.415127e-02 3.904488e-02 -2.300609e-01 -1.802779e-02 4.326585e-01 2.794994e-01 2.189677e-01 -3.644653e-02 -1.505216e-01 -2.286880e-01 -1.750139e-01 -3.666512e-02 1.669060e-01 1.159135e-01 4.460892e-02 -3.600420e-01
<VARIANCE> 39
 1.680595e+01 2.779430e+01 3.122261e+01 5.201341e+01 4.508940e+01 5.067330e+01 4.807092e+01 4.815788e+01 4.043362e+01 6.158430e+01 2.996122e+01 2.496679e+01 2.899594e+01 2.783859e-01 8.282019e-01 1.017193e+00 1.046787e+00 1.482550e+00 1.558162e+00 1.520335e+00 1.360705e+00 1.283645e+00 1.360940e+00 1.057436e+00 1.018157e+00 3.615283e-01 7.969723e-02 1.804362e-01 1.536618e-01 2.625785e-01 2.470989e-01 2.669619e-01 3.058240e-01 3.154840e-01 2.631573e-01 2.745958e-01 1.992822e-01 1.826981e-01 1.200383e-01
<GCONST> 9.770684e+01
<STATE> 4
<MEAN> 39
 -5.492902e+00 -7.179400e+00 -1.553887e+00 -8.960773e+00 -6.362684e+00 -6.324902e+00 -3.885199e+00 -8.254448e-01 -7.883373e-01 -3.737154e+00 -5.506810e+00 -2.283706e+00 6.480711e+01 -2.412488e-01 2.021990e+00 1.185293e+00 1.801121e+00 5.908220e-01 -3.642843e-02 -4.935124e-01 -8.031154e-01 -3.515075e-01 4.538674e-01 5.197379e-01 2.340420e-01 -2.152008e+00 -3.092998e-01 3.366682e-01 1.100376e-01 4.205079e-01 3.888452e-01 3.285133e-01 1.737932e-01 -3.806022e-02 -8.280707e-02 3.473035e-02 1.687241e-01 2.499602e-02 -4.745208e-01
<VARIANCE> 39
 1.780971e+01 2.849101e+01 3.923058e+01 5.475402e+01 5.173262e+01 6.255166e+01 4.950620e+01 4.322901e+01 4.455308e+01 6.132831e+01 3.377763e+01 2.664150e+01 3.230492e+01 1.370545e+00 2.061720e+00 1.806839e+00 2.947672e+00 2.910064e+00 3.131445e+00 3.279185e+00 3.193174e+00 2.823365e+00 3.080297e+00 1.954271e+00 1.823200e+00 2.095265e+00 2.488833e-01 3.195896e-01 3.126191e-01 4.475796e-01 4.299879e-01 5.662377e-01 5.277213e-01 5.424577e-01 5.114593e-01 5.158705e-01 3.769703e-01 3.206864e-01 3.506866e-01
<GCONST> 1.193079e+02
<TRANSP> 5
 0.000000e+00 1.000000e+00 0.000000e+00 0.000000e+00 0.000000e+00
 0.000000e+00 5.093438e-01 4.906562e-01 0.000000e+00 0.000000e+00
 0.000000e+00 0.000000e+00 7.523976e-01 2.476024e-01 0.000000e+00
 0.000000e+00 0.000000e+00 0.000000e+00 5.654988e-01 4.345012e-01
 0.000000e+00 0.000000e+00 0.000000e+00 0.000000e+00 0.000000e+00
<ENDHMM>
~h "b"
<BEGINHMM>
<NUMSTATES> 5
<STATE> 2
<MEAN> 39
 -1.399599e+00 3.536194e+00 3.664933e+00 4.593982e-01 -1.433291e+00 -4.079870e+00 -5.892766e+00 -7.394482e+00 -5.946098e+00 -1.232866e+00 -3.382238e+00 -4.194571e+00 5.236333e+01 3.072140e-01 2.041792e+00 1.472913e-01 1.513983e+00 1.371229e+00 1.179166e+00 6.348414e-01 -4.415832e-01 -2.800986e-01 -3.221897e-01 1.825081e-01 -3.965040e-01 -2.321069e+00 -5.081111e-01 -4.586618e-01 -6.552603e-02 -5.756669e-01 -4.231745e-01 -1.591572e-01 1.282929e-01 4.199471e-01 2.278693e-01 -1.482889e-01 -2.098436e-02 2.924942e-01 7.334424e-01
<VARIANCE> 39
 2.106012e+01 1.938937e+01 1.901215e+01 2.694975e+01 2.303937e+01 3.841573e+01 3.251363e+01 3.532941e+01 3.541753e+01 2.733134e+01 2.973674e+01 2.002669e+01 1.802883e+01 1.008492e+00 1.947785e+00 2.113098e+00 3.821243e+00 2.903986e+00 3.543183e+00 3.246731e+00 3.026574e+00 3.350303e+00 2.525702e+00 1.989585e+00 2.012047e+00 1.988779e+00 1.959555e-01 3.372456e-01 2.982985e-01 4.483365e-01 4.639024e-01 5.029041e-01 5.469975e-01 5.273952e-01 5.692059e-01 4.209115e-01 3.574616e-01 3.415814e-01 3.749701e-01
<GCONST> 1.135674e+02
<STATE> 3
<MEAN> 39
 -2.418059e+00 7.335261e+00 4.401317e+00 2.304659e+00 1.661592e-01 -1.729986e+00 -3.346804e+00 -6.555071e+00 -5.814638e+00 -2.823966e+00 -2.990115e+00 -3.384538e+00 4.845380e+01 -1.374677e+00 -7.231854e-01 -2.610027e-01 -1.577688e-01 -1.948387e-01 -7.255891e-02 3.832529e-02 7.714111e-01 7.007687e-01 -2.118444e-01 1.177640e-01 4.293900e-01 1.054557e+00 -2.511619e-01 -9.739084e-01 -3.308780e-01 -7.980993e-01 -6.165740e-01 -4.494025e-01 -3.478630e-01 1.643106e-01 2.230676e-01 2.148570e-01 4.023193e-02 1.870927e-01 1.261555e+00
<VARIANCE> 39
 2.807407e+01 1.522599e+01 1.374235e+01 2.072825e+01 1.765013e+01 2.504775e+01 2.482905e+01 2.455306e+01 2.242052e+01 1.969770e+01 2.059561e+01 1.530208e+01 1.643527e+01 1.759992e+00 2.588136e+00 1.745486e+00 2.657825e+00 2.336141e+00 2.402229e+00 2.571038e+00 2.547282e+00 2.716618e+00 2.050882e+00 1.740255e+00 1.418284e+00 3.526987e+00 3.457751e-01 3.587566e-01 4.164709e-01 7.437305e-01 4.695681e-01 4.949603e-01 5.579045e-01 5.533871e-01 5.469226e-01 4.668786e-01 3.637145e-01 3.112068e-01 4.152839e-01
<GCONST> 1.107548e+02
<STATE> 4
<MEAN> 39
 -8.576543e+00 1.853839e-01 1.348484e+00 -6.724909e-02 -2.296410e+00 -4.071513e+00 -5.289499e+00 -4.396510e+00 -2.449826e+00 -2.229175e+00 -2.380690e+00 -1.977537e+00 5.811939e+01 -4.601596e-01 -2.153914e+00 -1.083033e+00 -2.486485e+00 -1.694094e+00 -1.106167e+00 -9.520897e-01 5.502865e-01 6.286019e-01 3.860608e-01 1.564581e-01 7.031641e-01 3.152705e+00 7.378934e-01 2.356112e-01 8.517089e-02 -6.309007e-01 -2.186718e-01 4.457640e-03 -2.495974e-02 -1.819452e-01 -4.281905e-01 9.457679e-02 -1.377200e-01 -3.812674e-02 -2.645488e-01
<VARIANCE> 39
 3.417760e+01 1.682855e+01 2.353840e+01 3.323131e+01 2.441586e+01 2.958765e+01 2.833147e+01 2.217425e+01 2.316672e+01 1.945028e+01 1.684720e+01 1.294021e+01 3.230418e+01 2.615904e+00 2.652476e+00 3.682150e+00 5.711220e+00 3.333757e+00 3.743967e+00 4.032268e+00 4.067225e+00 3.775471e+00 3.137912e+00 2.241940e+00 1.895929e+00 3.095137e+00 4.960756e-01 5.597823e-01 4.551545e-01 7.695134e-01 5.939586e-01 6.610401e-01 6.421164e-01 6.709105e-01 5.954934e-01 5.524320e-01 4.035157e-01 3.372850e-01 5.613318e-01
<GCONST> 1.202524e+02
<TRANSP> 5
 0.000000e+00 1.000000e+00 0.000000e+00 0.000000e+00 0.000000e+00
 0.000000e+00 5.843592e-01 4.156408e-01 0.000000e+00 0.000000e+00
 0.000000e+00 0.000000e+00 6.171439e-01 3.828561e-01 0.000000e+00
 0.000000e+00 0.000000e+00 0.000000e+00 4.413238e-01 5.586762e-01
 0.000000e+00 0.000000e+00 0.000000e+00 0.000000e+00 0.000000e+00
<ENDHMM>
~h "d"
<BEGINHMM>
<NUMSTATES> 5
<STATE> 2
<MEAN> 39
 -5.098944e+00 5.010634e+00 5.365600e+00 -3.194184e-01 -4.987384e+00 -7.009900e+00 -5.316119e+00 -5.597961e+00 -4.238231e+00 -3.955758e+00 -5.970326e+00 -1.832987e+00 5.427135e+01 3.520454e-01 1.631388e+00 3.804116e-01 1.600964e+00 1.093880e+00 7.207192e-01 6.666726e-01 -7.009206e-02 8.635624e-02 -3.787115e-01 -2.991973e-01 -2.875769e-01 -2.207839e+00 -5.291828e-01 -5.763826e-01 -3.459311e-01 -6.356424e-01 -2.088347e-02 7.662572e-02 8.281826e-02 2.719451e-01 5.547802e-02 6.687547e-02 3.137806e-01 -1.543063e-02 8.083266e-01
<VARIANCE> 39
 3.113743e+01 2.204623e+01 2.626516e+01 4.338326e+01 3.925259e+01 3.908932e+01 4.006407e+01 4.820370e+01 4.039555e+01 4.066903e+01 3.180069e+01 2.512126e+01 3.035009e+01 2.168738e+00 2.057527e+00 2.147615e+00 3.392498e+00 3.404907e+00 3.385994e+00 3.391686e+00 3.323988e+00 2.947461e+00 2.567924e+00 2.108451e+00 1.897318e+00 3.261521e+00 4.032952e-01 3.756297e-01 3.761694e-01 5.513633e-01 5.786495e-01 5.420018e-01 6.358449e-01 7.565090e-01 5.057343e-01 5.275930e-01 4.204113e-01 3.803930e-01 6.430098e-01
<GCONST> 1.216431e+02
<STATE> 3
<MEAN> 39
 -5.822464e+00 7.269194e+00 5.525742e+00 2.230543e+00 -2.246075e+00 -4.728993e+00 -3.683377e+00 -4.495245e+00 -3.928302e+00 -4.479323e+00 -5.160584e+00 -2.762987e+00 5.088931e+01 -1.965194e+00 -5.997000e-01 -7.407490e-01 -4.312692e-01 5.688582e-01 3.447348e-01 4.375993e-01 1.774103e-01 2.146768e-01 1.965947e-01 7.262801e-01 5.900311e-02 1.431499e+00 -4.704896e-01 -8.115666e-01 -2.219781e-01 -8.912544e-01 -6.501658e-01 -4.629512e-01 -3.012556e-01 8.361674e-02 3.767521e-02 1.616318e-01 2.296671e-01 2.519091e-01 1.393869e+00
<VARIANCE> 39
 4.546541e+01 2.223243e+01 2.071004e+01 3.196946e+01 3.083784e+01 2.939026e+01 2.704007e+01 2.976801e+01 2.725226e+01 2.793413e+01 2.137970e+01 1.703628e+01 3.420091e+01 2.718668e+00 2.652292e+00 2.556756e+00 3.195501e+00 3.184137e+00 3.162651e+00 2.983516e+00 3.500379e+00 2.629919e+00 2.444530e+00 2.162453e+00 1.778492e+00 4.008127e+00 5.921027e-01 4.637546e-01 4.723229e-01 6.854501e-01 6.930427e-01 6.463923e-01 6.129251e-01 6.198937e-01 5.627213e-01 4.956914e-01 3.916396e-01 3.562327e-01 6.772736e-01
<GCONST> 1.201570e+02
<STATE> 4
<MEAN> 39
 -1.466593e+01 3.063725e+00 1.747910e+00 -2.574469e+00 -2.491483e+00 -5.872638e+00 -3.116285e+00 -4.088395e+00 -3.022479e+00 -3.535288e+00 -2.509314e+00 -1.371513e+00 6.098418e+01 -9.261611e-01 -1.186713e+00 -1.443426e-01 -1.666836e+00 -1.330305e+00 -1.131397e+00 -6.697987e-01 3.417298e-01 1.952470e-01 1.793891e-01 4.482850e-01 6.133287e-01 2.545921e+00 8.605600e-01 -9.413259e-02 4.528490e-01 -1.222501e-01 -4.558804e-01 -1.628838e-01 -3.307522e-01 3.838760e-02 -1.034491e-01 1.270587e-02 -2.473130e-01 3.075456e-03 -3.458644e-01
<VARIANCE> 39
 4.567736e+01 3.143928e+01 2.883583e+01 4.088057e+01 3.842032e+01 4.169769e+01 3.134082e+01 2.581202e+01 2.564195e+01 2.200926e+01 1.748180e+01 1.622243e+01 2.664363e+01 3.913015e+00 2.610344e+00 3.262388e+00 3.433397e+00 4.207682e+00 3.755979e+00 3.707248e+00 3.672529e+00 3.068732e+00 2.759556e+00 2.177705e+00 1.917849e+00 3.765705e+00 4.572514e-01 5.148000e-01 5.420351e-01 7.095648e-01 7.607679e-01 7.947049e-01 6.357208e-01 6.528005e-01 5.516492e-01 4.841338e-01 4.293331e-01 3.706241e-01 5.189878e-01
<GCONST> 1.227638e+02
<TRANSP> 5
 0.000000e+00 1.000000e+00 0.000000e+00 0.000000e+00 0.000000e+00
 0.000000e+00 4.799592e-01 5.200408e-01 0.000000e+00 0.000000e+00
 0.000000e+00 0.000000e+00 4.858539e-01 5.141461e-01 0.000000e+00
 0.000000e+00 0.000000e+00 0.000000e+00 5.100924e-01 4.899077e-01
 0.000000e+00 0.000000e+00 0.000000e+00 0.000000e+00 0.000000e+00
<ENDHMM>
~h "e"
<BEGINHMM>
<NUMSTATES> 5
<STATE> 2
<MEAN> 39
 -9.063003e+00 -1.124861e+00 6.416131e+00 -6.603484e+00 -1.193983e+01 -1.015368e+01 -6.016643e+00 -3.821856e+00 -5.078948e+00 -3.385687e+00 -2.878167e+00 -1.023461e+00 6.369137e+01 1.503491e+00 -8.876138e-01 1.420167e+00 -1.690250e+00 -2.126950e+00 -1.167508e+00 -6.943780e-01 -2.632510e-01 -8.364886e-01 1.478058e-01 -3.691428e-01 -1.105352e-01 1.213018e+00 -2.756660e-01 1.110193e-01 -2.665400e-01 2.385914e-01 5.802132e-01 5.500411e-01 3.134956e-01 1.419818e-01 2.140820e-01 1.886062e-01 7.044946e-02 3.574425e-02 -4.570807e-01
<VARIANCE> 39
 2.179687e+01 3.117870e+01 3.370601e+01 6.594201e+01 3.906853e+01 3.828147e+01 3.672862e+01 4.641626e+01 3.617079e+01 3.199752e+01 2.350799e+01 2.023158e+01 2.561101e+01 3.880684e+00 2.326286e+00 2.893532e+00 4.143328e+00 3.482371e+00 4.648943e+00 4.862456e+00 4.542617e+00 3.376242e+00 3.133015e+00 2.837625e+00 2.148340e+00 2.107365e+00 5.067127e-01 3.512931e-01 3.996830e-01 5.640849e-01 5.495446e-01 5.356821e-01 5.363807e-01 6.429640e-01 4.886604e-01 4.308158e-01 3.954322e-01 3.136025e-01 3.748113e-01
<GCONST> 1.224637e+02
<STATE> 3
<MEAN> 39
 -8.412359e+00 -2.439189e+00 9.249221e+00 -9.918743e+00 -1.453566e+01 -9.085020e+00 -5.878431e+00 -3.900438e+00 -6.364102e+00 -1.676577e+00 -2.807419e+00 -1.095066e+00 6.520005e+01 1.863674e-01 4.161046e-02 2.009774e-01 8.103056e-02 -1.895379e-02 1.242457e-01 1.238733e-01 -1.812771e-02 -3.718517e-02 1.004445e-01 -9.123836e-02 3.207008e-02 -2.242168e-01 -1.345037e-01 3.365554e-01 -3.266506e-01 6.408175e-01 6.559033e-01 2.318864e-01 1.425683e-01 2.976424e-02 1.753578e-01 -1.511601e-01 7.741085e-03 -2.416689e-02 -5.275375e-01
<VARIANCE> 39
 1.601760e+01 3.116512e+01 3.246758e+01 8.372070e+01 3.263766e+01 4.442046e+01 4.586576e+01 5.373324e+01 3.870929e+01 3.307514e+01 2.889166e+01 2.372670e+01 2.197777e+01 5.655451e-01 1.200655e+00 1.137866e+00 1.896478e+00 1.621806e+00 1.526075e+00 1.616395e+00 1.617039e+00 1.401684e+00 1.420561e+00 1.139036e+00 9.755662e-01 7.170324e-01 2.508135e-01 2.626958e-01 2.633175e-01 4.758101e-01 4.596958e-01 5.183184e-01 5.257045e-01 4.623094e-01 3.823455e-01 3.467556e-01 2.949356e-01 2.525269e-01 2.470184e-01
<GCONST> 1.067106e+02
<STATE> 4
<MEAN> 39
 -7.897684e+00 -4.501410e-01 8.022500e+00 -5.820160e+00 -1.178508e+01 -8.926532e+00 -5.403420e+00 -4.037298e+00 -5.428576e+00 -2.562738e+00 -3.176256e+00 -6.836984e-01 6.154725e+01 -7.347871e-02 1.153623e+00 -8.147568e-01 2.020228e+00 2.075398e+00 1.049015e+00 6.833703e-01 2.473211e-01 6.027341e-01 -2.089850e-01 3.440885e-02 -1.516505e-01 -2.198228e+00 -2.942058e-01 1.520792e-01 -3.091550e-01 2.168934e-01 5.678588e-01 4.411821e-01 2.377211e-01 9.421501e-02 2.146334e-01 8.557947e-02 1.250750e-01 -6.773050e-02 -4.213029e-01
<VARIANCE> 39
 2.293559e+01 3.969141e+01 3.755650e+01 7.435999e+01 3.788184e+01 5.289344e+01 4.010937e+01 5.186346e+01 3.897922e+01 3.411519e+01 2.981330e+01 2.263990e+01 3.731857e+01 2.057263e+00 2.841857e+00 2.123352e+00 3.903196e+00 3.082693e+00 3.501521e+00 3.281389e+00 3.186527e+00 2.718505e+00 2.429326e+00 2.145885e+00 1.839786e+00 3.813766e+00 3.331585e-01 5.293151e-01 3.755335e-01 6.170644e-01 5.448664e-01 6.598271e-01 5.397969e-01 6.071846e-01 4.633644e-01 4.258758e-01 3.926061e-01 3.086065e-01 5.235282e-01
<GCONST> 1.224854e+02
<TRANSP> 5
 0.000000e+00 1.000000e+00 0.000000e+00 0.000000e+00 0.000000e+00
 0.000000e+00 4.186429e-01 5.813571e-01 0.000000e+00 0.000000e+00
 0.000000e+00 0.000000e+00 6.462499e-01 3.537500e-01 0.000000e+00
 0.000000e+00 0.000000e+00 0.000000e+00 4.711349e-01 5.288651e-01
 0.000000e+00 0.000000e+00 0.000000e+00 0.000000e+00 0.000000e+00
<ENDHMM>
~h "f"
<BEGINHMM>
<NUMSTATES> 5
<STATE> 2
<MEAN> 39
 -1.616033e+01 -2.357348e-01 2.141087e+00 7.311406e-01 -1.982772e+00 -2.103666e+00 -6.152369e-01 -1.383221e+00 -1.931515e+00 -2.816575e+00 -2.114331e+00 -5.688975e-01 5.946786e+01 -3.272984e+00 -3.971312e-01 -1.140331e+00 1.253161e+00 1.251688e+00 1.365201e+00 1.248761e+00 1.289608e+00 1.122226e+00 7.871775e-01 9.924546e-01 6.225749e-01 -5.897092e-01 2.116287e-01 -4.386696e-01 -1.872395e-01 -7.544829e-01 -5.071297e-01 -3.111869e-01 -1.732067e-01 7.063895e-02 9.781279e-02 1.753241e-01 9.457332e-02 1.265768e-01 2.813379e-01
<VARIANCE> 39
 3.583134e+01 1.311788e+01 2.216183e+01 2.449925e+01 1.828375e+01 2.303268e+01 2.192376e+01 2.351115e+01 2.155589e+01 2.045654e+01 1.563397e+01 1.273715e+01 2.008933e+01 1.596131e+00 2.013831e+00 2.491668e+00 3.578328e+00 3.112528e+00 3.689591e+00 3.084795e+00 2.678675e+00 2.373527e+00 2.705125e+00 2.136955e+00 1.555484e+00 1.220496e+00 5.115529e-01 3.345781e-01 3.189648e-01 4.306843e-01 3.820721e-01 4.638772e-01 4.903348e-01 4.599735e-01 3.666866e-01 3.741421e-01 3.012878e-01 2.471345e-01 1.965815e-01
<GCONST> 1.087859e+02
<STATE> 3
<MEAN> 39
 -2.318387e+01 -3.777415e+00 -1.539309e+00 -1.155081e+00 -2.140274e+00 -8.632867e-01 1.059773e+00 1.605184e+00 1.404466e+00 4.142740e-01 1.085222e+00 2.155194e+00 6.000568e+01 -2.075632e-01 -2.918157e-01 -2.162567e-01 -3.004971e-01 -1.250446e-01 -1.718397e-02 3.151513e-02 1.442786e-01 2.190571e-01 1.942073e-01 1.824691e-01 2.114240e-01 2.197972e-02 6.635635e-01 1.239072e-01 2.749738e-01 -1.595705e-01 -1.393206e-01 -2.349310e-01 -2.168167e-01 -2.585776e-01 -2.246354e-01 -2.239419e-01 -2.690617e-01 -1.866107e-01 3.798863e-02
<VARIANCE> 39
 9.721251e+00 1.108428e+01 1.500731e+01 1.702855e+01 1.580962e+01 1.239600e+01 1.554759e+01 1.591722e+01 1.376671e+01 1.237506e+01 1.143300e+01 1.007121e+01 1.921347e+01 1.078773e+00 6.590822e-01 9.879375e-01 8.935293e-01 9.981761e-01 1.147722e+00 1.089171e+00 1.208237e+00 1.161607e+00 1.148287e+00 1.063959e+00 9.062107e-01 5.346743e-01 2.482553e-01 1.568984e-01 1.972898e-01 2.538674e-01 2.679512e-01 3.302359e-01 3.029042e-01 3.007780e-01 2.788908e-01 2.578263e-01 2.500961e-01 1.899251e-01 1.422498e-01
<GCONST> 8.641003e+01
<STATE> 4
<MEAN> 39
 -2.017822e+01 -3.730293e+00 -1.701173e-01 -1.767031e+00 -2.554315e+00 -1.690933e+00 8.589896e-01 1.201495e+00 1.228093e+00 -2.917433e-01 7.999083e-02 1.719752e+00 5.923547e+01 3.270019e+00 3.639991e-02 7.238426e-01 -1.528765e+00 -1.301304e+00 -1.568192e+00 -1.276631e+00 -1.169955e+00 -9.614715e-01 -9.468279e-01 -1.327595e+00 -8.985475e-01 6.489003e-01 7.669147e-01 -1.126524e-01 4.830425e-02 -5.853493e-01 -4.100771e-01 -4.009902e-01 -3.719436e-01 -2.555230e-01 -3.135145e-01 -1.821018e-01 -2.959487e-01 -2.450903e-01 4.512302e-01
<VARIANCE> 39
 2.204195e+01 1.231586e+01 2.031129e+01 1.791140e+01 1.997645e+01 1.512047e+01 1.723327e+01 1.782892e+01 1.590585e+01 1.492973e+01 1.418983e+01 1.151230e+01 2.208241e+01 2.573638e+00 2.198367e+00 2.651995e+00 3.214083e+00 2.842889e+00 3.459636e+00 2.455961e+00 2.516660e+00 2.015688e+00 2.130095e+00 1.941577e+00 1.365847e+00 1.626081e+00 4.354563e-01 3.762212e-01 3.521497e-01 4.770548e-01 4.112706e-01 5.104288e-01 4.514543e-01 4.591890e-01 4.362252e-01 3.903593e-01 4.012371e-01 3.045553e-01 2.072395e-01
<GCONST> 1.070050e+02
<TRANSP> 5
 0.000000e+00 1.000000e+00 0.000000e+00 0.000000e+00 0.000000e+00
 0.000000e+00 6.294636e-01 3.705364e-01 0.000000e+00 0.000000e+00
 0.000000e+00 0.000000e+00 8.149540e-01 1.850460e-01 0.000000e+00
 0.000000e+00 0.000000e+00 0.000000e+00 5.448300e-01 4.551699e-01
 0.000000e+00 0.000000e+00 0.000000e+00 0.000000e+00 0.000000e+00
<ENDHMM>
~h "g"
<BEGINHMM>
<NUMSTATES> 5
<STATE> 2
<MEAN> 39
 -6.765389e+00 5.386572e+00 8.124516e+00 5.678264e-01 -4.800868e+00 -4.161222e+00 -2.987951e+00 -5.298691e+00 -4.210602e+00 -1.298015e+00 -3.413620e+00 -2.406564e+00 5.099396e+01 -7.637325e-01 -3.039114e-01 -9.934955e-01 3.017817e-01 1.072128e+00 4.767684e-01 4.221626e-01 4.802237e-01 6.044742e-01 -9.506802e-02 3.186653e-01 3.437636e-01 -1.219053e-01 -5.577896e-01 -7.530679e-01 -3.528809e-01 -7.732460e-01 -2.557668e-01 -1.659747e-01 -1.914062e-01 1.234943e-01 4.412539e-02 1.386248e-01 5.433824e-02 1.626964e-01 1.252898e+00
<VARIANCE> 39
 4.806614e+01 2.594983e+01 3.910508e+01 4.471834e+01 4.633469e+01 4.445632e+01 3.552965e+01 3.857228e+01 3.941813e+01 3.148101e+01 3.631865e+01 2.182712e+01 3.714238e+01 5.276311e+00 5.336568e+00 4.360122e+00 5.249341e+00 5.430320e+00 4.799211e+00 4.262205e+00 3.941492e+00 3.809717e+00 3.726813e+00 3.150761e+00 1.925478e+00 8.545318e+00 7.787717e-01 6.573825e-01 6.191935e-01 8.440015e-01 8.255703e-01 8.636490e-01 7.482335e-01 7.383823e-01 7.029734e-01 6.313697e-01 5.719506e-01 3.543128e-01 9.270858e-01
<GCONST> 1.329569e+02
<STATE> 3
<MEAN> 39
 -1.533157e+01 -1.780474e+00 1.648311e+00 -4.664599e+00 -1.737633e+00 -3.719868e+00 -3.094615e+00 -3.202512e+00 -1.916600e+00 2.370295e-01 -2.212928e+00 -2.228331e-01 6.111468e+01 -5.027401e-01 -8.960696e-01 -4.467295e-01 -1.943388e+00 -1.282761e+00 -9.352496e-01 -8.420550e-01 6.718048e-02 -1.125809e-01 1.505391e-01 6.679930e-04 2.502846e-01 2.848423e+00 1.015054e+00 4.537365e-01 6.215574e-01 -7.271770e-02 -7.558380e-01 -2.182471e-01 -8.340722e-02 -1.004259e-01 -2.765011e-01 -1.778256e-01 -1.098230e-01 -2.142419e-01 -4.450121e-01
<VARIANCE> 39
 3.629932e+01 3.527411e+01 8.017692e+01 4.483421e+01 4.767521e+01 3.444574e+01 3.361079e+01 2.848853e+01 3.004138e+01 2.920742e+01 2.003380e+01 1.511150e+01 3.514497e+01 4.983938e+00 4.456731e+00 4.691411e+00 3.989203e+00 5.539115e+00 4.071056e+00 3.269791e+00 3.054577e+00 2.872684e+00 3.331135e+00 2.543449e+00 1.972771e+00 4.443410e+00 5.606221e-01 9.356517e-01 8.594487e-01 9.233768e-01 9.719696e-01 9.001033e-01 8.726487e-01 7.303114e-01 7.008941e-01 8.256451e-01 5.640134e-01 4.062083e-01 7.816005e-01
<GCONST> 1.304193e+02
<STATE> 4
<MEAN> 39
 -1.048959e+01 -1.384934e+00 7.102875e+00 -8.810776e+00 -1.170826e+01 -8.562986e+00 -5.256128e+00 -3.253434e+00 -4.614379e+00 -6.236027e-01 -1.948692e+00 -5.814315e-01 6.515375e+01 1.210208e+00 -1.002213e+00 -4.452349e-01 -8.975549e-01 -9.398653e-01 -4.271204e-01 5.616548e-02 1.074746e+00 4.928295e-01 -5.196437e-01 -1.273375e-01 -7.375261e-02 8.787258e-01 -1.343519e-01 -2.888559e-02 -3.631274e-01 4.481582e-01 8.354046e-01 5.543234e-01 4.133056e-01 1.725700e-01 2.985947e-01 -2.341067e-01 -5.366265e-02 -8.500458e-02 -5.288142e-01
<VARIANCE> 39
 2.501139e+01 2.505352e+01 4.644288e+01 5.773618e+01 4.560547e+01 3.510999e+01 3.389031e+01 3.555677e+01 3.002270e+01 3.300043e+01 2.257042e+01 2.109919e+01 2.813483e+01 1.726490e+00 3.342740e+00 3.419337e+00 3.456156e+00 5.442306e+00 3.616841e+00 4.871235e+00 3.887607e+00 3.750721e+00 3.921571e+00 2.352562e+00 2.050299e+00 1.377240e+00 3.858580e-01 4.045859e-01 3.756186e-01 4.789448e-01 6.376215e-01 4.764881e-01 5.568815e-01 5.881039e-01 4.959810e-01 6.271774e-01 4.034689e-01 3.286296e-01 2.160166e-01
<GCONST> 1.210105e+02
<TRANSP> 5
 0.000000e+00 1.000000e+00 0.000000e+00 0.000000e+00 0.000000e+00
 0.000000e+00 7.024213e-01 2.975787e-01 0.000000e+00 0.000000e+00
 0.000000e+00 0.000000e+00 5.594051e-01 4.405948e-01 0.000000e+00
 0.000000e+00 0.000000e+00 0.000000e+00 5.634116e-01 4.365884e-01
 0.000000e+00 0.000000e+00 0.000000e+00 0.000000e+00 0.000000e+00
<ENDHMM>
~h "i"
<BEGINHMM>
<NUMSTATES> 5
<STATE> 2
<MEAN> 39
 -1.460404e+01 2.010513e+00 7.904438e+00 -4.852921e+00 -5.811654e+00 -4.946697e+00 -4.873034e+00 -4.059628e+00 -4.189806e+00 -2.713190e+00 -1.830095e+00 -8.578050e-01 5.866782e+01 1.313866e+00 2.618570e-01 1.953129e+00 -1.400091e+00 -2.028430e+00 -1.313080e+00 -1.285715e+00 -1.213791e+00 -1.583470e+00 -7.222033e-01 -8.051980e-01 -5.769957e-01 1.266405e+00 1.486053e-01 -4.967653e-02 -1.695919e-01 -9.095946e-02 -1.345697e-03 6.942246e-02 8.687682e-02 8.671003e-02 2.964307e-05 9.779415e-02 2.252698e-02 -7.374296e-03 -1.366949e-04
<VARIANCE> 39
 4.628249e+01 3.477881e+01 4.322554e+01 5.127295e+01 4.578778e+01 4.635008e+01 4.280741e+01 4.258795e+01 3.680092e+01 3.468026e+01 2.821560e+01 2.223706e+01 4.817047e+01 5.322902e+00 2.986285e+00 3.571448e+00 5.421539e+00 4.348845e+00 4.693611e+00 4.577438e+00 4.629947e+00 3.915034e+00 3.241368e+00 2.966202e+00 2.302906e+00 3.745604e+00 4.499130e-01 4.706769e-01 4.792290e-01 6.722389e-01 7.365501e-01 7.322862e-01 6.784233e-01 6.031663e-01 5.437177e-01 5.038046e-01 4.073646e-01 3.250266e-01 4.566830e-01
<GCONST> 1.286868e+02
<STATE> 3
<MEAN> 39
 -1.148281e+01 8.336077e-01 1.135356e+01 -9.634733e+00 -1.085345e+01 -8.460244e+00 -7.442039e+00 -6.270945e+00 -8.323473e+00 -3.674703e+00 -3.944909e+00 -2.162199e+00 6.303239e+01 6.761534e-01 5.530551e-02 8.663390e-01 -8.459333e-01 -9.272314e-01 -2.416760e-01 -2.472376e-01 -3.589770e-01 -6.238942e-01 -2.927665e-02 -2.861106e-01 -2.164298e-01 3.818374e-01 -3.286168e-01 1.575306e-01 -6.984006e-01 6.389551e-01 7.953569e-01 5.198681e-01 4.216700e-01 3.362079e-01 5.526688e-01 1.660373e-01 2.407039e-01 1.345705e-01 -5.776225e-01
<VARIANCE> 39
 2.890428e+01 3.421572e+01 4.389930e+01 7.522827e+01 3.609452e+01 4.574134e+01 3.841224e+01 5.508473e+01 4.276932e+01 3.315340e+01 3.830055e+01 2.925447e+01 2.300225e+01 3.305656e+00 2.840418e+00 2.914068e+00 4.150212e+00 3.831841e+00 3.642011e+00 3.362217e+00 2.812358e+00 2.798093e+00 2.548058e+00 2.262756e+00 1.769902e+00 2.412873e+00 4.492009e-01 4.488015e-01 4.655644e-01 8.495904e-01 5.946317e-01 7.483650e-01 7.445589e-01 7.458250e-01 5.897906e-01 5.083554e-01 4.719728e-01 3.840449e-01 3.630227e-01
<GCONST> 1.251516e+02
<STATE> 4
<MEAN> 39
 -1.156545e+01 2.958540e+00 1.117078e+01 -9.699579e+00 -1.020799e+01 -6.684933e+00 -7.382067e+00 -6.640502e+00 -8.363117e+00 -3.535944e+00 -3.881707e+00 -2.678889e+00 6.163237e+01 7.465922e-02 1.894689e-01 -5.038721e-01 7.374718e-01 4.135088e-01 2.058531e-01 3.466434e-01 1.911160e-01 3.748608e-01 -6.192658e-02 1.556112e-01 1.155476e-01 -5.853133e-01 -8.399437e-02 -7.114466e-02 -2.674707e-01 3.137567e-01 3.125910e-01 1.067014e-01 1.825424e-01 1.637730e-01 2.232101e-01 2.094134e-02 6.812806e-02 6.521617e-02 -2.241194e-01
<VARIANCE> 39
 2.480970e+01 3.174667e+01 3.833930e+01 7.808127e+01 3.998333e+01 4.116743e+01 3.533983e+01 4.840511e+01 4.038827e+01 3.441303e+01 3.681659e+01 3.099809e+01 3.197793e+01 1.266684e+00 1.962292e+00 1.769518e+00 2.978636e+00 2.617393e+00 2.200621e+00 2.218971e+00 2.130410e+00 2.158794e+00 1.889701e+00 1.613028e+00 1.393715e+00 1.990829e+00 2.502647e-01 2.748140e-01 3.059673e-01 4.763727e-01 4.941009e-01 4.441686e-01 4.082592e-01 4.154648e-01 3.734723e-01 3.573524e-01 3.114032e-01 2.597405e-01 2.193680e-01
<GCONST> 1.137855e+02
<TRANSP> 5
 0.000000e+00 1.000000e+00 0.000000e+00 0.000000e+00 0.000000e+00
 0.000000e+00 3.571417e-01 6.428583e-01 0.000000e+00 0.000000e+00
 0.000000e+00 0.000000e+00 4.065793e-01 5.934207e-01 0.000000e+00
 0.000000e+00 0.000000e+00 0.000000e+00 7.073942e-01 2.926058e-01
 0.000000e+00 0.000000e+00 0.000000e+00 0.000000e+00 0.000000e+00
<ENDHMM>
~h "j"
<BEGINHMM>
<NUMSTATES> 5
<STATE> 2
<MEAN> 39
 -1.295752e+01 3.806561e+00 8.446684e+00 -6.673288e+00 -7.840368e+00 -6.612673e+00 -5.794312e+00 -5.967572e+00 -5.434447e+00 -4.406968e+00 -2.316625e+00 -1.642637e+00 6.174574e+01 1.754873e+00 -2.616835e-01 1.030921e+00 -1.395204e+00 -1.880214e+00 -1.383316e+00 -1.139838e+00 -4.145224e-01 -9.321757e-01 -2.592346e-01 -2.720323e-01 -2.323816e-01 7.890328e-01 6.993291e-02 -4.830634e-01 -2.989224e-01 -8.312105e-02 -5.100283e-02 1.131683e-01 2.092442e-01 4.089393e-01 2.029513e-01 1.962781e-01 2.386407e-02 1.001356e-02 9.073902e-02
<VARIANCE> 39
 3.471744e+01 3.375393e+01 3.339403e+01 4.899751e+01 3.979536e+01 3.545204e+01 2.955491e+01 3.206079e+01 2.517592e+01 2.079570e+01 1.801505e+01 2.193485e+01 2.542440e+01 5.168292e+00 3.361876e+00 3.162638e+00 4.121393e+00 4.918021e+00 4.625480e+00 3.188395e+00 3.288143e+00 2.777483e+00 2.500020e+00 2.316901e+00 1.876884e+00 1.415500e+00 4.319523e-01 3.427795e-01 4.517877e-01 5.081708e-01 6.576219e-01 5.723597e-01 5.495718e-01 4.277339e-01 3.694303e-01 3.339194e-01 2.884216e-01 2.482843e-01 2.124703e-01
<GCONST> 1.182926e+02
<STATE> 3
<MEAN> 39
 -9.605677e+00 -9.597884e-01 9.303627e+00 -1.203497e+01 -1.289599e+01 -9.841139e+00 -6.558372e+00 -4.377735e+00 -5.820206e+00 -3.420711e+00 -2.523839e+00 -1.517976e+00 6.521938e+01 1.078157e+00 -1.424165e+00 -2.343103e-01 -1.127431e+00 -1.100364e+00 -3.849220e-01 9.090409e-02 8.124360e-01 -8.208217e-02 2.108855e-01 -1.895743e-01 -1.842897e-01 8.784138e-01 -5.009969e-01 -5.640763e-02 -6.473226e-01 5.446094e-01 7.354466e-01 6.053321e-01 4.578087e-01 2.793751e-01 3.394064e-01 -1.404840e-02 1.293271e-02 -9.086175e-03 -1.867269e-01
<VARIANCE> 39
 1.575257e+01 3.593867e+01 3.629187e+01 7.094102e+01 3.088106e+01 4.466059e+01 4.036688e+01 4.806729e+01 3.218030e+01 3.033041e+01 2.599256e+01 3.006907e+01 2.659278e+01 1.953455e+00 3.512182e+00 2.675539e+00 3.242576e+00 3.542260e+00 3.252755e+00 3.601985e+00 3.024814e+00 2.571568e+00 2.392232e+00 1.726617e+00 1.584537e+00 1.439401e+00 3.592841e-01 3.332741e-01 3.100131e-01 4.855269e-01 5.520235e-01 6.679127e-01 5.045222e-01 5.292671e-01 4.316203e-01 4.307564e-01 3.503100e-01 3.317334e-01 1.050624e-01
<GCONST> 1.171789e+02
<STATE> 4
<MEAN> 39
 -9.067661e+00 2.188684e+00 1.050418e+01 -9.235087e+00 -1.250130e+01 -6.130267e+00 -7.328777e+00 -4.835021e+00 -6.817782e+00 -3.287859e+00 -2.135310e+00 -2.112128e+00 6.267892e+01 1.438716e-01 -4.886580e-01 -4.066803e-01 -3.062525e-02 -1.776870e-01 1.487599e-01 2.010114e-01 2.242591e-01 1.515149e-01 -2.344986e-03 -5.682439e-02 -7.440487e-02 1.597277e-01 -4.712477e-02 -1.800841e-02 -1.172500e-01 1.645647e-01 1.532975e-01 7.067676e-02 8.673772e-02 4.579494e-03 5.266507e-02 -4.752854e-02 -3.591837e-02 -2.204307e-03 -8.922765e-02
<VARIANCE> 39
 1.720789e+01 5.173980e+01 3.395071e+01 9.144518e+01 3.871965e+01 4.417506e+01 3.868597e+01 5.166471e+01 3.434324e+01 3.293836e+01 3.496935e+01 2.985286e+01 3.077177e+01 3.461053e-01 1.371341e+00 1.123014e+00 1.148410e+00 1.570532e+00 1.398480e+00 1.493963e+00 1.510723e+00 1.283287e+00 1.203233e+00 9.781677e-01 9.058992e-01 6.001323e-01 9.742597e-02 1.899627e-01 1.580803e-01 2.414384e-01 3.482367e-01 2.726581e-01 2.757380e-01 2.567106e-01 2.303194e-01 2.187240e-01 1.844319e-01 1.632663e-01 9.079497e-02
<GCONST> 9.872743e+01
<TRANSP> 5
 0.000000e+00 1.000000e+00 0.000000e+00 0.000000e+00 0.000000e+00
 0.000000e+00 4.152937e-01 5.847063e-01 0.000000e+00 0.000000e+00
 0.000000e+00 0.000000e+00 3.697422e-01 6.302578e-01 0.000000e+00
 0.000000e+00 0.000000e+00 0.000000e+00 7.707000e-01 2.293000e-01
 0.000000e+00 0.000000e+00 0.000000e+00 0.000000e+00 0.000000e+00
<ENDHMM>
~h "k"
<BEGINHMM>
<NUMSTATES> 5
<STATE> 2
<MEAN> 39
 -1.131139e+01 2.602125e+00 4.835951e+00 -5.160027e-01 -2.352910e+00 -4.830517e+00 -1.227173e+00 -3.702614e+00 -4.013174e+00 -5.533520e-02 -2.919532e+00 -8.155261e-01 5.242329e+01 -9.613693e-01 3.585815e-01 -6.743003e-01 1.841674e+00 2.255468e+00 1.794295e+00 1.501295e+00 1.227436e+00 1.701175e+00 6.018971e-01 1.218489e+00 6.271001e-01 -3.329054e+00 -1.329310e-01 -7.196968e-01 -4.440587e-01 -6.623399e-01 -2.186588e-01 1.031860e-01 -7.821006e-02 3.294653e-01 2.283240e-01 5.083835e-02 1.503146e-01 1.375824e-01 7.418688e-01
<VARIANCE> 39
 3.898039e+01 3.207161e+01 4.358515e+01 4.771021e+01 5.352955e+01 4.497228e+01 4.218832e+01 5.153618e+01 3.892005e+01 3.501252e+01 3.232486e+01 2.112214e+01 3.919746e+01 3.031690e+00 3.776846e+00 3.917843e+00 5.251767e+00 4.325393e+00 4.216445e+00 4.144297e+00 4.510406e+00 3.658080e+00 3.501954e+00 3.263660e+00 2.095563e+00 3.699587e+00 4.614832e-01 6.553768e-01 5.906502e-01 9.012597e-01 8.516831e-01 8.267432e-01 8.217683e-01 8.380807e-01 7.391809e-01 6.426769e-01 5.151705e-01 3.799800e-01 1.066057e+00
<GCONST> 1.315443e+02
<STATE> 3
<MEAN> 39
 -1.291632e+01 1.563830e+00 1.839041e+00 1.621021e+00 2.090613e+00 8.359718e-01 2.634464e+00 1.807230e+00 1.826753e+00 2.825981e+00 1.657681e+00 2.102718e+00 4.471896e+01 -7.695449e-01 -1.486039e+00 -1.258017e+00 -1.103609e+00 2.438984e-01 2.472868e-01 2.432460e-01 6.072838e-01 5.567802e-01 4.916073e-01 3.650198e-01 4.982418e-01 1.214409e+00 -1.062120e-01 -4.050337e-01 -1.249345e-01 -8.784496e-01 -6.391942e-01 -7.534848e-01 -5.661609e-01 -4.388371e-01 -5.592437e-01 -1.744017e-01 -4.542931e-01 -1.576370e-01 1.761552e+00
<VARIANCE> 39
 1.607915e+01 1.397985e+01 1.953537e+01 2.107990e+01 2.092663e+01 2.018923e+01 2.159225e+01 2.225180e+01 1.988008e+01 1.814057e+01 1.604884e+01 1.235641e+01 2.572688e+01 2.825166e+00 3.952500e+00 4.299858e+00 5.127230e+00 3.562247e+00 4.250481e+00 3.929008e+00 3.605485e+00 3.611013e+00 2.469892e+00 2.585461e+00 1.681559e+00 8.835070e+00 4.635919e-01 5.641711e-01 6.225020e-01 6.371706e-01 6.039116e-01 5.833693e-01 5.594416e-01 5.598028e-01 5.220658e-01 4.418913e-01 4.409781e-01 3.092019e-01 7.811882e-01
<GCONST> 1.182936e+02
<STATE> 4
<MEAN> 39
 -1.735070e+01 -4.597233e+00 -2.582736e+00 -6.267816e+00 9.493987e-02 -2.751838e+00 1.420754e-01 2.324344e-01 1.774605e-02 2.738701e+00 -1.126291e-01 2.371585e+00 5.914644e+01 -1.017797e-02 1.048235e-02 2.149266e-01 -8.258138e-01 -9.831038e-01 -7.685235e-01 -8.301452e-01 -7.255188e-01 -6.283869e-01 -5.489494e-01 -4.651813e-01 -3.521775e-01 1.919307e+00 6.762528e-01 6.008267e-01 6.082075e-01 2.948642e-01 -3.462696e-01 -8.625826e-02 -1.662709e-01 -2.122864e-01 -2.952693e-01 -3.249543e-01 -1.182992e-01 -2.670181e-01 -5.745413e-01
<VARIANCE> 39
 3.267670e+01 3.533820e+01 5.775380e+01 4.436243e+01 4.173815e+01 3.709734e+01 3.710514e+01 3.477228e+01 2.687901e+01 2.692802e+01 2.100215e+01 1.576303e+01 3.175658e+01 4.089918e+00 4.022501e+00 4.621010e+00 5.227953e+00 3.833516e+00 3.800914e+00 3.368471e+00 2.978339e+00 3.231739e+00 2.661651e+00 2.366790e+00 1.916836e+00 6.128763e+00 5.660986e-01 7.834461e-01 7.404172e-01 1.068320e+00 7.549551e-01 8.009904e-01 7.369757e-01 6.688139e-01 6.995063e-01 5.332039e-01 4.998147e-01 3.703697e-01 8.050907e-01
<GCONST> 1.282292e+02
<TRANSP> 5
 0.000000e+00 1.000000e+00 0.000000e+00 0.000000e+00 0.000000e+00
 0.000000e+00 5.275096e-01 4.724904e-01 0.000000e+00 0.000000e+00
 0.000000e+00 0.000000e+00 6.103919e-01 3.896081e-01 0.000000e+00
 0.000000e+00 0.000000e+00 0.000000e+00 7.358476e-01 2.641525e-01
 0.000000e+00 0.000000e+00 0.000000e+00 0.000000e+00 0.000000e+00
<ENDHMM>
~h "l"
<BEGINHMM>
<NUMSTATES> 5
<STATE> 2
<MEAN> 39
 -6.741414e+00 -1.079208e+00 7.811650e+00 -2.111118e+00 -7.935826e+00 -7.563506e+00 -8.173129e+00 -3.161269e+00 -4.089154e+00 -5.032081e+00 -3.024446e+00 -9.018456e-01 6.013652e+01 5.564443e-02 7.300655e-01 5.233842e-01 4.765794e-01 6.409190e-01 -8.066268e-02 -5.604124e-01 -2.106681e-01 -4.827283e-02 -6.310030e-01 -1.026418e-01 1.510824e-01 -5.091477e-01 -4.285270e-02 -1.888642e-01 -2.729758e-01 -3.777669e-01 -5.317724e-02 7.503534e-02 1.932939e-01 1.667114e-01 2.143468e-02 2.351236e-01 -1.442946e-02 -2.803469e-02 2.090798e-01
<VARIANCE> 39
 3.221927e+01 3.432202e+01 4.002095e+01 6.838251e+01 4.057979e+01 4.850054e+01 4.619263e+01 4.351811e+01 4.644238e+01 3.498508e+01 2.781371e+01 2.401336e+01 3.058422e+01 1.702399e+00 2.024801e+00 2.403831e+00 2.859381e+00 3.625815e+00 3.802007e+00 4.165651e+00 3.267731e+00 3.053468e+00 2.359035e+00 2.267939e+00 1.909934e+00 1.547367e+00 1.879044e-01 3.574708e-01 3.792154e-01 5.234930e-01 5.585480e-01 6.596153e-01 6.757831e-01 5.692260e-01 5.360181e-01 4.488039e-01 3.880722e-01 3.159884e-01 2.537623e-01
<GCONST> 1.202194e+02
<STATE> 3
<MEAN> 39
 -7.658204e+00 6.400851e-02 8.254683e+00 -3.862442e+00 -6.198000e+00 -8.055915e+00 -9.607577e+00 -3.158840e+00 -4.137546e+00 -5.801500e+00 -3.405570e+00 -5.056347e-01 6.026399e+01 1.266261e-01 -4.357754e-01 -3.479951e-01 -4.056166e-01 -2.892182e-01 -1.575903e-01 1.407178e-01 3.699316e-01 3.023276e-02 3.279164e-01 -1.843625e-02 -1.438442e-02 4.765793e-01 2.129164e-02 -5.440319e-01 -4.007517e-01 -3.794377e-01 -4.594782e-01 1.095464e-01 5.052860e-01 2.361060e-01 2.548534e-02 4.199907e-01 -2.070741e-03 -1.143984e-01 4.099156e-01
<VARIANCE> 39
 3.086941e+01 3.544009e+01 3.745354e+01 6.690210e+01 4.087818e+01 5.593497e+01 5.131899e+01 4.350746e+01 4.396444e+01 3.773644e+01 2.847668e+01 2.798931e+01 3.070935e+01 1.472862e+00 1.883623e+00 2.176264e+00 2.578096e+00 3.181638e+00 3.121057e+00 3.454436e+00 2.899066e+00 2.511868e+00 2.172418e+00 1.857126e+00 1.535862e+00 1.511300e+00 2.586481e-01 4.292798e-01 4.672567e-01 6.188499e-01 7.993156e-01 8.861587e-01 9.790505e-01 7.270139e-01 6.342285e-01 5.832351e-01 4.859948e-01 4.378487e-01 2.688260e-01
<GCONST> 1.219899e+02
<STATE> 4
<MEAN> 39
 -7.020607e+00 -3.158926e+00 6.000112e+00 -4.868588e+00 -8.658028e+00 -7.923759e+00 -7.545342e+00 -1.140757e+00 -3.614234e+00 -3.413040e+00 -3.275209e+00 -6.528109e-01 6.230920e+01 1.206399e-01 -1.014387e+00 -9.403408e-01 -8.099072e-01 -5.798575e-01 2.491764e-01 9.224347e-01 6.757268e-01 2.359985e-01 7.650823e-01 -1.328419e-01 -2.067373e-01 7.765351e-01 -5.859597e-02 -1.562965e-02 -1.361250e-01 -7.714130e-02 1.446259e-01 1.669208e-01 1.798230e-01 -4.432902e-02 2.425983e-02 7.811327e-03 -3.693095e-02 -3.665015e-02 -3.564826e-02
<VARIANCE> 39
 2.530248e+01 3.241469e+01 3.673665e+01 6.604208e+01 4.168847e+01 4.744656e+01 4.561879e+01 4.408698e+01 4.113479e+01 3.582438e+01 2.561149e+01 2.179309e+01 3.326119e+01 1.363831e+00 2.500600e+00 2.854901e+00 3.468807e+00 4.502613e+00 4.158369e+00 4.560429e+00 3.995185e+00 3.368189e+00 3.139874e+00 2.433560e+00 1.922446e+00 1.961463e+00 1.831431e-01 3.057898e-01 3.215799e-01 4.643207e-01 5.800747e-01 6.060196e-01 6.133282e-01 5.294999e-01 4.686423e-01 4.509000e-01 3.632769e-01 2.904864e-01 1.857212e-01
<GCONST> 1.199879e+02
<TRANSP> 5
 0.000000e+00 1.000000e+00 0.000000e+00 0.000000e+00 0.000000e+00
 0.000000e+00 4.092689e-01 5.907311e-01 0.000000e+00 0.000000e+00
 0.000000e+00 0.000000e+00 3.468152e-01 6.531848e-01 0.000000e+00
 0.000000e+00 0.000000e+00 0.000000e+00 3.034121e-01 6.965879e-01
 0.000000e+00 0.000000e+00 0.000000e+00 0.000000e+00 0.000000e+00
<ENDHMM>
~h "m"
<BEGINHMM>
<NUMSTATES> 5
<STATE> 2
<MEAN> 39
 -4.007006e+00 -2.550860e-01 3.579729e+00 -8.053169e-01 -4.232416e+00 -8.932523e+00 -5.332743e+00 -6.662732e+00 -7.135369e+00 -2.527710e+00 -3.690640e+00 -5.460104e+00 5.843909e+01 4.713725e-01 9.466816e-01 4.754636e-01 1.164060e+00 6.432762e-01 -8.262880e-01 -4.051288e-01 -1.596299e+00 -1.133258e+00 5.961613e-01 -3.370824e-02 -9.033049e-01 -3.628000e-01 -2.264978e-01 -2.861893e-01 -7.209367e-02 -4.749407e-01 -2.142459e-01 3.465803e-01 1.444691e-01 3.247080e-01 1.759785e-01 -5.793547e-02 5.111424e-02 2.756047e-01 3.015261e-01
<VARIANCE> 39
 2.582343e+01 2.383956e+01 2.687919e+01 5.261055e+01 4.121358e+01 6.410842e+01 4.730685e+01 5.597960e+01 5.355354e+01 4.757408e+01 4.651625e+01 2.786147e+01 2.679735e+01 1.454788e+00 2.025556e+00 3.190562e+00 3.987365e+00 3.545083e+00 3.831088e+00 4.003063e+00 3.928654e+00 3.638792e+00 3.814159e+00 2.995265e+00 2.666134e+00 2.992389e+00 1.740262e-01 2.852339e-01 4.023609e-01 4.213708e-01 4.560550e-01 5.176167e-01 5.182050e-01 5.523803e-01 5.820211e-01 5.075783e-01 4.081871e-01 3.835014e-01 2.052374e-01
<GCONST> 1.220760e+02
<STATE> 3
<MEAN> 39
 -3.703175e+00 4.906509e-01 4.230591e+00 6.671718e-02 -4.523844e+00 -8.337738e+00 -4.955999e+00 -7.580603e+00 -8.108898e+00 -1.586477e+00 -3.290164e+00 -5.238714e+00 5.858289e+01 -3.219679e-02 -4.887990e-02 -1.325270e-01 -1.173981e-01 -2.669866e-02 1.980828e-01 -4.579045e-03 5.366500e-02 -2.581087e-02 -3.042893e-02 7.666237e-02 7.293635e-02 1.288979e-01 -6.564766e-02 -2.375341e-01 -2.095229e-01 -4.109268e-01 -2.165766e-01 2.547432e-01 7.285689e-02 4.075501e-01 2.584374e-01 -2.038234e-01 -1.180776e-02 1.710377e-01 1.860152e-01
<VARIANCE> 39
 2.385154e+01 2.285692e+01 2.584363e+01 5.835824e+01 4.742750e+01 6.430332e+01 5.642014e+01 6.687892e+01 5.382973e+01 5.077397e+01 5.345133e+01 2.965078e+01 1.764435e+01 2.097465e-01 6.842542e-01 8.612946e-01 1.159749e+00 1.116370e+00 1.392421e+00 1.312392e+00 1.664011e+00 1.475692e+00 1.347134e+00 1.215005e+00 1.163961e+00 5.282663e-01 8.915841e-02 1.705584e-01 3.224377e-01 3.765562e-01 3.156275e-01 3.727883e-01 3.920308e-01 4.870150e-01 4.297063e-01 3.942436e-01 3.294428e-01 3.267272e-01 1.005461e-01
<GCONST> 1.029908e+02
<STATE> 4
<MEAN> 39
 -4.089082e+00 -1.236589e+00 2.191779e+00 -2.024298e+00 -4.529889e+00 -7.370312e+00 -5.479757e+00 -6.038077e+00 -6.982994e+00 -2.548510e+00 -3.010372e+00 -4.927362e+00 6.032571e+01 -2.572199e-01 -1.063758e+00 -9.344416e-01 -1.921564e+00 -8.808046e-01 1.190873e+00 3.555321e-01 1.606960e+00 9.362195e-01 -9.024414e-01 -1.227664e-01 6.614424e-01 1.079342e+00 -1.307144e-01 -1.211111e-01 2.721611e-02 -3.333311e-01 -3.862864e-02 2.514226e-01 1.593652e-01 2.383767e-01 6.644233e-02 -9.337851e-02 -4.930763e-02 1.633627e-01 6.655502e-02
<VARIANCE> 39
 2.133387e+01 2.274570e+01 2.874552e+01 5.290785e+01 4.177147e+01 5.859799e+01 4.675145e+01 5.704373e+01 4.904702e+01 4.309841e+01 4.247253e+01 2.649851e+01 2.033973e+01 7.004157e-01 1.946062e+00 3.647724e+00 3.095679e+00 2.561461e+00 3.109228e+00 3.133844e+00 3.600286e+00 3.447307e+00 3.146804e+00 2.312795e+00 2.307155e+00 1.181698e+00 1.080693e-01 2.216782e-01 3.214927e-01 4.057178e-01 3.667610e-01 3.690704e-01 3.640048e-01 5.127243e-01 4.347747e-01 4.315552e-01 3.194903e-01 3.106326e-01 1.286579e-01
<GCONST> 1.145519e+02
<TRANSP> 5
 0.000000e+00 1.000000e+00 0.000000e+00 0.000000e+00 0.000000e+00
 0.000000e+00 5.035357e-01 4.964643e-01 0.000000e+00 0.000000e+00
 0.000000e+00 0.000000e+00 7.285597e-01 2.714403e-01 0.000000e+00
 0.000000e+00 0.000000e+00 0.000000e+00 4.526964e-01 5.473036e-01
 0.000000e+00 0.000000e+00 0.000000e+00 0.000000e+00 0.000000e+00
<ENDHMM>
~h "n"
<BEGINHMM>
<NUMSTATES> 5
<STATE> 2
<MEAN> 39
 -3.664073e+00 2.511994e+00 4.765919e+00 -1.134326e+00 -7.270788e+00 -6.732979e+00 -2.102951e+00 -8.360092e+00 -7.230115e+00 -1.985209e+00 -5.557621e+00 -2.217893e+00 5.680820e+01 5.469124e-01 6.400617e-01 1.429688e-01 6.949043e-01 -5.436490e-02 -5.713872e-02 4.036474e-01 -1.293853e+00 -3.175850e-01 2.057396e-01 -4.821368e-01 -4.391127e-02 -3.412339e-01 -1.471501e-01 -1.716321e-01 3.615175e-02 -2.341548e-01 -9.030432e-02 4.360685e-02 -1.772728e-01 3.058377e-01 1.202768e-01 -1.144972e-01 1.386917e-01 9.055609e-03 2.242472e-01
<VARIANCE> 39
 2.782925e+01 1.961345e+01 2.454818e+01 6.954804e+01 4.259840e+01 5.849530e+01 4.611948e+01 6.397614e+01 4.738284e+01 5.017709e+01 4.615947e+01 3.122958e+01 3.547060e+01 9.992573e-01 1.137337e+00 1.790885e+00 2.173851e+00 2.184673e+00 2.641566e+00 3.079495e+00 3.829552e+00 2.809725e+00 2.583626e+00 1.984172e+00 1.836124e+00 1.927883e+00 1.769839e-01 1.984206e-01 2.518578e-01 3.056003e-01 3.520162e-01 3.802807e-01 3.951424e-01 5.659614e-01 4.108933e-01 3.694136e-01 3.085198e-01 2.905936e-01 1.460916e-01
<GCONST> 1.138451e+02
<STATE> 3
<MEAN> 39
 -3.104403e+00 3.046975e+00 5.597524e+00 -4.906099e-01 -7.690556e+00 -6.392262e+00 -2.349194e+00 -1.047008e+01 -7.886347e+00 -2.534188e+00 -6.997452e+00 -1.833774e+00 5.546688e+01 4.935774e-01 -1.229787e-01 2.842296e-01 -4.394423e-01 -5.489981e-01 -4.293559e-01 -6.589268e-01 -3.077295e-01 -3.948706e-01 -4.184701e-01 -1.685598e-01 -2.886719e-01 1.370716e+00 -5.058233e-01 -4.332368e-01 -2.532643e-01 -3.892806e-01 2.846620e-01 1.418839e-01 -1.432479e-01 8.927089e-01 4.085487e-01 -2.933470e-02 3.793663e-01 2.465425e-02 2.539886e-01
<VARIANCE> 39
 2.778243e+01 2.377821e+01 2.574489e+01 6.016338e+01 4.765182e+01 6.495438e+01 4.775700e+01 5.204783e+01 4.425035e+01 6.028719e+01 4.836411e+01 3.284272e+01 3.530162e+01 2.671809e+00 1.872803e+00 1.748768e+00 2.555423e+00 3.174011e+00 3.670610e+00 3.485113e+00 4.511787e+00 3.256270e+00 2.731008e+00 2.944371e+00 2.119927e+00 3.962737e+00 3.553353e-01 3.667699e-01 5.099210e-01 6.092122e-01 6.125414e-01 6.836937e-01 8.191093e-01 7.389888e-01 7.066106e-01 6.783079e-01 4.750149e-01 4.910944e-01 4.280459e-01
<GCONST> 1.262876e+02
<STATE> 4
<MEAN> 39
 -3.366623e+00 5.741233e-01 5.796904e+00 -2.258438e+00 -7.932252e+00 -6.465533e+00 -5.031942e+00 -8.233597e+00 -7.766638e+00 -3.702617e+00 -5.488597e+00 -2.590737e+00 5.961066e+01 -6.804134e-01 -5.808176e-01 -7.945484e-01 -7.277647e-01 4.754702e-01 -8.122701e-02 -5.714491e-01 1.435938e+00 5.240136e-01 -2.807564e-01 3.525752e-01 -2.481008e-01 1.065033e+00 -1.688149e-01 -1.341266e-01 -3.069724e-01 -1.604580e-01 1.521622e-01 1.888924e-01 2.846343e-02 3.100655e-01 1.663696e-01 2.470754e-02 5.980837e-02 -3.601720e-02 -2.467265e-02
<VARIANCE> 39
 2.494041e+01 2.413975e+01 3.075768e+01 5.788914e+01 3.931644e+01 7.751495e+01 3.878706e+01 4.966928e+01 3.374489e+01 4.964184e+01 5.087825e+01 2.693748e+01 1.680109e+01 1.097679e+00 1.709233e+00 2.963889e+00 2.621922e+00 2.473049e+00 3.090120e+00 2.945048e+00 3.899482e+00 2.696369e+00 2.363163e+00 2.127599e+00 2.066149e+00 1.475974e+00 2.805870e-01 2.587133e-01 4.007489e-01 3.829057e-01 4.301312e-01 5.320894e-01 4.460929e-01 5.870802e-01 4.101676e-01 3.646369e-01 3.506917e-01 3.052522e-01 2.257196e-01
<GCONST> 1.165574e+02
<TRANSP> 5
 0.000000e+00 1.000000e+00 0.000000e+00 0.000000e+00 0.000000e+00
 0.000000e+00 6.301385e-01 3.698615e-01 0.000000e+00 0.000000e+00
 0.000000e+00 0.000000e+00 4.073381e-01 5.926619e-01 0.000000e+00
 0.000000e+00 0.000000e+00 0.000000e+00 6.338956e-01 3.661044e-01
 0.000000e+00 0.000000e+00 0.000000e+00 0.000000e+00 0.000000e+00
<ENDHMM>
~h "o"
<BEGINHMM>
<NUMSTATES> 5
<STATE> 2
<MEAN> 39
 -4.737093e+00 -1.651844e+00 -2.006626e+00 -1.019045e+01 -5.419814e+00 -5.324273e+00 -8.573132e+00 -5.668371e+00 -3.542381e+00 3.266754e-01 -3.621968e+00 -1.131854e+00 6.165011e+01 2.001865e+00 -3.067871e-01 -5.380563e-01 -2.504244e+00 -9.269198e-01 4.871320e-02 -1.182445e+00 -7.772130e-01 -1.040514e+00 7.035296e-01 -4.368465e-01 -5.043559e-02 7.726792e-01 -3.942494e-01 1.292688e-01 2.405135e-01 3.740319e-01 3.256330e-01 2.786800e-01 4.019274e-01 2.587208e-01 3.356507e-03 -6.352013e-02 1.103845e-01 7.156948e-02 -3.571267e-01
<VARIANCE> 39
 1.932668e+01 2.892037e+01 2.921261e+01 7.367730e+01 3.678369e+01 6.243649e+01 4.434985e+01 3.665705e+01 4.506827e+01 4.368166e+01 3.825709e+01 2.492127e+01 2.717060e+01 2.449885e+00 2.632174e+00 2.578465e+00 5.125307e+00 4.168462e+00 4.920616e+00 4.543648e+00 4.211497e+00 4.178053e+00 3.615682e+00 3.210232e+00 2.408319e+00 2.015301e+00 4.441460e-01 4.288173e-01 3.455876e-01 7.376154e-01 5.151210e-01 5.315759e-01 6.176703e-01 6.395262e-01 5.820305e-01 5.480272e-01 5.043931e-01 3.680948e-01 3.972386e-01
<GCONST> 1.254377e+02
<STATE> 3
<MEAN> 39
 -2.924953e+00 -2.222694e+00 -3.088978e+00 -1.529982e+01 -5.562174e+00 -2.507692e+00 -8.534766e+00 -5.820693e+00 -5.134107e+00 1.273492e+00 -3.698117e+00 -6.007890e-01 6.274011e+01 1.450921e-01 1.583351e-01 9.756175e-02 -1.919747e-01 2.035704e-01 1.523718e-01 -1.114771e-02 4.464523e-02 -3.536937e-01 -5.869525e-02 -4.757961e-02 1.066340e-01 -2.197160e-01 -3.246589e-01 1.852097e-01 2.697296e-01 7.954239e-01 2.473397e-01 -1.194325e-01 2.017394e-01 1.093040e-01 1.714817e-01 -2.155236e-01 5.253728e-02 -6.629484e-02 -3.678239e-01
<VARIANCE> 39
 1.452315e+01 3.151186e+01 3.019578e+01 7.549648e+01 4.171825e+01 7.051130e+01 4.810791e+01 4.490709e+01 5.924492e+01 4.964657e+01 4.598172e+01 3.113236e+01 2.454662e+01 3.774028e-01 1.135815e+00 1.008021e+00 2.292121e+00 1.763309e+00 2.103444e+00 2.137590e+00 2.022962e+00 2.096093e+00 1.888635e+00 1.758616e+00 1.350245e+00 7.469288e-01 1.766106e-01 2.488318e-01 2.581536e-01 5.004025e-01 4.086040e-01 4.489894e-01 5.504305e-01 4.921382e-01 5.271758e-01 4.785674e-01 3.934819e-01 3.160303e-01 2.119442e-01
<GCONST> 1.111815e+02
<STATE> 4
<MEAN> 39
 -3.302190e+00 -7.165235e-01 -1.167626e+00 -1.114838e+01 -4.529276e+00 -4.755534e+00 -9.051600e+00 -5.211710e+00 -5.976966e+00 2.564004e-01 -4.106784e+00 -6.162435e-01 6.022456e+01 -8.399856e-01 8.219906e-01 1.108162e+00 2.646013e+00 7.871527e-01 -3.089331e-01 1.038536e+00 5.721747e-01 5.222010e-01 -7.593685e-01 6.338358e-02 -1.277728e-01 -1.696323e+00 -5.071136e-01 1.726699e-01 1.544579e-01 5.635006e-01 2.322985e-01 2.768540e-01 5.329331e-01 1.030611e-01 3.227534e-01 -8.458216e-02 2.413739e-01 1.186383e-02 -4.281019e-01
<VARIANCE> 39
 1.521253e+01 3.868127e+01 3.437561e+01 7.191829e+01 4.472015e+01 7.435123e+01 5.762234e+01 4.969910e+01 6.363921e+01 4.336680e+01 4.887680e+01 3.093456e+01 3.251992e+01 1.383989e+00 2.541493e+00 2.499559e+00 3.994115e+00 3.845701e+00 4.239574e+00 4.672651e+00 4.020014e+00 4.508099e+00 3.699973e+00 3.118224e+00 2.190853e+00 2.997988e+00 2.201898e-01 4.807668e-01 3.597995e-01 7.924475e-01 5.760403e-01 7.419478e-01 8.100268e-01 8.216463e-01 8.286408e-01 6.582463e-01 6.286967e-01 4.445490e-01 2.897217e-01
<GCONST> 1.279019e+02
<TRANSP> 5
 0.000000e+00 1.000000e+00 0.000000e+00 0.000000e+00 0.000000e+00
 0.000000e+00 4.689406e-01 5.310594e-01 0.000000e+00 0.000000e+00
 0.000000e+00 0.000000e+00 6.850988e-01 3.149011e-01 0.000000e+00
 0.000000e+00 0.000000e+00 0.000000e+00 5.261635e-01 4.738365e-01
 0.000000e+00 0.000000e+00 0.000000e+00 0.000000e+00 0.000000e+00
<ENDHMM>
~h "p"
<BEGINHMM>
<NUMSTATES> 5
<STATE> 2
<MEAN> 39
 -7.098349e+00 4.116066e+00 4.677677e+00 1.903626e+00 -5.887071e-01 -2.771686e+00 -2.932941e+00 -3.742441e+00 -3.073787e+00 -2.080133e+00 -2.364385e+00 -1.917409e+00 4.767887e+01 -1.289090e+00 8.003068e-01 -5.466435e-01 1.275127e+00 1.580485e+00 1.736189e+00 1.557706e+00 1.077377e+00 1.192538e+00 7.947238e-01 9.308456e-01 5.681314e-01 -3.104218e+00 -4.246060e-01 -7.726288e-01 -3.037701e-01 -7.313352e-01 -5.096430e-01 -1.955837e-01 3.871473e-02 2.948653e-01 2.368407e-01 2.077431e-01 1.755654e-01 2.590806e-01 1.100815e+00
<VARIANCE> 39
 3.405917e+01 1.719379e+01 2.113586e+01 2.584281e+01 2.192376e+01 2.645689e+01 2.594114e+01 2.578846e+01 2.639364e+01 2.042599e+01 2.194039e+01 1.560497e+01 3.401383e+01 2.425990e+00 3.334486e+00 2.615695e+00 3.818008e+00 3.057104e+00 3.501199e+00 2.892927e+00 3.174394e+00 2.897208e+00 2.567697e+00 2.357304e+00 1.841881e+00 5.851028e+00 3.888706e-01 4.669874e-01 3.647035e-01 4.994142e-01 4.609794e-01 5.160405e-01 5.572975e-01 5.324978e-01 4.809029e-01 4.060894e-01 3.671350e-01 3.132282e-01 9.084534e-01
<GCONST> 1.171439e+02
<STATE> 3
<MEAN> 39
 -1.177383e+01 2.219129e+00 1.694189e+00 1.799240e+00 1.546179e+00 1.234314e+00 2.135339e+00 1.812340e+00 2.425527e+00 2.443476e+00 2.289745e+00 2.055179e+00 4.318432e+01 -1.089124e+00 -1.124015e+00 -7.533231e-01 -5.565270e-01 -3.029226e-01 -3.116160e-02 1.969017e-01 4.210342e-01 5.574001e-01 2.522365e-01 2.674007e-01 3.318725e-01 1.774256e+00 2.437999e-01 -4.323626e-01 -5.220511e-03 -5.545697e-01 -5.235196e-01 -6.298712e-01 -5.901652e-01 -4.847977e-01 -4.201894e-01 -4.392946e-01 -4.965451e-01 -3.269307e-01 1.578623e+00
<VARIANCE> 39
 1.381679e+01 8.094043e+00 8.911533e+00 1.416732e+01 1.217147e+01 1.330639e+01 1.458863e+01 1.378026e+01 1.383335e+01 1.300212e+01 1.224589e+01 1.020005e+01 2.714256e+01 1.894562e+00 1.897069e+00 1.671018e+00 1.857698e+00 2.163370e+00 2.399411e+00 2.555149e+00 2.357847e+00 2.312860e+00 2.193987e+00 2.067393e+00 1.481405e+00 7.722015e+00 4.083131e-01 3.278406e-01 3.458920e-01 4.507740e-01 4.193458e-01 4.849854e-01 4.024821e-01 4.013799e-01 3.877519e-01 3.860349e-01 3.716757e-01 2.747114e-01 7.787329e-01
<GCONST> 1.038705e+02
<STATE> 4
<MEAN> 39
 -1.679378e+01 -3.022918e+00 -5.443863e-01 -2.595925e+00 -1.581584e+00 -2.047468e+00 -6.429351e-01 -3.550202e-01 1.628636e+00 1.713786e-01 1.432360e-01 8.554347e-01 5.920783e+01 8.173368e-01 -1.128837e+00 -7.097146e-01 -1.832994e+00 -1.074918e+00 -1.092569e+00 -1.084263e+00 -8.270083e-01 -5.759566e-01 -7.212448e-01 -9.739609e-01 -6.376330e-01 3.243163e+00 8.650576e-01 2.700803e-01 1.532758e-01 -2.895219e-01 -1.005247e-01 -4.741258e-02 -1.311621e-01 -1.508699e-01 -2.874191e-01 -1.076043e-01 -1.822277e-01 -1.694033e-01 -6.038451e-01
<VARIANCE> 39
 3.910010e+01 1.906758e+01 2.416400e+01 2.845437e+01 2.104834e+01 1.992022e+01 1.946838e+01 1.853197e+01 1.804256e+01 1.672500e+01 1.552951e+01 1.182184e+01 3.624880e+01 4.699214e+00 3.629905e+00 3.081246e+00 4.377073e+00 3.847923e+00 4.221670e+00 2.944817e+00 2.775410e+00 2.729454e+00 2.697169e+00 2.720237e+00 1.834713e+00 7.920889e+00 5.069224e-01 5.762847e-01 4.819057e-01 7.702976e-01 6.865032e-01 7.269586e-01 6.117561e-01 5.251406e-01 5.298367e-01 4.585488e-01 4.603330e-01 3.353882e-01 8.746631e-01
<GCONST> 1.197953e+02
<TRANSP> 5
 0.000000e+00 1.000000e+00 0.000000e+00 0.000000e+00 0.000000e+00
 0.000000e+00 5.775821e-01 4.224179e-01 0.000000e+00 0.000000e+00
 0.000000e+00 0.000000e+00 6.601285e-01 3.398715e-01 0.000000e+00
 0.000000e+00 0.000000e+00 0.000000e+00 6.383025e-01 3.616975e-01
 0.000000e+00 0.000000e+00 0.000000e+00 0.000000e+00 0.000000e+00
<ENDHMM>
~h "s"
<BEGINHMM>
<NUMSTATES> 5
<STATE> 2
<MEAN> 39
 -1.944544e+01 5.289329e+00 -1.114138e+00 -6.848521e-01 -1.327117e+00 -4.372952e+00 -2.626228e-01 -2.412007e+00 -2.119199e+00 -2.818730e+00 -1.325230e+00 -8.675638e-01 6.099292e+01 -3.572505e+00 8.551699e-01 -1.506102e+00 1.161334e+00 1.315937e+00 1.089377e+00 1.324029e+00 9.686007e-01 1.098232e+00 6.239425e-01 8.965523e-01 3.846406e-01 8.129396e-02 2.951951e-01 -4.659770e-01 -6.499042e-02 -3.802955e-01 -2.939342e-01 4.908962e-02 -1.039259e-01 1.532945e-01 3.429049e-02 1.911443e-01 3.095744e-02 1.073010e-01 -5.019306e-02
<VARIANCE> 39
 4.747644e+01 2.400309e+01 4.048203e+01 3.803783e+01 4.196692e+01 3.667129e+01 3.160292e+01 3.499168e+01 2.946597e+01 2.542167e+01 2.041987e+01 1.816830e+01 2.330313e+01 2.455255e+00 2.838471e+00 2.673996e+00 3.857596e+00 3.880753e+00 4.338347e+00 3.302512e+00 3.275192e+00 2.746339e+00 2.825103e+00 2.358195e+00 1.908576e+00 1.355657e+00 7.313666e-01 4.065371e-01 4.115050e-01 5.307356e-01 5.771905e-01 5.950297e-01 5.611518e-01 5.435497e-01 4.630325e-01 4.216640e-01 3.699648e-01 2.988370e-01 1.788961e-01
<GCONST> 1.188759e+02
<STATE> 3
<MEAN> 39
 -2.713594e+01 4.581371e+00 -5.048273e+00 -1.003977e-01 -2.832616e-01 -1.537072e+00 2.037465e+00 9.799899e-01 1.244423e+00 1.208291e-01 1.499989e+00 1.438187e+00 6.098760e+01 -2.047219e-01 -2.846707e-01 -1.093157e-01 -1.781087e-01 -1.397761e-01 5.106108e-02 8.449699e-03 2.095826e-01 1.891780e-01 1.480128e-01 1.260392e-01 2.027626e-01 6.936870e-02 6.344067e-01 -1.781816e-01 3.497743e-01 -1.653599e-01 -1.645089e-01 -2.496291e-01 -2.222314e-01 -1.693017e-01 -1.604551e-01 -1.612106e-01 -1.748876e-01 -1.016042e-01 -4.930675e-02
<VARIANCE> 39
 8.024501e+00 1.726846e+01 2.626182e+01 2.903280e+01 2.847933e+01 2.755108e+01 2.136625e+01 1.971551e+01 1.599260e+01 1.372119e+01 1.265823e+01 9.516552e+00 1.982600e+01 9.214560e-01 1.299490e+00 1.100153e+00 1.186107e+00 1.227130e+00 1.307309e+00 1.205055e+00 1.283888e+00 1.220468e+00 1.185913e+00 1.036625e+00 8.817503e-01 5.988318e-01 2.685594e-01 2.231021e-01 2.192420e-01 2.619073e-01 2.797125e-01 3.330653e-01 3.014586e-01 2.900080e-01 2.698216e-01 2.625082e-01 2.371615e-01 1.860482e-01 1.273180e-01
<GCONST> 9.193362e+01
<STATE> 4
<MEAN> 39
 -2.368673e+01 1.469124e+00 -3.595965e+00 -1.459864e+00 -1.532546e+00 -3.132960e+00 1.238057e+00 1.239191e+00 1.411577e+00 -4.275914e-01 9.860491e-01 1.510070e+00 6.066953e+01 3.267664e+00 -6.617398e-01 1.446391e+00 -8.287715e-01 -1.106420e+00 -1.397688e+00 -1.513263e+00 -9.998750e-01 -7.848769e-01 -7.621432e-01 -1.052718e+00 -6.055771e-01 -7.461545e-02 9.307173e-01 6.598301e-03 2.369137e-01 -2.664390e-01 -3.414280e-01 -2.984571e-01 -4.810808e-01 -3.541009e-01 -3.395769e-01 -1.387274e-01 -3.222240e-01 -2.306173e-01 1.103945e-01
<VARIANCE> 39
 1.861202e+01 1.714217e+01 2.821116e+01 2.707621e+01 3.119462e+01 2.889874e+01 2.490385e+01 2.296798e+01 1.924282e+01 1.855105e+01 1.619169e+01 1.265797e+01 2.240487e+01 3.285714e+00 1.976896e+00 2.347465e+00 3.321842e+00 2.874798e+00 4.358505e+00 3.123618e+00 2.719080e+00 2.298536e+00 2.338511e+00 2.241291e+00 1.544527e+00 1.816091e+00 3.656866e-01 3.763099e-01 3.883100e-01 4.997205e-01 4.543195e-01 6.859416e-01 5.370963e-01 5.234085e-01 4.408746e-01 4.403084e-01 4.247385e-01 2.925850e-01 2.615803e-01
<GCONST> 1.125330e+02
<TRANSP> 5
 0.000000e+00 1.000000e+00 0.000000e+00 0.000000e+00 0.000000e+00
 0.000000e+00 6.468101e-01 3.531899e-01 0.000000e+00 0.000000e+00
 0.000000e+00 0.000000e+00 8.132585e-01 1.867416e-01 0.000000e+00
 0.000000e+00 0.000000e+00 0.000000e+00 5.824400e-01 4.175600e-01
 0.000000e+00 0.000000e+00 0.000000e+00 0.000000e+00 0.000000e+00
<ENDHMM>
~h "t"
<BEGINHMM>
<NUMSTATES> 5
<STATE> 2
<MEAN> 39
 -1.200353e+01 5.867440e+00 3.857236e+00 5.604020e-01 -1.024286e+00 -4.004043e+00 -1.762471e+00 -3.098209e+00 -2.347137e+00 -2.421079e+00 -2.477139e+00 -9.212028e-01 5.138279e+01 -9.150780e-01 3.660152e-01 -3.945328e-01 1.490581e+00 1.857582e+00 1.983468e+00 1.470433e+00 1.039244e+00 1.014994e+00 1.055141e+00 1.010656e+00 3.395541e-01 -3.354026e+00 -1.711218e-01 -1.004138e+00 -3.913267e-01 -7.845442e-01 -3.329989e-01 -1.518583e-02 1.385004e-02 2.972810e-01 1.992250e-01 2.102166e-01 2.133223e-01 1.563938e-01 9.470586e-01
<VARIANCE> 39
 4.103081e+01 2.016692e+01 3.189383e+01 2.869308e+01 3.056095e+01 3.193131e+01 2.768481e+01 2.880607e+01 2.912859e+01 2.350343e+01 2.202088e+01 1.688884e+01 4.164706e+01 3.283118e+00 3.626417e+00 2.932529e+00 3.814395e+00 3.760470e+00 3.666153e+00 2.928249e+00 3.193522e+00 2.888788e+00 2.807468e+00 2.244350e+00 1.928386e+00 5.040415e+00 4.925794e-01 4.357975e-01 4.369887e-01 6.033183e-01 6.145877e-01 6.212399e-01 5.615437e-01 5.468626e-01 4.662230e-01 4.565678e-01 3.831080e-01 3.197650e-01 1.185219e+00
<GCONST> 1.213907e+02
<STATE> 3
<MEAN> 39
 -1.370312e+01 2.696529e+00 1.215542e+00 1.453077e+00 1.957981e+00 1.264019e+00 2.434164e+00 1.873340e+00 2.443059e+00 2.267867e+00 1.990473e+00 1.825962e+00 4.470809e+01 -1.220808e+00 -1.282067e+00 -1.031192e+00 -7.844246e-01 -1.871946e-01 1.468724e-01 2.652331e-01 3.887675e-01 4.772151e-01 4.502106e-01 5.874195e-01 3.633208e-01 1.543457e+00 -2.053687e-01 -1.722443e-01 -1.403364e-01 -5.584854e-01 -6.308101e-01 -7.080592e-01 -5.007215e-01 -3.867709e-01 -3.508636e-01 -4.489327e-01 -3.448383e-01 -1.779156e-01 1.702597e+00
<VARIANCE> 39
 2.329498e+01 1.242586e+01 1.503887e+01 1.743850e+01 1.521370e+01 1.549796e+01 1.560625e+01 1.581610e+01 1.610483e+01 1.357027e+01 1.307804e+01 1.090177e+01 3.503800e+01 3.277763e+00 2.289057e+00 2.359133e+00 2.565919e+00 2.724780e+00 2.843781e+00 2.468435e+00 2.478530e+00 2.485124e+00 2.117192e+00 1.888832e+00 1.394434e+00 9.350307e+00 5.239826e-01 4.040653e-01 4.106788e-01 4.476661e-01 5.127798e-01 4.619075e-01 4.186754e-01 3.822482e-01 3.840629e-01 3.690325e-01 3.336431e-01 2.653348e-01 9.286351e-01
<GCONST> 1.093573e+02
<STATE> 4
<MEAN> 39
 -2.131859e+01 -7.450721e-01 -2.890232e+00 -3.731800e+00 -1.761198e+00 -2.839481e+00 4.537532e-01 2.872732e-01 1.244547e+00 3.065828e-01 1.293618e+00 1.392392e+00 6.092064e+01 4.821212e-02 -2.499322e-01 -2.692359e-02 -8.942717e-01 -9.675624e-01 -1.095051e+00 -8.535181e-01 -3.956954e-01 -3.995144e-01 -6.561096e-01 -5.710813e-01 -3.348994e-01 2.285633e+00 9.769160e-01 2.172365e-01 5.442472e-01 8.519692e-02 -5.613195e-02 -5.233876e-02 -2.646538e-01 -1.594848e-01 -2.415940e-01 -1.295432e-01 -2.904588e-01 -1.767935e-01 -7.357876e-01
<VARIANCE> 39
 2.658585e+01 2.476803e+01 2.790134e+01 2.693724e+01 2.807830e+01 2.530919e+01 2.119870e+01 2.151039e+01 1.865464e+01 1.590779e+01 1.448592e+01 1.112008e+01 2.916094e+01 5.681839e+00 2.306540e+00 3.860392e+00 3.335701e+00 3.953578e+00 3.684567e+00 2.955693e+00 2.770976e+00 2.721208e+00 2.346890e+00 2.269128e+00 1.587048e+00 7.324135e+00 5.257421e-01 5.587850e-01 5.693853e-01 6.261584e-01 6.557057e-01 7.545428e-01 6.205671e-01 5.827267e-01 5.516146e-01 4.940007e-01 4.637457e-01 3.214527e-01 7.524136e-01
<GCONST> 1.191974e+02
<TRANSP> 5
 0.000000e+00 1.000000e+00 0.000000e+00 0.000000e+00 0.000000e+00
 0.000000e+00 5.375864e-01 4.624136e-01 0.000000e+00 0.000000e+00
 0.000000e+00 0.000000e+00 6.302440e-01 3.697560e-01 0.000000e+00
 0.000000e+00 0.000000e+00 0.000000e+00 7.084960e-01 2.915040e-01
 0.000000e+00 0.000000e+00 0.000000e+00 0.000000e+00 0.000000e+00
<ENDHMM>
~h "u"
<BEGINHMM>
<NUMSTATES> 5
<STATE> 2
<MEAN> 39
 -8.608725e+00 -5.880325e-01 -1.072264e+00 -5.052948e+00 -2.766281e+00 -5.761705e+00 -8.656386e+00 -5.484511e+00 -3.915213e+00 -1.888690e+00 -3.703430e+00 -1.507863e+00 5.941439e+01 3.440478e+00 9.040380e-01 1.559008e-01 -2.422260e+00 -1.725426e+00 -3.579915e-01 -2.040749e+00 -1.859501e+00 -1.792556e+00 -1.061471e-01 -7.617320e-01 -5.246553e-01 1.702501e-01 -3.607822e-01 -9.836261e-03 -1.058566e-01 -4.787482e-01 4.195923e-02 4.819864e-01 5.354416e-01 3.495514e-01 1.898203e-02 2.392489e-01 2.849233e-01 3.101754e-01 -1.872512e-02
<VARIANCE> 39
 3.325612e+01 2.131292e+01 2.203075e+01 4.294896e+01 3.889433e+01 4.999340e+01 4.677589e+01 3.316179e+01 4.089229e+01 2.747052e+01 2.771805e+01 1.913901e+01 3.028637e+01 2.252471e+00 3.750413e+00 3.317346e+00 4.622793e+00 3.910788e+00 5.189977e+00 4.561478e+00 4.550687e+00 4.090061e+00 4.328375e+00 3.827572e+00 2.624495e+00 1.050543e+00 4.301785e-01 3.705449e-01 3.325352e-01 6.287379e-01 6.001307e-01 5.352792e-01 6.239139e-01 5.845245e-01 5.856152e-01 4.789876e-01 3.939881e-01 3.228158e-01 2.783849e-01
<GCONST> 1.227012e+02
<STATE> 3
<MEAN> 39
 -3.560217e+00 -6.326334e-01 -1.871295e+00 -1.372295e+01 -6.017912e+00 -3.652117e+00 -1.033076e+01 -7.545910e+00 -7.906103e+00 -2.263593e-01 -4.358071e+00 -1.115610e+00 6.087497e+01 9.003922e-01 3.811046e-01 -2.616397e-02 -1.704769e+00 -4.296976e-01 7.434480e-01 1.766100e-01 -2.585585e-01 -7.297556e-01 1.886390e-01 1.334569e-01 3.493493e-01 -1.547186e-01 -8.793322e-01 -2.687146e-02 6.041319e-02 9.073055e-01 4.925399e-01 1.039421e-01 6.074722e-01 4.483289e-01 5.561348e-01 -9.404708e-02 2.091794e-01 1.252777e-01 -2.520554e-01
<VARIANCE> 39
 1.671935e+01 3.121155e+01 3.179768e+01 7.090870e+01 3.851453e+01 6.482598e+01 6.389091e+01 3.910705e+01 5.860049e+01 4.373534e+01 5.642726e+01 3.505263e+01 2.420514e+01 1.401948e+00 1.960320e+00 1.861478e+00 5.278703e+00 4.184910e+00 3.335818e+00 3.612600e+00 2.897537e+00 3.553104e+00 3.480846e+00 2.664670e+00 2.285333e+00 1.447543e+00 3.145975e-01 5.749974e-01 3.874087e-01 8.815998e-01 6.780078e-01 7.652851e-01 7.662880e-01 7.226871e-01 6.783651e-01 7.260237e-01 6.835310e-01 4.727842e-01 2.246015e-01
<GCONST> 1.255364e+02
<STATE> 4
<MEAN> 39
 -2.525158e+00 2.614000e+00 -2.192858e+00 -1.529454e+01 -6.002161e+00 -1.007456e+00 -5.760454e+00 -6.373266e+00 -8.450086e+00 -1.011699e+00 -2.927613e+00 8.331687e-01 5.772245e+01 -3.138617e-01 1.871729e-02 1.074897e-01 3.764014e-01 4.169008e-01 3.011364e-01 2.056108e-01 7.541142e-02 4.554390e-01 -5.032091e-02 1.223812e-01 1.576443e-02 -3.150897e-01 -3.274211e-01 -1.447436e-01 6.724268e-02 4.664520e-01 2.992786e-01 -7.634063e-02 1.934181e-02 1.272110e-01 2.533513e-01 3.946032e-02 7.781876e-03 -8.324479e-02 -2.647538e-02
<VARIANCE> 39
 1.517586e+01 2.629197e+01 2.415465e+01 8.816933e+01 4.663314e+01 4.220517e+01 4.895746e+01 3.831991e+01 4.322967e+01 3.762779e+01 3.401004e+01 2.730503e+01 2.900607e+01 7.755491e-01 1.189767e+00 9.539290e-01 2.895930e+00 2.210928e+00 1.943951e+00 2.161562e+00 1.837609e+00 2.095986e+00 1.902658e+00 1.575994e+00 1.416272e+00 8.500165e-01 1.867546e-01 1.673747e-01 1.910423e-01 4.615982e-01 3.946977e-01 3.725596e-01 3.741605e-01 3.899955e-01 3.553579e-01 3.525942e-01 2.919372e-01 2.565669e-01 7.909000e-02
<GCONST> 1.069027e+02
<TRANSP> 5
 0.000000e+00 1.000000e+00 0.000000e+00 0.000000e+00 0.000000e+00
 0.000000e+00 4.826891e-01 5.173109e-01 0.000000e+00 0.000000e+00
 0.000000e+00 0.000000e+00 5.000046e-01 4.999954e-01 0.000000e+00
 0.000000e+00 0.000000e+00 0.000000e+00 7.847454e-01 2.152546e-01
 0.000000e+00 0.000000e+00 0.000000e+00 0.000000e+00 0.000000e+00
<ENDHMM>
~h "v"
<BEGINHMM>
<NUMSTATES> 5
<STATE> 2
<MEAN> 39
 -7.967854e+00 1.496840e+00 4.038221e+00 -1.605042e-01 -5.324173e+00 -5.790814e+00 -6.271476e+00 -4.523057e+00 -3.592203e+00 -2.216182e+00 -2.279351e+00 -1.373696e+00 5.867056e+01 -1.090390e+00 1.013219e+00 -7.190178e-02 1.252141e+00 9.464485e-01 8.050413e-01 3.303396e-01 -1.951232e-01 1.871902e-02 -1.818721e-01 1.672324e-01 -6.782518e-02 -7.565265e-01 -5.748089e-02 -3.443343e-01 -1.403741e-02 -4.732125e-01 -1.901865e-01 -7.274687e-02 8.833595e-02 1.683927e-01 3.773421e-02 -7.397594e-02 -1.342979e-01 8.103622e-03 3.743077e-01
<VARIANCE> 39
 3.087336e+01 2.289429e+01 3.217274e+01 4.536423e+01 2.673922e+01 3.194671e+01 2.154087e+01 2.263489e+01 2.332040e+01 2.342668e+01 1.876021e+01 1.329787e+01 2.054195e+01 1.384313e+00 1.400476e+00 1.748848e+00 2.297744e+00 1.679175e+00 2.216548e+00 1.918849e+00 1.812230e+00 1.921039e+00 1.742706e+00 1.335392e+00 1.094540e+00 7.237420e-01 1.597450e-01 2.428262e-01 2.159991e-01 3.661898e-01 2.783833e-01 3.096601e-01 3.331374e-01 3.170875e-01 2.766009e-01 2.711465e-01 2.322020e-01 1.751262e-01 1.603770e-01
<GCONST> 1.010781e+02
<STATE> 3
<MEAN> 39
 -1.221212e+01 2.358536e+00 3.108201e+00 1.038201e+00 -2.589345e+00 -3.479495e+00 -4.539053e+00 -4.170106e+00 -3.450268e+00 -2.993368e+00 -2.723417e+00 -1.782479e+00 5.834796e+01 -2.290895e-01 -5.407617e-01 -3.691154e-01 -6.426528e-01 -2.789941e-01 -1.831620e-01 8.656177e-02 1.651551e-01 2.469856e-01 3.960085e-02 -8.050087e-02 4.661010e-03 5.978218e-01 7.019382e-01 -5.728489e-01 -1.373556e-01 -9.323334e-01 -5.484544e-01 -4.096108e-01 -1.765040e-01 6.722848e-02 7.661481e-02 1.052888e-01 -7.473659e-02 9.272194e-03 4.764465e-01
<VARIANCE> 39
 3.720539e+01 1.958731e+01 2.231421e+01 3.819606e+01 2.419194e+01 2.952463e+01 2.169002e+01 2.093910e+01 1.916215e+01 1.887869e+01 1.610588e+01 1.151526e+01 2.223085e+01 1.819654e+00 1.090097e+00 1.331861e+00 2.020005e+00 1.582229e+00 1.807611e+00 1.555025e+00 1.439003e+00 1.431272e+00 1.248654e+00 1.035414e+00 8.389177e-01 6.689383e-01 3.342571e-01 3.851643e-01 3.664708e-01 5.396275e-01 3.854838e-01 4.437948e-01 4.520898e-01 4.090509e-01 3.725085e-01 3.662841e-01 2.860446e-01 2.342126e-01 2.408400e-01
<GCONST> 1.022474e+02
<STATE> 4
<MEAN> 39
 -8.472364e+00 -1.045519e+00 1.143832e+00 -3.377545e+00 -5.496356e+00 -5.756074e+00 -6.302006e+00 -4.059416e+00 -2.067773e+00 -1.782687e+00 -2.763109e+00 -2.019025e+00 6.120800e+01 1.250218e+00 -1.571673e+00 -3.870214e-01 -2.209544e+00 -1.042241e+00 -6.914864e-01 -3.218926e-01 3.842911e-01 4.076835e-01 2.699517e-01 -2.916906e-01 2.655272e-02 1.223302e+00 1.455574e-01 -1.686775e-01 1.229167e-01 -2.520889e-01 -4.256744e-02 -2.308224e-02 3.367167e-02 1.446978e-01 -8.992569e-02 -5.497587e-02 -6.963512e-02 4.032638e-02 7.463937e-02
<VARIANCE> 39
 3.580446e+01 2.247589e+01 3.042577e+01 4.480940e+01 2.456919e+01 3.851441e+01 2.394529e+01 2.558055e+01 2.615909e+01 2.669365e+01 2.133234e+01 1.410303e+01 2.034788e+01 2.021037e+00 2.119253e+00 2.248322e+00 3.059221e+00 2.489657e+00 3.198558e+00 2.761556e+00 2.403175e+00 2.433158e+00 2.140416e+00 1.715570e+00 1.389692e+00 1.214222e+00 2.971472e-01 2.298581e-01 2.083625e-01 4.102046e-01 2.883025e-01 3.339327e-01 3.409991e-01 3.017341e-01 2.926407e-01 3.035535e-01 2.288577e-01 1.841110e-01 1.317599e-01
<GCONST> 1.068147e+02
<TRANSP> 5
 0.000000e+00 1.000000e+00 0.000000e+00 0.000000e+00 0.000000e+00
 0.000000e+00 5.894106e-01 4.105893e-01 0.000000e+00 0.000000e+00
 0.000000e+00 0.000000e+00 5.213981e-01 4.786019e-01 0.000000e+00
 0.000000e+00 0.000000e+00 0.000000e+00 3.393243e-01 6.606758e-01
 0.000000e+00 0.000000e+00 0.000000e+00 0.000000e+00 0.000000e+00
<ENDHMM>
~h "w"
<BEGINHMM>
<NUMSTATES> 5
<STATE> 2
<MEAN> 39
 -9.831234e+00 4.467308e-01 -3.238226e+00 -3.494970e+00 -3.542576e-01 1.513780e+00 -1.845965e-01 -1.311876e+00 -1.695837e+00 3.645468e-02 -7.127141e-01 -3.116548e-02 5.062641e+01 2.830266e+00 5.266917e-01 -2.346907e-01 -2.102442e+00 -1.736403e+00 -6.341891e-01 -1.046402e+00 -1.626168e+00 -1.754941e+00 -7.224265e-01 -8.501998e-01 -7.554039e-01 1.227301e+00 5.347730e-01 -1.050161e-01 -5.493792e-02 -5.895305e-01 -3.307278e-01 -1.976474e-01 -1.975346e-01 -2.045306e-01 -2.820568e-01 2.261577e-03 -7.558458e-02 -1.326658e-01 4.943471e-01
<VARIANCE> 39
 2.683017e+01 2.278621e+01 2.211271e+01 4.583216e+01 3.425360e+01 4.704456e+01 3.850598e+01 3.464703e+01 3.579374e+01 2.635002e+01 2.502946e+01 1.960881e+01 6.650994e+01 2.802862e+00 2.871179e+00 2.466978e+00 4.480354e+00 3.234681e+00 3.755265e+00 3.561475e+00 4.239807e+00 3.713457e+00 3.344825e+00 3.344856e+00 2.273959e+00 2.551952e+00 3.740534e-01 5.248563e-01 3.470662e-01 5.112790e-01 5.363993e-01 6.525927e-01 6.450595e-01 5.802432e-01 6.512712e-01 5.804131e-01 5.279488e-01 3.846357e-01 4.538264e-01
<GCONST> 1.232760e+02
<STATE> 3
<MEAN> 39
 5.443549e-02 2.677990e+00 -3.474614e+00 -1.168073e+01 -8.398597e+00 -1.477513e+00 -3.520330e+00 -5.396573e+00 -7.674953e+00 -2.259632e+00 -2.881212e+00 -1.931995e+00 5.625840e+01 1.954220e+00 -8.098235e-01 -7.004677e-01 -2.598205e+00 -1.016297e+00 4.661241e-02 -6.091143e-01 -7.539499e-01 -1.047908e+00 2.799639e-01 -2.754532e-03 -2.266416e-01 1.817646e+00 -8.006390e-01 -5.600564e-01 -2.003749e-02 5.328431e-01 7.268342e-01 2.227306e-01 1.258663e-01 3.196548e-01 5.174081e-01 3.715073e-01 2.184177e-01 3.597249e-02 -5.307769e-03
<VARIANCE> 39
 2.171132e+01 2.494506e+01 2.572751e+01 6.172797e+01 3.826395e+01 4.591656e+01 3.543290e+01 4.567371e+01 4.403022e+01 3.076940e+01 4.186310e+01 2.160407e+01 2.928169e+01 2.652123e+00 2.704663e+00 1.822946e+00 3.900120e+00 3.891690e+00 4.096622e+00 3.554165e+00 3.655150e+00 4.037714e+00 3.240843e+00 3.343888e+00 2.457671e+00 2.609916e+00 2.911418e-01 3.258098e-01 2.998377e-01 5.759485e-01 4.562432e-01 5.007173e-01 5.596949e-01 6.249352e-01 5.551431e-01 4.449369e-01 4.363122e-01 3.724324e-01 2.554800e-01
<GCONST> 1.212818e+02
<STATE> 4
<MEAN> 39
 -1.330947e-01 -3.040889e+00 -6.165409e+00 -1.376700e+01 -5.330354e+00 5.105013e-01 -5.716359e+00 -5.910631e+00 -6.808431e+00 1.494888e+00 -9.686345e-01 -3.315830e+00 6.171237e+01 -5.180349e-01 -1.677877e+00 -1.032617e-01 4.819760e-01 7.399802e-01 -5.915550e-01 -6.771116e-01 3.631510e-01 1.140403e+00 4.924734e-01 -5.377047e-01 -8.517110e-01 1.238497e+00 -4.193079e-01 8.006532e-02 3.931764e-01 6.099277e-01 -1.063990e-01 -3.057141e-01 2.352387e-01 3.819269e-01 2.505810e-01 -3.819607e-01 -3.029802e-01 3.396972e-02 -2.023566e-01
<VARIANCE> 39
 1.688308e+01 3.242601e+01 3.027193e+01 8.097423e+01 4.144248e+01 7.554522e+01 5.430635e+01 5.047232e+01 6.789693e+01 5.187792e+01 6.519828e+01 3.244610e+01 2.602362e+01 7.421827e-01 1.363770e+00 1.606709e+00 2.848196e+00 2.440974e+00 3.519645e+00 3.081758e+00 2.744645e+00 2.887182e+00 3.064542e+00 2.741376e+00 1.781103e+00 8.684803e-01 2.261224e-01 2.330851e-01 2.944673e-01 5.592315e-01 6.858323e-01 5.090436e-01 6.435846e-01 4.897117e-01 6.677321e-01 6.036421e-01 5.019400e-01 4.540552e-01 1.362315e-01
<GCONST> 1.189439e+02
<TRANSP> 5
 0.000000e+00 1.000000e+00 0.000000e+00 0.000000e+00 0.000000e+00
 0.000000e+00 4.438025e-01 5.561975e-01 0.000000e+00 0.000000e+00
 0.000000e+00 0.000000e+00 5.884123e-01 4.115877e-01 0.000000e+00
