~o
<STREAMINFO> 1 39
<VECSIZE> 39<NULLD><MFCC_D_A_0><DIAGC>
~s "silst"
<MEAN> 39
 0.000000e+00 0.000000e+00 0.000000e+00 0.000000e+00 0.000000e+00 0.000000e+00 0.000000e+00 0.000000e+00 0.000000e+00 0.000000e+00 0.000000e+00 0.000000e+00 0.000000e+00 0.000000e+00 0.000000e+00 0.000000e+00 0.000000e+00 0.000000e+00 0.000000e+00 0.000000e+00 0.000000e+00 0.000000e+00 0.000000e+00 0.000000e+00 0.000000e+00 0.000000e+00 0.000000e+00 0.000000e+00 0.000000e+00 0.000000e+00 0.000000e+00 0.000000e+00 0.000000e+00 0.000000e+00 0.000000e+00 0.000000e+00 0.000000e+00 0.000000e+00 0.000000e+00
<VARIANCE> 39
 1.000000e+00 1.000000e+00 1.000000e+00 1.000000e+00 1.000000e+00 1.000000e+00 1.000000e+00 1.000000e+00 1.000000e+00 1.000000e+00 1.000000e+00 1.000000e+00 1.000000e+00 1.000000e+00 1.000000e+00 1.000000e+00 1.000000e+00 1.000000e+00 1.000000e+00 1.000000e+00 1.000000e+00 1.000000e+00 1.000000e+00 1.000000e+00 1.000000e+00 1.000000e+00 1.000000e+00 1.000000e+00 1.000000e+00 1.000000e+00 1.000000e+00 1.000000e+00 1.000000e+00 1.000000e+00 1.000000e+00 1.000000e+00 1.000000e+00 1.000000e+00 1.000000e+00
<GCONST> 7.167721e+01
~h "E"
<BEGINHMM>
<NUMSTATES> 5
<STATE> 2
<MEAN> 39
 -7.713586e+00 -5.680506e+00 2.617751e+00 -1.173359e+00 -4.410816e+00 -8.330156e+00 -7.119954e+00 -3.443587e+00 -1.605795e+00 -1.889848e+00 -7.037469e-01 -2.577463e+00 6.907191e+01 1.353092e+00 -8.200002e-01 -4.300326e-01 -1.778657e-01 -1.244978e+00 -8.803755e-01 -9.354608e-01 2.009316e-03 -1.581582e-01 -1.589327e-01 -4.840717e-02 -3.665391e-01 1.284562e+00 -4.449945e-01 9.661137e-02 1.276080e-02 2.371933e-03 3.179496e-01 3.600155e-01 4.545419e-01 1.644945e-01 1.522899e-01 4.300136e-02 4.819769e-02 8.119324e-02 -2.793853e-01
<VARIANCE> 39
 3.096888e+01 3.558850e+01 3.799655e+01 4.329559e+01 1.077758e+02 5.371871e+01 4.866650e+01 4.663697e+01 4.344918e+01 4.018388e+01 3.205364e+01 2.752870e+01 5.624136e+01 3.379789e+00 2.719255e+00 2.866120e+00 2.999040e+00 5.014903e+00 4.020045e+00 4.626395e+00 3.464520e+00 3.421532e+00 3.092090e+00 2.541765e+00 1.988284e+00 2.599555e+00 5.306222e-01 4.869825e-01 4.103121e-01 4.204061e-01 7.537497e-01 6.329371e-01 6.721628e-01 5.101792e-01 5.172490e-01 4.454515e-01 3.921908e-01 3.167643e-01 5.042736e-01
<GCONST> 1.266791e+02
<STATE> 3
<MEAN> 39
 -5.846115e+00 -8.385732e+00 1.018922e-01 -3.089934e+00 -4.930191e+00 -8.267569e+00 -6.005930e+00 -2.741799e+00 -6.483821e-01 -1.810813e+00 -1.212944e+00 -2.767171e+00 7.229089e+01 -2.903107e-02 2.024761e-02 -7.576389e-04 1.282895e-01 2.172060e-01 1.999230e-01 1.191701e-01 -5.381485e-02 -6.211213e-02 -2.195170e-02 -1.128840e-01 -1.000930e-01 -1.692150e-01 -1.131547e-01 1.945155e-01 1.533521e-01 9.951489e-02 2.411451e-01 1.693845e-01 9.436655e-02 -7.187830e-02 -6.744390e-02 -8.080769e-03 -2.401770e-02 9.738318e-03 -2.660142e-01
<VARIANCE> 39
 2.048302e+01 3.239890e+01 4.339287e+01 4.508966e+01 1.122877e+02 5.885249e+01 4.385385e+01 6.199007e+01 5.089577e+01 4.394100e+01 4.375068e+01 3.752819e+01 3.264574e+01 3.039253e-01 6.958966e-01 9.782194e-01 9.988539e-01 1.240835e+00 1.363860e+00 1.442118e+00 1.425252e+00 1.333708e+00 1.164044e+00 1.080924e+00 8.417001e-01 4.119806e-01 1.238566e-01 1.536462e-01 1.782978e-01 1.919819e-01 3.607290e-01 2.985082e-01 3.247027e-01 2.926655e-01 2.751932e-01 2.451593e-01 2.207997e-01 1.687662e-01 1.173012e-01
<GCONST> 1.001408e+02
<STATE> 4
<MEAN> 39
 -6.682593e+00 -6.036074e+00 2.161684e+00 -3.930131e-01 -3.921157e+00 -8.021117e+00 -7.530699e+00 -3.952386e+00 -2.624820e+00 -2.098692e+00 -9.929323e-01 -3.249533e+00 6.915842e+01 -4.779468e-01 1.121495e+00 7.064356e-01 6.292684e-01 1.411864e+00 1.091173e+00 7.556230e-01 -1.807512e-01 -2.408021e-01 -4.510698e-02 -3.875743e-02 1.067132e-02 -1.677286e+00 -3.260081e-01 1.605196e-01 9.443435e-02 -2.576022e-02 2.933915e-01 3.200297e-01 3.807712e-01 1.222534e-01 1.370226e-01 2.787336e-02 4.874974e-02 8.766001e-02 -2.919731e-01
<VARIANCE> 39
 2.174950e+01 3.463325e+01 4.322406e+01 4.854135e+01 1.192581e+02 5.927245e+01 5.073610e+01 4.794949e+01 5.086572e+01 4.802665e+01 4.420377e+01 3.419844e+01 4.305735e+01 1.452489e+00 1.902540e+00 2.176339e+00 2.416695e+00 4.004642e+00 3.507687e+00 3.385073e+00 3.314109e+00 3.263342e+00 2.684328e+00 2.515363e+00 1.876673e+00 2.312717e+00 2.458550e-01 3.534560e-01 3.950275e-01 3.911456e-01 7.117711e-01 5.775347e-01 5.384178e-01 4.541137e-01 5.422748e-01 4.777952e-01 4.118515e-01 3.229704e-01 4.384378e-01
<GCONST> 1.229918e+02
<TRANSP> 5
 0.000000e+00 1.000000e+00 0.000000e+00 0.000000e+00 0.000000e+00
 0.000000e+00 5.379534e-01 4.620465e-01 0.000000e+00 0.000000e+00
 0.000000e+00 0.000000e+00 7.717221e-01 2.282778e-01 0.000000e+00
 0.000000e+00 0.000000e+00 0.000000e+00 4.829028e-01 5.170972e-01
 0.000000e+00 0.000000e+00 0.000000e+00 0.000000e+00 0.000000e+00
<ENDHMM>
~h "N"
<BEGINHMM>
<NUMSTATES> 5
<STATE> 2
<MEAN> 39
 -4.506904e+00 -1.321007e+00 5.706730e-01 -7.337321e+00 -4.167883e+00 -5.305667e+00 -6.665381e-01 -1.365650e+00 -2.917439e+00 -3.695439e+00 -1.219820e+00 -2.432127e+00 6.857204e+01 1.412773e+00 2.016416e-01 -6.020741e-01 -6.127636e-01 -1.369791e+00 -9.382859e-01 9.470566e-02 8.258789e-01 3.865361e-01 -1.599445e-01 -1.908453e-01 -3.563395e-02 1.439661e-01 -4.146640e-01 -5.624379e-02 1.625577e-01 3.789013e-01 3.209611e-01 1.107333e-01 -6.947557e-02 8.570819e-02 2.510231e-01 1.820311e-01 1.264032e-02 -4.358280e-02 -2.511716e-01
<VARIANCE> 39
 2.347308e+01 2.817201e+01 2.884816e+01 4.281398e+01 6.993629e+01 6.414387e+01 5.276853e+01 4.440397e+01 4.589843e+01 4.056934e+01 3.188307e+01 2.320248e+01 3.109415e+01 3.457960e+00 2.552220e+00 2.741677e+00 4.027748e+00 4.033016e+00 4.920829e+00 4.640007e+00 4.180497e+00 3.500333e+00 3.186424e+00 2.878043e+00 2.332349e+00 1.423376e+00 5.388122e-01 3.895001e-01 4.381661e-01 5.395700e-01 6.288847e-01 7.088089e-01 7.060722e-01 6.964558e-01 5.782515e-01 4.983852e-01 5.082396e-01 4.397261e-01 2.940969e-01
<GCONST> 1.257448e+02
<STATE> 3
<MEAN> 39
 -2.333558e+00 -9.316577e-01 5.267301e-01 -5.940353e+00 -5.097332e+00 -8.476886e+00 -4.816610e-01 2.917133e-01 -5.011643e-01 -2.125559e+00 -1.641714e+00 -2.520350e+00 6.763923e+01 -6.957449e-02 1.848248e-01 2.108003e-01 4.480762e-01 2.668543e-01 1.005149e-01 -1.459966e-01 -1.392860e-01 1.522524e-02 8.709630e-02 4.183285e-03 -5.858701e-02 -4.367845e-01 -1.856322e-01 1.309662e-02 1.172283e-01 1.579840e-01 2.788799e-01 2.279123e-01 1.636118e-02 -1.641977e-01 -1.388696e-01 -1.626515e-02 3.483555e-02 2.368062e-02 -1.165563e-01
<VARIANCE> 39
 2.126453e+01 2.694012e+01 2.480800e+01 4.124284e+01 5.959623e+01 7.089926e+01 5.690302e+01 5.285132e+01 5.811864e+01 5.429764e+01 3.366976e+01 2.550754e+01 2.068004e+01 2.685861e-01 6.227835e-01 8.143217e-01 1.284513e+00 1.679827e+00 1.729382e+00 1.465126e+00 1.696652e+00 1.693452e+00 1.456975e+00 1.321861e+00 1.069488e+00 4.619972e-01 1.007614e-01 1.298916e-01 1.752020e-01 2.438358e-01 2.791629e-01 3.624918e-01 3.437488e-01 3.524025e-01 3.087685e-01 2.922256e-01 2.745996e-01 2.157066e-01 6.887651e-02
<GCONST> 1.000712e+02
<STATE> 4
<MEAN> 39
 -1.019125e+01 -3.175180e-01 1.252891e+00 2.585236e-02 7.708614e-01 -5.882398e-01 1.417584e+00 9.603679e-01 1.900219e+00 7.854817e-01 3.047770e-01 1.975378e-01 5.464291e+01 -5.768049e-01 9.506735e-03 1.720878e-01 3.312057e-01 4.928785e-01 5.294178e-01 1.520498e-01 -8.965969e-02 5.954936e-03 1.312484e-01 1.162629e-01 1.460880e-01 -5.715767e-01 -5.049787e-02 -7.969543e-02 3.146767e-02 -4.987765e-02 -1.545814e-03 -5.032133e-02 -1.099856e-02 3.504708e-03 8.545255e-03 -1.149906e-02 1.168885e-02 -7.756827e-03 1.272059e-01
<VARIANCE> 39
 3.544265e+01 2.634993e+01 2.054915e+01 2.414544e+01 3.663285e+01 4.421803e+01 3.022066e+01 2.799080e+01 3.212528e+01 2.928801e+01 2.176420e+01 1.824212e+01 5.813704e+01 1.221763e+00 1.370511e+00 1.280714e+00 1.755709e+00 2.211215e+00 2.629300e+00 1.943741e+00 1.846618e+00 1.830273e+00 1.721983e+00 1.478205e+00 1.168852e+00 1.759057e+00 2.450787e-01 2.420709e-01 2.308482e-01 2.684455e-01 3.603311e-01 3.927082e-01 3.378718e-01 3.303624e-01 3.394465e-01 3.093145e-01 2.592513e-01 2.103789e-01 2.100593e-01
<GCONST> 1.058943e+02
<TRANSP> 5
 0.000000e+00 1.000000e+00 0.000000e+00 0.000000e+00 0.000000e+00
 0.000000e+00 6.824997e-01 3.175002e-01 0.000000e+00 0.000000e+00
 0.000000e+00 0.000000e+00 8.249283e-01 1.750717e-01 0.000000e+00
 0.000000e+00 0.000000e+00 0.000000e+00 8.039513e-01 1.960488e-01
 0.000000e+00 0.000000e+00 0.000000e+00 0.000000e+00 0.000000e+00
<ENDHMM>
~h "O"
<BEGINHMM>
<NUMSTATES> 5
<STATE> 2
<MEAN> 39
 -3.285429e+00 -2.661932e+00 9.185787e-01 -5.363400e+00 -1.938800e+00 -8.310802e+00 -3.530709e+00 -2.235356e+00 -3.133047e+00 -3.144021e+00 -8.345564e-01 -1.532628e+00 6.944118e+01 1.758609e+00 -2.694939e-01 -9.730005e-01 -8.249043e-01 -1.165048e+00 -1.162549e+00 -5.785320e-01 1.864291e-01 -5.147567e-01 -1.959390e-01 8.297546e-02 2.577198e-01 9.445769e-01 -5.642935e-01 -5.532858e-03 1.581204e-01 2.148343e-01 2.864626e-01 4.777427e-01 3.794270e-01 1.546641e-01 3.083229e-01 1.340828e-01 3.892734e-02 9.306289e-02 -4.193810e-01
<VARIANCE> 39
 1.845468e+01 2.943204e+01 3.106956e+01 4.264940e+01 8.715037e+01 6.145407e+01 5.772055e+01 5.155938e+01 5.376505e+01 3.873264e+01 3.417872e+01 2.754338e+01 2.177843e+01 3.186754e+00 2.600171e+00 1.927593e+00 3.069352e+00 4.064107e+00 4.716099e+00 4.213777e+00 3.701757e+00 3.183613e+00 2.750199e+00 2.716030e+00 2.531490e+00 9.415046e-01 5.415096e-01 3.802707e-01 3.844044e-01 4.651649e-01 5.545201e-01 6.096656e-01 5.688583e-01 5.724032e-01 4.996947e-01 4.381343e-01 4.679680e-01 3.273203e-01 3.048178e-01
<GCONST> 1.228564e+02
<STATE> 3
<MEAN> 39
 -2.124959e+00 -3.274249e+00 -5.255029e-01 -6.976512e+00 -2.543131e+00 -9.034391e+00 -1.681591e+00 -3.617023e-01 -1.279457e+00 -3.097865e+00 -3.844167e-01 5.618828e-01 7.008699e+01 -2.381751e-03 1.937317e-01 8.061127e-02 2.886686e-04 -1.994703e-01 1.948452e-01 3.712188e-01 1.854193e-01 2.344103e-01 3.323575e-02 -1.199625e-01 -5.495771e-02 -2.807705e-01 -2.319204e-01 1.561745e-01 2.831135e-01 3.328956e-01 3.113856e-01 2.767428e-01 -1.400601e-03 -9.040818e-02 3.717398e-03 2.672565e-05 -5.546718e-02 -1.231256e-01 -2.592458e-01
<VARIANCE> 39
 1.431783e+01 2.896108e+01 2.311019e+01 3.213127e+01 7.946719e+01 5.595020e+01 4.866942e+01 5.629078e+01 5.861421e+01 4.509248e+01 3.452782e+01 3.421371e+01 1.803138e+01 2.090617e-01 6.402958e-01 7.117704e-01 1.098487e+00 1.684007e+00 1.511225e+00 1.486110e+00 1.729883e+00 1.522215e+00 1.341345e+00 1.265952e+00 1.022544e+00 3.380767e-01 2.039040e-01 1.646423e-01 1.735058e-01 2.174956e-01 3.105627e-01 4.195370e-01 3.606202e-01 3.056803e-01 3.334316e-01 2.968131e-01 2.895224e-01 2.597153e-01 7.978450e-02
<GCONST> 9.964171e+01
<STATE> 4
<MEAN> 39
 -3.036681e+00 -2.171561e+00 9.591391e-01 -5.048809e+00 -3.017382e+00 -6.318024e+00 -2.561768e+00 -1.922067e+00 -2.797260e+00 -2.739402e+00 -8.303760e-01 -1.924134e+00 6.804591e+01 -7.285468e-01 8.360130e-01 1.319817e+00 1.525945e+00 1.511161e+00 1.493317e+00 1.428229e-01 -2.898730e-01 -6.479298e-02 -1.012617e-01 -3.171924e-01 -5.983440e-01 -1.304213e+00 -3.624868e-01 -8.474957e-02 1.416744e-01 1.749633e-01 3.290438e-01 2.843896e-01 5.970273e-02 9.357317e-03 1.284757e-01 7.193192e-02 3.763762e-03 -5.633098e-02 -1.201886e-01
<VARIANCE> 39
 1.734133e+01 3.044084e+01 2.747261e+01 3.939098e+01 8.182574e+01 5.315459e+01 6.137634e+01 5.061170e+01 6.260114e+01 4.414248e+01 3.250787e+01 3.556549e+01 2.330946e+01 1.349501e+00 1.760571e+00 1.578430e+00 2.814682e+00 2.614714e+00 3.876513e+00 4.019538e+00 2.938457e+00 3.073820e+00 2.650087e+00 2.355514e+00 2.334014e+00 7.043768e-01 3.930993e-01 2.856369e-01 3.374633e-01 4.327052e-01 5.305470e-01 5.423339e-01 5.534351e-01 4.907816e-01 5.286018e-01 4.235156e-01 4.066662e-01 3.570693e-01 1.537852e-01
<GCONST> 1.181127e+02
<TRANSP> 5
 0.000000e+00 1.000000e+00 0.000000e+00 0.000000e+00 0.000000e+00
 0.000000e+00 5.685281e-01 4.314719e-01 0.000000e+00 0.000000e+00
 0.000000e+00 0.000000e+00 7.603703e-01 2.396297e-01 0.000000e+00
 0.000000e+00 0.000000e+00 0.000000e+00 5.327911e-01 4.672089e-01
 0.000000e+00 0.000000e+00 0.000000e+00 0.000000e+00 0.000000e+00
<ENDHMM>
~h "R"
<BEGINHMM>
<NUMSTATES> 5
<STATE> 2
<MEAN> 39
 -7.447469e+00 -4.240024e+00 8.618738e-01 -4.813457e+00 -2.897548e+00 -2.408196e+00 -6.420163e-02 -2.954575e+00 -1.528722e+00 -1.828747e+00 -2.355072e+00 -2.345899e+00 6.572366e+01 -1.144051e+00 -1.867357e-01 4.608999e-01 3.663279e-01 1.221895e+00 1.191519e+00 8.178976e-01 1.900201e-01 5.598444e-01 2.126693e-01 1.989254e-01 2.982879e-01 -7.888036e-01 -2.666685e-01 -1.613044e-01 -7.468714e-02 1.610805e-02 1.219026e-01 3.709510e-02 -8.319953e-02 1.396996e-01 2.137722e-01 1.077107e-01 2.070293e-01 1.022319e-01 1.297979e-02
<VARIANCE> 39
 3.042530e+01 3.712629e+01 3.188961e+01 4.357898e+01 6.693192e+01 7.613278e+01 5.318379e+01 5.267214e+01 4.433044e+01 3.656662e+01 4.129330e+01 3.186328e+01 3.194532e+01 2.351471e+00 2.315186e+00 2.095607e+00 2.784368e+00 4.661453e+00 4.024992e+00 3.655496e+00 3.227986e+00 3.145059e+00 2.623209e+00 2.452789e+00 1.944804e+00 1.252514e+00 2.732056e-01 2.901170e-01 3.244564e-01 4.303377e-01 4.915614e-01 5.592961e-01 5.261775e-01 5.394621e-01 4.893232e-01 4.180782e-01 3.953446e-01 3.189652e-01 2.200310e-01
<GCONST> 1.209850e+02
<STATE> 3
<MEAN> 39
 -1.351284e+01 -7.255273e+00 -5.547741e-03 -5.239892e+00 1.576605e+00 2.472853e+00 2.665643e+00 -1.408826e+00 2.239516e+00 2.743458e-01 1.188968e-01 -4.606709e-01 6.399144e+01 -7.715664e-01 -1.359799e-01 2.167943e-02 6.862432e-02 5.132797e-01 2.661713e-01 -4.151495e-03 1.889454e-01 4.866385e-01 3.211491e-01 4.133326e-01 3.341512e-01 -3.293576e-01 4.127938e-01 2.345021e-01 -1.008247e-03 7.094181e-02 -3.595157e-01 -4.527312e-01 -3.180902e-01 -6.471901e-02 -2.221532e-01 -1.033375e-01 -1.278010e-01 -1.194691e-01 7.168627e-02
<VARIANCE> 39
 3.756831e+01 4.071549e+01 2.588123e+01 4.506388e+01 5.125142e+01 6.292795e+01 5.171973e+01 4.394579e+01 4.147808e+01 3.423019e+01 3.066652e+01 2.385388e+01 3.929569e+01 2.760625e+00 2.386869e+00 1.904831e+00 2.595491e+00 3.227926e+00 3.358453e+00 3.005326e+00 2.950387e+00 2.928073e+00 2.454739e+00 2.400939e+00 1.860442e+00 1.528236e+00 4.380215e-01 4.180236e-01 3.920843e-01 5.119084e-01 6.632985e-01 6.518328e-01 6.291065e-01 5.710003e-01 5.449421e-01 4.578157e-01 4.272115e-01 3.333062e-01 3.414288e-01
<GCONST> 1.217679e+02
<STATE> 4
<MEAN> 39
 -1.363870e+01 -4.376826e+00 4.089488e-01 -2.370599e+00 2.279961e+00 3.054742e+00 2.545033e+00 3.655888e-01 3.051136e+00 1.655073e+00 1.874605e+00 1.178387e+00 5.585313e+01 8.206122e-02 2.631032e-01 1.488456e-01 2.273708e-01 -3.805589e-02 -1.564968e-01 -1.098285e-01 3.991457e-02 -3.756186e-02 -3.547001e-02 -1.353359e-02 1.438166e-02 -3.114683e-01 1.012133e-01 1.755255e-02 1.548775e-02 7.610834e-03 -9.447132e-02 -9.449651e-02 -4.982724e-02 -1.935195e-02 -6.540734e-02 -5.034960e-02 -4.776790e-02 -4.752720e-02 5.684486e-02
<VARIANCE> 39
 2.302220e+01 3.617494e+01 1.945680e+01 3.361410e+01 2.932555e+01 3.776423e+01 2.839433e+01 2.812575e+01 2.790457e+01 2.334421e+01 2.072781e+01 1.509166e+01 6.315255e+01 1.158175e+00 1.151805e+00 9.963346e-01 1.235262e+00 1.473888e+00 1.665318e+00 1.546188e+00 1.487123e+00 1.474141e+00 1.345307e+00 1.223551e+00 1.008679e+00 1.013965e+00 1.681716e-01 1.806258e-01 1.823666e-01 1.964178e-01 2.940352e-01 2.876815e-01 2.690305e-01 2.669414e-01 2.815393e-01 2.482295e-01 2.222509e-01 1.852552e-01 1.378869e-01
<GCONST> 9.832436e+01
<TRANSP> 5
 0.000000e+00 1.000000e+00 0.000000e+00 0.000000e+00 0.000000e+00
 0.000000e+00 4.985859e-01 5.014141e-01 0.000000e+00 0.000000e+00
 0.000000e+00 0.000000e+00 5.791683e-01 4.208317e-01 0.000000e+00
 0.000000e+00 0.000000e+00 0.000000e+00 7.926747e-01 2.073253e-01
 0.000000e+00 0.000000e+00 0.000000e+00 0.000000e+00 0.000000e+00
<ENDHMM>
~h "S"
<BEGINHMM>
<NUMSTATES> 5
<STATE> 2
<MEAN> 39
 -1.317618e+01 -1.062972e+01 8.002024e+00 3.488270e+00 5.578114e+00 -4.018295e+00 -3.791182e-01 -2.401043e+00 2.233381e+00 -6.823089e-01 4.064000e-01 3.169583e-01 6.762826e+01 -3.575574e+00 -2.973198e+00 1.108068e+00 -5.039905e-01 -2.557277e-01 3.470131e-01 9.121698e-01 5.102109e-01 1.204198e+00 1.266971e-01 3.361877e-01 4.458041e-01 1.099495e+00 -1.077190e-01 4.651154e-03 -3.245084e-01 -2.844793e-01 -3.548419e-01 -2.961036e-01 -1.519154e-01 -9.004948e-02 -1.595192e-01 -3.158139e-02 1.109937e-02 -4.253892e-02 1.948232e-01
<VARIANCE> 39
 5.082287e+01 4.783060e+01 4.115498e+01 2.910702e+01 4.558228e+01 3.970143e+01 2.579677e+01 2.567463e+01 3.278232e+01 2.164372e+01 2.005267e+01 1.754153e+01 3.302737e+01 2.318574e+00 3.254225e+00 3.229252e+00 3.085048e+00 3.563341e+00 3.929651e+00 3.426912e+00 3.211859e+00 2.803049e+00 2.429012e+00 2.420963e+00 1.689570e+00 1.100978e+00 6.816572e-01 8.038529e-01 4.174767e-01 4.085992e-01 4.463713e-01 5.298659e-01 4.620835e-01 4.211996e-01 4.473973e-01 3.373335e-01 3.253043e-01 2.269054e-01 2.462415e-01
<GCONST> 1.179164e+02
<STATE> 3
<MEAN> 39
 -2.495343e+01 -1.755573e+01 9.751738e+00 4.790053e-01 1.845923e+00 -5.739596e+00 1.316354e+00 -2.133615e+00 3.155436e+00 -2.723978e-01 5.716984e-01 9.024467e-01 7.227982e+01 -3.520947e-01 -2.621501e-01 -5.648405e-02 -2.357502e-01 -2.578058e-01 -6.336922e-02 1.035805e-02 -1.129871e-01 -1.085740e-01 -2.026978e-02 -8.400210e-03 4.181618e-02 4.998278e-02 6.765062e-01 3.689196e-01 -1.390277e-01 8.518296e-02 7.074923e-02 4.030675e-02 -1.390165e-01 -5.814913e-02 -1.423460e-01 -2.066224e-02 -4.034954e-02 -5.517473e-02 -2.765253e-01
<VARIANCE> 39
 1.877995e+01 4.790969e+01 2.529707e+01 2.594226e+01 3.212500e+01 3.424805e+01 2.602390e+01 2.179890e+01 2.330464e+01 1.645641e+01 1.561188e+01 1.104187e+01 1.483468e+01 1.777536e+00 8.093888e-01 8.035908e-01 7.581267e-01 9.222004e-01 9.399778e-01 8.897714e-01 9.610198e-01 8.760777e-01 7.765885e-01 6.884553e-01 6.450963e-01 4.748373e-01 2.408834e-01 2.523110e-01 1.785425e-01 1.780281e-01 1.946177e-01 1.979987e-01 2.111446e-01 2.063392e-01 2.058486e-01 1.561878e-01 1.543356e-01 1.344344e-01 7.567561e-02
<GCONST> 8.720039e+01
<STATE> 4
<MEAN> 39
 -1.716745e+01 -1.429617e+01 6.434787e+00 -1.945280e-01 2.405932e+00 -4.722305e+00 -3.885185e-01 -3.350049e+00 1.581254e+00 -1.024764e+00 3.137252e-01 1.320472e+00 6.830065e+01 3.813031e+00 2.418864e+00 -1.626537e+00 -2.308358e-01 -3.826670e-01 -3.232391e-01 -7.053143e-01 -4.955354e-01 -1.246930e+00 -3.238001e-01 -2.526132e-01 -2.806707e-01 -8.769740e-01 4.680828e-01 3.228125e-01 -3.623801e-01 -9.520945e-02 -2.107316e-01 -1.819373e-01 -3.694968e-02 2.584935e-02 -1.650584e-01 -3.813836e-02 -3.270082e-02 -6.952725e-02 1.830359e-01
<VARIANCE> 39
 6.318975e+01 5.688589e+01 3.326858e+01 2.527198e+01 3.532493e+01 3.352781e+01 2.847257e+01 3.099687e+01 3.020218e+01 2.435080e+01 1.860835e+01 1.803178e+01 2.955672e+01 5.323604e+00 4.832467e+00 3.275383e+00 2.307919e+00 3.175575e+00 3.752613e+00 3.267809e+00 3.006911e+00 2.556773e+00 2.083037e+00 1.769244e+00 1.673852e+00 1.316135e+00 9.153025e-01 9.690415e-01 3.993997e-01 3.499403e-01 4.203489e-01 5.542704e-01 4.204846e-01 4.404178e-01 4.497645e-01 3.752536e-01 2.981376e-01 2.424073e-01 3.973730e-01
<GCONST> 1.187670e+02
<TRANSP> 5
 0.000000e+00 1.000000e+00 0.000000e+00 0.000000e+00 0.000000e+00
 0.000000e+00 7.173814e-01 2.826186e-01 0.000000e+00 0.000000e+00
 0.000000e+00 0.000000e+00 8.399950e-01 1.600050e-01 0.000000e+00
 0.000000e+00 0.000000e+00 0.000000e+00 6.485471e-01 3.514529e-01
 0.000000e+00 0.000000e+00 0.000000e+00 0.000000e+00 0.000000e+00
<ENDHMM>
~h "Z"
<BEGINHMM>
<NUMSTATES> 5
<STATE> 2
<MEAN> 39
 -1.330680e+01 -2.285349e+00 3.158420e+00 1.163122e+00 2.313508e+00 1.281991e+00 2.466311e+00 1.487571e+00 3.677001e+00 1.510854e+00 1.874014e+00 1.218425e+00 5.169629e+01 -3.455437e-01 -8.215457e-02 3.375254e-01 1.282951e-01 1.408514e-01 -3.969184e-02 1.208618e-01 -1.598972e-02 4.962237e-02 5.387856e-02 9.528619e-03 2.974144e-02 3.064635e-02 -4.592387e-02 -7.843049e-02 6.441443e-02 -1.244766e-03 -6.155765e-02 -3.768769e-02 -3.932015e-02 -5.101179e-02 -2.811793e-02 -4.341177e-02 -2.644470e-02 -4.222509e-02 1.307300e-01
<VARIANCE> 39
 1.221628e+01 2.234600e+01 1.853862e+01 1.471408e+01 2.200811e+01 2.707557e+01 2.158523e+01 2.416671e+01 2.147038e+01 1.941470e+01 1.890491e+01 1.247214e+01 4.966054e+01 1.442077e+00 1.260672e+00 1.584108e+00 1.090531e+00 1.613577e+00 1.528248e+00 1.691581e+00 1.425902e+00 1.331227e+00 1.231564e+00 1.177449e+00 9.826303e-01 6.971434e-01 1.343597e-01 1.692031e-01 1.525913e-01 1.650768e-01 2.152381e-01 2.482252e-01 2.437923e-01 2.353586e-01 2.240483e-01 2.120817e-01 1.992285e-01 1.662767e-01 1.025254e-01
<GCONST> 9.216558e+01
<STATE> 3
<MEAN> 39
 -1.399552e+01 -5.890291e+00 8.811436e+00 1.762185e+00 -1.966292e+00 -3.967699e+00 -2.033914e+00 -3.264234e+00 6.411891e-01 -1.415968e+00 -8.561469e-01 -1.731095e+00 6.262321e+01 -1.258638e+00 -7.520421e-01 1.380298e+00 -1.385019e-01 8.098826e-02 -3.995233e-01 7.534879e-02 -6.250013e-01 -7.004965e-02 -2.152870e-01 -4.107506e-01 -1.310312e-01 1.546694e+00 -1.562805e-01 9.735508e-02 -9.204085e-02 -1.131807e-01 6.509095e-02 8.210760e-02 1.066443e-01 7.403604e-02 6.354538e-02 1.872049e-02 4.742059e-02 2.207054e-02 3.340332e-02
<VARIANCE> 39
 5.027568e+01 3.801037e+01 4.731060e+01 4.434078e+01 7.567298e+01 5.583220e+01 5.771201e+01 4.186609e+01 3.928498e+01 3.381853e+01 2.868256e+01 2.247018e+01 6.700462e+01 5.650096e+00 4.055270e+00 4.045453e+00 3.400744e+00 5.083315e+00 4.491539e+00 5.038589e+00 3.638284e+00 3.378906e+00 2.571879e+00 2.376614e+00 1.901802e+00 4.297982e+00 7.646840e-01 6.441203e-01 6.390997e-01 5.064934e-01 8.404719e-01 7.448310e-01 8.305855e-01 6.210079e-01 5.638594e-01 4.424095e-01 4.105648e-01 3.457361e-01 5.864438e-01
<GCONST> 1.309630e+02
<STATE> 4
<MEAN> 39
 -2.226434e+01 -8.202060e+00 1.477066e+01 6.384385e-01 5.431556e-01 -4.766240e+00 7.400310e-01 -5.651215e+00 1.189191e+00 -1.536792e+00 -2.207639e+00 -1.567754e+00 6.988456e+01 4.699737e-01 1.115810e-01 -4.813711e-01 -2.614855e-01 -3.301087e-01 -2.581608e-01 -5.145537e-01 -3.055227e-01 -1.102201e-01 -8.612885e-02 -4.187868e-02 -9.040414e-02 3.301376e-01 1.096869e+00 1.597005e-01 -6.352789e-01 2.281341e-02 -4.335251e-01 -1.358163e-01 -5.374109e-01 -3.673330e-02 -1.999211e-01 -5.138263e-02 1.905804e-02 -6.584537e-02 -2.587628e-01
<VARIANCE> 39
 3.909048e+01 4.021613e+01 2.737969e+01 4.251093e+01 4.986345e+01 5.197580e+01 3.609215e+01 3.250315e+01 3.236963e+01 2.222558e+01 1.985695e+01 1.554806e+01 1.944984e+01 6.410971e+00 1.426993e+00 2.188560e+00 1.433346e+00 1.933711e+00 2.274800e+00 3.538602e+00 1.970459e+00 1.804416e+00 1.282369e+00 1.187387e+00 9.282268e-01 8.004985e-01 4.938928e-01 3.887238e-01 3.833001e-01 3.437886e-01 3.948755e-01 4.936098e-01 5.165130e-01 4.486986e-01 3.583334e-01 2.680455e-01 2.774378e-01 2.016043e-01 1.111590e-01
<GCONST> 1.095995e+02
<TRANSP> 5
 0.000000e+00 1.000000e+00 0.000000e+00 0.000000e+00 0.000000e+00
 0.000000e+00 8.168501e-01 1.831498e-01 0.000000e+00 0.000000e+00
 0.000000e+00 0.000000e+00 7.503862e-01 2.496138e-01 0.000000e+00
 0.000000e+00 0.000000e+00 0.000000e+00 7.868032e-01 2.131968e-01
 0.000000e+00 0.000000e+00 0.000000e+00 0.000000e+00 0.000000e+00
<ENDHMM>
~h "^"
<BEGINHMM>
<NUMSTATES> 5
<STATE> 2
<MEAN> 39
 -1.035913e+01 -6.067830e+00 4.087199e+00 -1.514124e+00 -5.532463e-01 -4.784677e+00 -4.126811e+00 -5.846191e+00 -2.756549e+00 -1.668379e+00 -5.186530e-01 -2.394259e+00 6.785778e+01 2.516565e+00 -2.872383e-02 -9.981325e-02 2.620144e-01 -1.079322e+00 -7.834141e-01 -1.491430e+00 -8.520265e-01 -1.025219e+00 -1.116664e-01 -6.611525e-02 -5.558935e-01 5.127442e-01 -2.964462e-01 7.134397e-02 -1.642654e-01 -3.805475e-02 -1.704184e-02 3.080623e-01 2.249301e-01 3.562045e-01 2.778746e-01 1.535178e-01 1.268155e-01 1.058876e-01 -1.607682e-01
<VARIANCE> 39
 6.084248e+01 5.917974e+01 2.959762e+01 3.727428e+01 7.141284e+01 4.277863e+01 5.006039e+01 3.294685e+01 3.977905e+01 2.602196e+01 2.247641e+01 2.546696e+01 2.470345e+01 4.522110e+00 3.214621e+00 2.493096e+00 3.389786e+00 6.123758e+00 3.866863e+00 4.255979e+00 3.347263e+00 3.561327e+00 2.706260e+00 2.512553e+00 2.293391e+00 2.800661e+00 8.220878e-01 6.149520e-01 3.268804e-01 3.880140e-01 4.375792e-01 4.837923e-01 4.543891e-01 3.262179e-01 3.617958e-01 3.384017e-01 2.996596e-01 2.483905e-01 4.877936e-01
<GCONST> 1.228582e+02
<STATE> 3
<MEAN> 39
 -7.481567e+00 -8.599778e+00 2.150587e+00 -4.354643e+00 -6.486696e+00 -4.866354e+00 -7.972394e+00 -5.306530e+00 -2.467881e+00 -5.526370e-01 7.286233e-02 -4.839120e+00 7.093539e+01 4.062715e-01 6.352918e-03 1.384539e-01 2.650469e-01 -2.672960e-01 8.247720e-02 -2.683417e-01 5.964906e-02 2.371443e-01 1.673115e-01 -1.667202e-02 -1.502001e-01 -2.195852e-01 -4.745229e-01 3.987606e-01 2.133542e-01 1.646671e-01 4.941482e-01 2.524370e-01 4.924693e-01 1.350906e-01 1.997724e-01 -3.045995e-02 -9.224442e-02 1.660600e-01 -5.092300e-01
<VARIANCE> 39
 4.296069e+01 4.262170e+01 2.960441e+01 5.571134e+01 9.375027e+01 4.824170e+01 6.848753e+01 4.994489e+01 5.146906e+01 3.909312e+01 3.552042e+01 4.282089e+01 2.936418e+01 1.250879e+00 2.554289e+00 1.698953e+00 2.077044e+00 2.426147e+00 2.516830e+00 2.778497e+00 2.211390e+00 2.092331e+00 1.878261e+00 1.737392e+00 1.340302e+00 2.823714e+00 5.627527e-01 3.792064e-01 3.949923e-01 3.945768e-01 5.414368e-01 6.151060e-01 6.586035e-01 5.277981e-01 6.114643e-01 4.667600e-01 4.181729e-01 3.230031e-01 2.500307e-01
<GCONST> 1.205641e+02
<STATE> 4
<MEAN> 39
 -8.745687e+00 -7.029702e+00 4.705474e+00 -6.526259e-01 -1.974018e+00 -4.254752e+00 -5.018923e+00 -5.404538e+00 -1.683254e+00 -8.351617e-01 -2.875885e-01 -2.788081e+00 6.732125e+01 -1.192444e-01 1.455317e+00 6.939216e-01 6.788961e-01 7.917133e-01 8.056933e-01 7.413908e-01 2.875757e-01 2.173678e-01 3.089232e-02 -1.263398e-01 1.534479e-01 -1.887770e+00 -3.048725e-01 1.406069e-01 -1.049775e-01 -6.704819e-02 1.733333e-01 1.488908e-01 3.236308e-01 2.247539e-01 1.501296e-01 -3.042284e-02 6.496675e-02 1.064795e-01 -2.215057e-01
<VARIANCE> 39
 5.664235e+01 4.801295e+01 3.662204e+01 4.299767e+01 9.758764e+01 4.383464e+01 6.226516e+01 5.251032e+01 5.373577e+01 3.452903e+01 3.258186e+01 3.693993e+01 3.233144e+01 2.650428e+00 3.936275e+00 2.704641e+00 2.785687e+00 3.848329e+00 3.517116e+00 2.572184e+00 2.958799e+00 2.706591e+00 2.327842e+00 1.922295e+00 1.455131e+00 5.227405e+00 4.417483e-01 3.530079e-01 5.396702e-01 3.924575e-01 4.734453e-01 6.072933e-01 6.394755e-01 5.133646e-01 5.170281e-01 3.795638e-01 3.769714e-01 2.967548e-01 5.064104e-01
<GCONST> 1.247482e+02
<TRANSP> 5
 0.000000e+00 1.000000e+00 0.000000e+00 0.000000e+00 0.000000e+00
 0.000000e+00 3.263521e-01 6.736479e-01 0.000000e+00 0.000000e+00
 0.000000e+00 0.000000e+00 5.461829e-01 4.538171e-01 0.000000e+00
 0.000000e+00 0.000000e+00 0.000000e+00 1.218538e-01 8.781462e-01
 0.000000e+00 0.000000e+00 0.000000e+00 0.000000e+00 0.000000e+00
<ENDHMM>
~h "a"
<BEGINHMM>
<NUMSTATES> 5
<STATE> 2
<MEAN> 39
 -4.912454e+00 -6.896753e+00 -2.088827e+00 -5.936300e+00 -5.460852e+00 -6.945099e+00 -5.027082e+00 -2.698843e+00 -7.037422e-01 -1.098202e+00 -4.586591e-02 -2.212539e+00 7.157656e+01 8.516923e-01 -1.066813e+00 -1.280298e+00 -8.043090e-01 -6.631531e-01 -1.937428e-01 9.631033e-02 4.992226e-01 5.629086e-01 3.374104e-01 -1.460595e-01 -2.474096e-01 1.087582e+00 -4.132534e-01 1.502743e-01 3.045365e-01 2.869970e-01 3.744137e-01 3.260848e-01 3.146054e-01 9.002170e-02 -2.213834e-03 -8.020061e-02 -6.369161e-02 1.625356e-02 -4.209491e-01
<VARIANCE> 39
 2.176572e+01 3.342881e+01 3.008840e+01 4.213434e+01 7.508978e+01 5.762949e+01 5.170754e+01 4.585756e+01 4.698621e+01 4.236373e+01 4.049546e+01 4.453437e+01 3.175358e+01 2.329928e+00 2.036647e+00 2.192374e+00 2.503888e+00 3.139884e+00 3.509180e+00 3.408036e+00 2.977262e+00 3.279707e+00 2.837626e+00 2.667220e+00 2.413892e+00 1.599401e+00 3.676035e-01 3.856993e-01 4.006882e-01 3.751367e-01 4.693029e-01 5.617098e-01 5.476067e-01 4.908131e-01 5.694121e-01 4.671212e-01 4.292552e-01 4.156282e-01 3.494032e-01
<GCONST> 1.220516e+02
<STATE> 3
<MEAN> 39
 -4.055626e+00 -8.027432e+00 -3.841609e+00 -6.871566e+00 -5.533352e+00 -6.058598e+00 -2.292485e+00 -1.272053e+00 2.461533e-01 -1.014299e+00 -7.521558e-01 -2.182929e+00 7.210428e+01 -1.338667e-02 7.767355e-02 7.085676e-02 1.805691e-01 1.949597e-01 1.308278e-01 8.898531e-02 -4.801417e-02 -6.845614e-02 3.817017e-02 -8.707333e-02 -4.330803e-02 -2.063742e-01 -1.069642e-01 2.953400e-01 3.312237e-01 2.485674e-01 1.534565e-01 4.905589e-02 -9.208645e-02 -1.475891e-01 -1.473822e-01 -6.096391e-02 1.355041e-02 2.549100e-02 -3.079374e-01
<VARIANCE> 39
 1.943272e+01 3.216208e+01 2.869581e+01 3.841008e+01 6.777460e+01 6.282573e+01 4.817756e+01 4.642995e+01 4.605264e+01 4.116444e+01 4.527926e+01 4.497811e+01 2.901268e+01 2.679058e-01 7.290692e-01 9.416245e-01 9.433116e-01 1.320271e+00 1.329776e+00 1.475311e+00 1.416634e+00 1.305903e+00 1.167631e+00 1.118896e+00 9.484234e-01 3.531314e-01 8.815022e-02 1.568789e-01 1.691140e-01 1.789109e-01 2.479618e-01 2.875097e-01 2.731383e-01 2.806874e-01 2.737257e-01 2.489889e-01 2.437901e-01 2.025446e-01 1.035505e-01
<GCONST> 9.776203e+01
<STATE> 4
<MEAN> 39
 -6.114946e+00 -5.511642e+00 -1.325268e+00 -3.954515e+00 -2.390096e+00 -3.892817e+00 -2.259967e+00 -2.090230e+00 -5.911832e-01 -6.469089e-01 -3.097234e-01 -1.763796e+00 6.645280e+01 -5.968227e-01 1.175715e+00 1.271480e+00 1.182980e+00 1.152002e+00 5.584769e-01 1.329696e-01 -2.503895e-01 -3.123660e-01 -1.934221e-01 1.099097e-02 1.789682e-01 -1.689130e+00 -2.455240e-01 1.053972e-01 1.615850e-01 1.217893e-01 2.108792e-01 2.294692e-01 1.878412e-01 1.021452e-01 9.197243e-02 -4.420575e-02 2.442126e-03 6.996093e-03 -2.712800e-01
<VARIANCE> 39
 2.681309e+01 3.262211e+01 3.048727e+01 3.814965e+01 7.681676e+01 6.804785e+01 6.358718e+01 4.600148e+01 4.368505e+01 4.065490e+01 3.864308e+01 3.881286e+01 6.790505e+01 1.308350e+00 2.096034e+00 1.965724e+00 2.250888e+00 2.931072e+00 3.292791e+00 2.951152e+00 2.794821e+00 2.844767e+00 2.441007e+00 2.456646e+00 2.129292e+00 1.817264e+00 2.537501e-01 3.356298e-01 3.136834e-01 3.656483e-01 5.000616e-01 4.818144e-01 5.143500e-01 4.496754e-01 4.527023e-01 4.021468e-01 3.856256e-01 3.161033e-01 3.713311e-01
<GCONST> 1.198143e+02
<TRANSP> 5
 0.000000e+00 1.000000e+00 0.000000e+00 0.000000e+00 0.000000e+00
 0.000000e+00 5.276455e-01 4.723545e-01 0.000000e+00 0.000000e+00
 0.000000e+00 0.000000e+00 7.625141e-01 2.374859e-01 0.000000e+00
 0.000000e+00 0.000000e+00 0.000000e+00 6.603560e-01 3.396440e-01
 0.000000e+00 0.000000e+00 0.000000e+00 0.000000e+00 0.000000e+00
<ENDHMM>
~h "b"
<BEGINHMM>
<NUMSTATES> 5
<STATE> 2
<MEAN> 39
 -3.246166e+00 4.218840e+00 4.600559e+00 2.668966e+00 1.871566e+00 -1.054176e+00 -2.334373e+00 -3.554529e+00 -4.169962e+00 -4.838418e+00 -1.315540e+00 -2.677205e+00 5.754854e+01 -1.306504e-01 1.810388e+00 8.646534e-01 6.369723e-01 1.230012e+00 1.322045e+00 1.300541e+00 4.976946e-01 3.975077e-01 1.114484e-02 -5.250519e-01 -2.000929e-01 -2.289838e+00 -3.837831e-01 -5.536627e-01 -6.795748e-02 -2.453986e-01 -4.629788e-01 -3.426885e-01 -2.206574e-01 6.345204e-02 2.849036e-01 1.765677e-01 6.950187e-03 -3.686652e-02 6.986665e-01
<VARIANCE> 39
 1.485885e+01 2.020773e+01 2.024594e+01 2.382836e+01 3.178701e+01 2.745924e+01 3.514174e+01 3.575157e+01 3.748582e+01 3.079971e+01 2.239577e+01 1.923539e+01 1.909105e+01 9.603322e-01 2.114704e+00 1.761368e+00 2.843670e+00 5.064390e+00 3.535636e+00 3.575812e+00 3.122111e+00 3.192131e+00 2.943765e+00 2.172969e+00 1.692353e+00 1.985519e+00 1.581321e-01 3.092396e-01 3.105285e-01 3.810203e-01 5.755853e-01 4.503408e-01 5.479010e-01 4.721417e-01 4.384316e-01 4.308387e-01 3.362073e-01 3.215848e-01 3.620108e-01
<GCONST> 1.126189e+02
<STATE> 3
<MEAN> 39
 -4.893295e+00 7.333481e+00 6.901314e+00 4.098131e+00 3.684141e+00 1.438900e+00 3.666008e-01 -1.334648e+00 -1.400625e+00 -3.472812e+00 -2.726590e+00 -3.352065e+00 5.376293e+01 -1.166816e+00 -9.528834e-01 -1.302467e-01 -3.791747e-01 -6.710452e-02 -1.422368e-01 9.120199e-02 -1.683210e-01 4.016797e-01 2.636869e-01 6.165416e-02 2.171829e-01 1.003554e+00 -2.809144e-02 -8.697582e-01 -5.020730e-01 -5.673422e-01 -5.607074e-01 -6.386821e-01 -4.607440e-01 -3.004361e-01 -1.989279e-01 -8.253777e-02 2.072254e-01 1.966985e-01 1.211265e+00
<VARIANCE> 39
 2.209930e+01 2.050445e+01 1.523288e+01 1.601953e+01 1.861913e+01 2.281782e+01 2.132479e+01 2.220559e+01 2.514211e+01 1.903549e+01 1.308078e+01 1.166461e+01 1.554627e+01 1.408601e+00 3.044437e+00 2.009899e+00 2.296538e+00 2.476826e+00 2.634273e+00 2.132199e+00 2.225904e+00 2.114067e+00 2.058524e+00 1.396509e+00 1.407878e+00 3.703909e+00 3.203651e-01 4.198046e-01 3.634313e-01 4.622832e-01 8.217463e-01 5.848557e-01 4.824284e-01 4.900196e-01 4.694514e-01 4.578967e-01 3.300417e-01 2.541477e-01 4.086470e-01
<GCONST> 1.084438e+02
<STATE> 4
<MEAN> 39
 -9.180689e+00 -6.316154e-01 3.049397e+00 -3.707258e-01 1.654214e+00 -1.995600e+00 -1.027155e+00 -4.048832e+00 -1.861681e+00 -3.544579e+00 -1.414923e+00 -1.629087e+00 6.376375e+01 1.547882e-01 -1.791480e+00 -1.234906e+00 -1.695248e+00 -1.935044e+00 -1.640182e+00 -1.217110e+00 -7.166365e-01 -3.155780e-01 -2.609497e-01 3.598557e-01 4.701649e-01 2.897327e+00 6.463528e-01 4.542326e-01 9.090101e-02 -1.637107e-02 -5.312983e-01 -8.584268e-02 -1.859994e-01 1.921342e-01 -1.388577e-01 -2.121655e-01 1.847722e-02 -1.065605e-01 -3.452609e-01
<VARIANCE> 39
 2.967721e+01 2.286407e+01 2.180645e+01 2.478553e+01 4.334066e+01 2.908673e+01 2.787129e+01 2.450596e+01 2.238184e+01 2.030535e+01 1.514495e+01 1.157201e+01 3.234163e+01 2.499631e+00 3.289558e+00 2.928174e+00 3.898123e+00 5.459351e+00 4.900787e+00 3.485242e+00 3.554801e+00 3.519741e+00 3.409305e+00 2.283727e+00 1.720614e+00 3.225722e+00 4.272034e-01 6.482612e-01 4.707679e-01 5.903988e-01 7.237672e-01 6.861908e-01 6.061100e-01 5.858136e-01 5.512456e-01 5.891013e-01 4.321802e-01 3.234902e-01 5.515167e-01
<GCONST> 1.203002e+02
<TRANSP> 5
 0.000000e+00 1.000000e+00 0.000000e+00 0.000000e+00 0.000000e+00
 0.000000e+00 5.682561e-01 4.317439e-01 0.000000e+00 0.000000e+00
 0.000000e+00 0.000000e+00 6.364395e-01 3.635605e-01 0.000000e+00
 0.000000e+00 0.000000e+00 0.000000e+00 4.783057e-01 5.216942e-01
 0.000000e+00 0.000000e+00 0.000000e+00 0.000000e+00 0.000000e+00
<ENDHMM>
~h "d"
<BEGINHMM>
<NUMSTATES> 5
<STATE> 2
<MEAN> 39
 -7.103989e+00 2.133426e+00 7.034094e+00 2.112959e+00 1.218262e+00 -3.376046e+00 -4.434513e+00 -5.531259e+00 -4.328353e+00 -3.441584e+00 -6.224784e-01 -3.623304e+00 6.169749e+01 -1.138096e-01 1.737789e+00 8.611581e-01 1.093508e+00 1.187790e+00 1.139729e+00 8.070241e-01 4.402403e-01 4.215412e-01 2.534673e-01 -1.264508e-01 -1.902690e-01 -2.337850e+00 -2.510977e-01 -4.620728e-01 -2.674466e-01 -4.524882e-01 -2.465060e-01 3.517027e-03 6.779097e-02 2.010040e-01 2.671363e-01 4.667705e-02 -9.257983e-02 1.341948e-01 4.920758e-01
<VARIANCE> 39
 2.245830e+01 2.814037e+01 2.602684e+01 3.373194e+01 7.223729e+01 4.355873e+01 4.997767e+01 4.548955e+01 4.132125e+01 4.140804e+01 3.278368e+01 3.096380e+01 3.054215e+01 1.778407e+00 2.619455e+00 2.150229e+00 2.816236e+00 4.530064e+00 4.355460e+00 3.853004e+00 3.158206e+00 3.111473e+00 2.754321e+00 2.370586e+00 1.732346e+00 3.322723e+00 2.679705e-01 4.719811e-01 4.027908e-01 5.622379e-01 5.810106e-01 6.565638e-01 6.107622e-01 6.077932e-01 5.980865e-01 4.477879e-01 4.530332e-01 3.502229e-01 5.671089e-01
<GCONST> 1.228226e+02
<STATE> 3
<MEAN> 39
 -7.159776e+00 6.036160e+00 8.219696e+00 4.542491e+00 4.258131e+00 1.021826e-01 -1.953362e+00 -3.356385e+00 -1.806324e+00 -2.343575e+00 -1.392447e+00 -2.822264e+00 5.609354e+01 -1.385494e+00 -7.148607e-01 -9.031143e-02 -7.072801e-01 1.758389e-01 4.269167e-01 5.878549e-01 2.719828e-01 5.413391e-01 1.113598e-01 -7.541071e-02 1.710249e-01 7.505332e-01 -3.300852e-01 -1.031706e+00 -3.165165e-01 -6.700675e-01 -4.509106e-01 -6.582677e-01 -4.273875e-01 -2.535834e-01 -1.385775e-01 -7.224756e-02 1.949016e-02 3.754443e-02 1.477480e+00
<VARIANCE> 39
 3.441074e+01 2.571931e+01 2.002620e+01 2.357888e+01 3.537255e+01 3.103592e+01 2.792381e+01 2.292469e+01 2.389699e+01 2.173206e+01 1.586895e+01 1.840544e+01 2.929668e+01 2.571396e+00 4.322055e+00 2.715508e+00 3.750481e+00 3.320467e+00 3.287326e+00 3.010282e+00 2.913109e+00 2.641265e+00 2.244567e+00 1.804067e+00 1.551907e+00 5.505823e+00 5.103608e-01 5.386806e-01 4.251723e-01 5.284548e-01 8.994808e-01 7.851679e-01 6.737968e-01 5.195019e-01 5.223190e-01 4.612909e-01 3.751634e-01 3.149186e-01 6.563379e-01
<GCONST> 1.190336e+02
<STATE> 4
<MEAN> 39
 -1.434782e+01 -1.643105e+00 5.672791e+00 -1.950602e+00 2.371114e+00 -9.433528e-01 -1.224440e+00 -2.621633e+00 -3.859065e-01 -1.491929e+00 -7.047741e-01 -1.693694e+00 6.390022e+01 -5.642259e-01 -1.247174e+00 -2.692345e-01 -8.077185e-01 -6.424600e-01 -8.420565e-01 -7.595106e-01 -4.237340e-01 -5.112144e-02 3.986935e-02 -2.015846e-02 7.447045e-02 1.931919e+00 6.467448e-01 1.699392e-01 -1.547388e-02 3.725981e-01 -1.971910e-01 -2.406019e-01 -3.244592e-01 -1.224036e-01 -2.109211e-01 -5.785416e-02 8.299168e-03 -8.163077e-02 -2.351626e-01
<VARIANCE> 39
 4.572500e+01 3.032896e+01 3.513958e+01 3.246023e+01 4.140890e+01 3.435366e+01 3.725849e+01 3.142753e+01 2.809345e+01 2.345592e+01 1.758776e+01 1.683930e+01 5.681738e+01 3.701674e+00 3.132491e+00 2.695152e+00 3.481968e+00 3.846565e+00 4.067267e+00 3.816122e+00 2.952546e+00 2.927000e+00 2.402951e+00 1.812510e+00 1.604221e+00 5.277023e+00 5.649993e-01 5.438760e-01 5.316386e-01 6.951653e-01 7.319913e-01 6.967153e-01 7.432602e-01 5.666794e-01 5.617694e-01 4.386086e-01 3.626149e-01 2.985825e-01 5.880473e-01
<GCONST> 1.231733e+02
<TRANSP> 5
 0.000000e+00 1.000000e+00 0.000000e+00 0.000000e+00 0.000000e+00
 0.000000e+00 4.280341e-01 5.719659e-01 0.000000e+00 0.000000e+00
 0.000000e+00 0.000000e+00 5.402217e-01 4.597784e-01 0.000000e+00
 0.000000e+00 0.000000e+00 0.000000e+00 6.106479e-01 3.893521e-01
 0.000000e+00 0.000000e+00 0.000000e+00 0.000000e+00 0.000000e+00
<ENDHMM>
~h "e"
<BEGINHMM>
<NUMSTATES> 5
<STATE> 2
<MEAN> 39
 -8.949885e+00 -4.383851e+00 6.640183e+00 1.651737e+00 -9.617492e-02 -7.795698e+00 -6.877061e+00 -5.692377e+00 -3.433283e+00 -3.145673e+00 -1.849594e+00 -2.540564e+00 6.882503e+01 1.682961e+00 -1.646654e-01 -1.328242e-02 7.876917e-01 -8.027496e-01 -1.694017e+00 -1.580319e+00 -2.975944e-01 -9.434833e-01 -3.129757e-01 -1.283167e-01 -3.487062e-01 9.463966e-01 -3.065612e-01 9.017779e-02 -1.059138e-01 -1.147560e-01 3.693748e-02 3.254421e-01 3.886483e-01 3.010851e-01 2.126389e-01 1.426302e-01 1.623427e-01 8.907465e-02 -3.269705e-01
<VARIANCE> 39
 2.904207e+01 2.660264e+01 3.302890e+01 3.604825e+01 1.352589e+02 5.325994e+01 4.431562e+01 3.969503e+01 3.893281e+01 3.368464e+01 2.763003e+01 2.071310e+01 3.139640e+01 4.131910e+00 3.013521e+00 3.251846e+00 3.203794e+00 7.108300e+00 4.110140e+00 4.203318e+00 3.686924e+00 4.036332e+00 3.242062e+00 2.669005e+00 1.958039e+00 2.124911e+00 5.863521e-01 4.072596e-01 3.684075e-01 4.563006e-01 7.643078e-01 6.351267e-01 5.894486e-01 5.029474e-01 5.436366e-01 4.140480e-01 3.584831e-01 2.939318e-01 4.451358e-01
<GCONST> 1.249943e+02
<STATE> 3
<MEAN> 39
 -7.376601e+00 -5.312640e+00 6.912652e+00 3.246539e+00 -1.980082e+00 -1.065815e+01 -8.723157e+00 -4.546285e+00 -4.280470e+00 -3.746779e+00 -1.071608e+00 -3.218840e+00 7.069624e+01 1.095291e-01 2.502213e-01 -4.119742e-02 1.769348e-01 1.012170e-01 5.061519e-02 8.734937e-02 1.609491e-01 -2.791097e-02 8.136989e-02 9.706047e-02 5.965508e-03 -3.043620e-01 -2.446532e-01 2.621817e-01 5.548655e-03 -9.664011e-02 3.454106e-01 5.672329e-01 4.488008e-01 4.452335e-02 2.141808e-01 8.547286e-02 -2.916275e-02 8.904118e-02 -4.862918e-01
<VARIANCE> 39
 1.899597e+01 2.425997e+01 3.291283e+01 4.228890e+01 2.163770e+02 6.036683e+01 4.448339e+01 4.581815e+01 4.782798e+01 4.363925e+01 3.356264e+01 2.300171e+01 2.083151e+01 6.247561e-01 1.077399e+00 1.329670e+00 1.228532e+00 2.164513e+00 2.082721e+00 1.695003e+00 1.608580e+00 1.552749e+00 1.320010e+00 1.229614e+00 9.948525e-01 8.607553e-01 2.777748e-01 2.563771e-01 2.816184e-01 3.074267e-01 8.429928e-01 5.420983e-01 5.257534e-01 4.380921e-01 4.560044e-01 3.758580e-01 3.188813e-01 2.402839e-01 2.557797e-01
<GCONST> 1.098117e+02
<STATE> 4
<MEAN> 39
 -9.782062e+00 -2.243659e+00 5.089990e+00 2.367475e+00 5.590614e-01 -5.434397e+00 -4.255172e+00 -3.033964e+00 -1.471519e+00 -1.458316e+00 -5.511191e-01 -1.568056e+00 6.311321e+01 -2.966366e-01 6.273391e-01 -2.085222e-01 -1.748183e-01 6.409562e-01 1.197042e+00 9.701415e-01 2.692729e-01 4.107808e-01 2.409828e-01 1.002809e-01 2.182164e-01 -1.242588e+00 -1.312688e-01 -1.868169e-02 1.616973e-02 -7.173803e-02 -1.996038e-02 1.605380e-01 1.607781e-01 9.092208e-02 1.019084e-01 -1.405763e-03 3.173027e-03 6.380869e-03 -8.004846e-02
<VARIANCE> 39
 3.553924e+01 3.001927e+01 3.922049e+01 3.558887e+01 1.175223e+02 5.834645e+01 5.333705e+01 3.973553e+01 4.439405e+01 3.476828e+01 2.865439e+01 2.163208e+01 7.866405e+01 2.242041e+00 3.109258e+00 2.530231e+00 2.568860e+00 6.359134e+00 4.431039e+00 3.813483e+00 2.877176e+00 2.845188e+00 2.397817e+00 2.009838e+00 1.670466e+00 5.823300e+00 4.641998e-01 4.408813e-01 4.459004e-01 4.263420e-01 8.104096e-01 6.940811e-01 7.047274e-01 4.968406e-01 5.077646e-01 4.108215e-01 3.556144e-01 2.991344e-01 8.191474e-01
<GCONST> 1.260809e+02
<TRANSP> 5
 0.000000e+00 1.000000e+00 0.000000e+00 0.000000e+00 0.000000e+00
 0.000000e+00 4.637831e-01 5.362169e-01 0.000000e+00 0.000000e+00
 0.000000e+00 0.000000e+00 6.734108e-01 3.265892e-01 0.000000e+00
 0.000000e+00 0.000000e+00 0.000000e+00 6.088538e-01 3.911462e-01
 0.000000e+00 0.000000e+00 0.000000e+00 0.000000e+00 0.000000e+00
<ENDHMM>
~h "f"
<BEGINHMM>
<NUMSTATES> 5
<STATE> 2
<MEAN> 39
 -1.635312e+01 -2.926114e+00 3.965452e+00 2.324727e-01 2.894812e+00 -1.728596e+00 3.466468e-01 -1.327010e+00 7.495552e-01 -1.217035e+00 -5.021743e-01 -1.782032e+00 6.594373e+01 -3.631926e+00 -7.674797e-01 -9.813914e-01 -4.025768e-01 1.131940e+00 1.266955e+00 1.464395e+00 7.820658e-01 1.209102e+00 6.507110e-01 6.860735e-01 6.163217e-01 -4.643362e-02 1.694740e-01 -3.173656e-01 -3.023708e-01 -3.185258e-01 -6.385934e-01 -4.202777e-01 -4.227859e-01 -1.181760e-01 -8.336475e-02 6.040360e-02 8.978249e-02 7.529308e-02 2.734738e-01
<VARIANCE> 39
 4.311115e+01 1.830505e+01 1.702774e+01 2.021784e+01 3.607638e+01 2.218520e+01 2.314020e+01 2.108593e+01 2.272764e+01 1.647184e+01 1.510454e+01 1.337760e+01 2.370056e+01 2.035149e+00 1.791657e+00 2.421123e+00 2.487479e+00 3.854833e+00 2.907248e+00 3.596824e+00 2.826025e+00 2.564229e+00 2.369206e+00 1.795336e+00 1.671995e+00 1.281412e+00 6.547696e-01 3.334764e-01 3.006146e-01 3.251279e-01 4.085397e-01 4.618530e-01 4.597519e-01 3.991382e-01 3.946387e-01 3.242838e-01 2.859767e-01 2.148473e-01 1.809455e-01
<GCONST> 1.086747e+02
<STATE> 3
<MEAN> 39
 -2.422782e+01 -6.907647e+00 -4.298695e-01 -2.688965e+00 1.490613e+00 -2.053563e+00 9.385054e-01 -6.481512e-01 2.306531e+00 7.095302e-01 1.478767e+00 1.866115e-01 6.768204e+01 -1.909329e-01 -3.642180e-01 -2.874994e-01 -2.544782e-01 -2.042423e-01 -1.811151e-01 -1.288223e-01 -3.400642e-02 8.313306e-02 1.190982e-01 1.168430e-01 1.016035e-01 5.552727e-02 7.538610e-01 1.341572e-01 2.709464e-01 1.185459e-01 -1.023001e-01 -1.419722e-01 -1.957970e-01 -1.337733e-01 -2.023813e-01 -1.491010e-01 -1.539895e-01 -1.590437e-01 -7.603576e-02
<VARIANCE> 39
 1.070136e+01 1.603525e+01 1.258849e+01 2.089510e+01 2.412676e+01 1.672910e+01 1.501155e+01 1.811692e+01 1.577542e+01 1.139695e+01 1.036634e+01 8.584635e+00 2.011964e+01 1.515611e+00 6.602721e-01 9.428995e-01 9.404632e-01 8.320812e-01 9.774470e-01 9.553283e-01 9.991537e-01 9.801916e-01 9.084441e-01 8.056424e-01 7.448570e-01 5.490131e-01 2.769756e-01 1.650790e-01 1.861280e-01 2.285418e-01 2.604771e-01 2.561165e-01 2.847267e-01 2.539296e-01 2.576731e-01 2.187810e-01 1.848019e-01 1.761663e-01 1.180108e-01
<GCONST> 8.506951e+01
<STATE> 4
<MEAN> 39
 -2.036240e+01 -7.183636e+00 6.310619e-01 -2.329740e+00 1.078602e+00 -2.485924e+00 1.910093e-01 -8.140535e-01 2.318579e+00 3.981331e-01 1.247890e+00 -2.386994e-01 6.611052e+01 3.663624e+00 3.464341e-01 6.538465e-01 -6.078297e-03 -1.198055e+00 -1.095502e+00 -1.417477e+00 -7.933837e-01 -1.106517e+00 -6.666611e-01 -6.811779e-01 -7.484252e-01 7.073554e-02 7.820976e-01 1.137333e-01 8.925802e-03 -1.030179e-01 -5.007799e-01 -2.482404e-01 -4.270083e-01 -1.353378e-01 -3.384211e-01 -1.619227e-01 -1.458762e-01 -1.963695e-01 3.459442e-01
<VARIANCE> 39
 2.399323e+01 1.655975e+01 1.431180e+01 1.965345e+01 2.160340e+01 1.695930e+01 1.567718e+01 1.967515e+01 1.604348e+01 1.237113e+01 1.126941e+01 1.048149e+01 2.251487e+01 3.051375e+00 2.142720e+00 2.183121e+00 3.356490e+00 3.556837e+00 2.366362e+00 3.102387e+00 2.115124e+00 2.166314e+00 1.724138e+00 1.496471e+00 1.533958e+00 1.429663e+00 5.144420e-01 4.058328e-01 3.340459e-01 4.256830e-01 5.059974e-01 3.958819e-01 4.614931e-01 3.688220e-01 3.964318e-01 3.511647e-01 3.046658e-01 2.822859e-01 2.064114e-01
<GCONST> 1.056014e+02
<TRANSP> 5
 0.000000e+00 1.000000e+00 0.000000e+00 0.000000e+00 0.000000e+00
 0.000000e+00 6.323818e-01 3.676182e-01 0.000000e+00 0.000000e+00
 0.000000e+00 0.000000e+00 8.207179e-01 1.792822e-01 0.000000e+00
 0.000000e+00 0.000000e+00 0.000000e+00 5.259783e-01 4.740217e-01
 0.000000e+00 0.000000e+00 0.000000e+00 0.000000e+00 0.000000e+00
<ENDHMM>
~h "g"
<BEGINHMM>
<NUMSTATES> 5
<STATE> 2
<MEAN> 39
 -9.447829e+00 2.425319e+00 8.413445e+00 4.964834e+00 3.032813e+00 -1.283281e+00 -8.436394e-01 -2.499758e+00 -1.540217e+00 -2.230706e+00 -4.834810e-01 -1.499708e+00 5.655200e+01 -9.290848e-01 -3.813427e-01 -8.420707e-01 -9.817940e-01 3.478586e-01 6.541548e-01 6.039721e-01 5.199492e-02 3.726352e-01 6.056389e-01 2.132113e-01 4.305541e-02 2.067349e-01 -2.708646e-01 -8.397381e-01 -2.774744e-01 -6.163601e-01 -5.686603e-01 -5.216447e-01 -1.781417e-01 -1.049897e-01 -6.099685e-02 -1.315642e-01 3.697671e-02 -3.576762e-02 1.286239e+00
<VARIANCE> 39
 3.956382e+01 4.716595e+01 3.616677e+01 3.356628e+01 6.415247e+01 3.704938e+01 3.586004e+01 2.822663e+01 3.541780e+01 3.306888e+01 2.378828e+01 2.062665e+01 3.933950e+01 3.464895e+00 7.858132e+00 3.637217e+00 5.390055e+00 5.530863e+00 4.733541e+00 4.717327e+00 3.153201e+00 3.652370e+00 3.298275e+00 2.636983e+00 2.171139e+00 9.595709e+00 6.718833e-01 9.349765e-01 6.120856e-01 7.125139e-01 8.731399e-01 7.890591e-01 7.563896e-01 5.217819e-01 6.320568e-01 6.181723e-01 4.648126e-01 4.086559e-01 1.017588e+00
<GCONST> 1.314970e+02
<STATE> 3
<MEAN> 39
 -1.503125e+01 -5.528226e+00 4.048788e+00 -4.164957e+00 1.715675e-01 -2.236151e+00 2.920606e-01 -3.424298e+00 -1.884000e+00 -1.739830e+00 1.518074e-01 -2.248050e+00 6.800378e+01 4.438083e-02 -1.068735e+00 -1.650306e-01 -1.044567e+00 -1.464988e+00 -1.766417e+00 -8.513863e-01 -5.913301e-01 -4.230863e-01 -4.382800e-01 9.487092e-03 1.002517e-01 2.714729e+00 9.308037e-01 6.551050e-01 4.459209e-01 8.127796e-01 -2.185706e-01 -4.512620e-01 -3.787513e-01 9.354137e-02 -1.123980e-02 -1.597876e-01 -7.455245e-02 8.004709e-02 -6.256015e-01
<VARIANCE> 39
 3.140696e+01 3.320298e+01 5.510245e+01 5.521727e+01 6.684789e+01 4.212910e+01 4.317741e+01 3.152705e+01 3.114021e+01 2.300402e+01 2.320914e+01 1.655193e+01 2.972125e+01 4.083136e+00 4.753719e+00 3.735577e+00 5.343569e+00 4.816102e+00 4.195720e+00 4.038551e+00 3.155012e+00 2.981795e+00 2.551229e+00 2.294462e+00 2.040577e+00 4.812266e+00 4.472727e-01 8.129432e-01 8.676904e-01 8.990390e-01 9.022822e-01 1.061923e+00 7.869754e-01 7.236432e-01 7.480505e-01 5.698617e-01 5.339693e-01 4.388932e-01 7.089909e-01
<GCONST> 1.298650e+02
<STATE> 4
<MEAN> 39
 -9.598911e+00 -4.356252e+00 7.014515e+00 -3.930528e-01 -5.772839e+00 -9.582462e+00 -4.810980e+00 -3.290346e+00 -2.865456e+00 -3.857044e+00 -4.072047e-01 -2.044904e+00 7.026612e+01 1.307484e+00 -2.973233e-01 -5.171070e-01 2.137500e-02 -9.919571e-01 -1.078930e+00 -4.354736e-01 4.549865e-01 5.990965e-01 1.525153e-01 -2.532376e-02 1.635662e-01 4.830183e-01 -2.187715e-01 -2.117082e-02 -2.409278e-01 -1.115542e-01 4.182782e-01 6.277509e-01 4.523569e-01 2.706933e-01 3.253676e-01 2.626794e-01 -4.522114e-02 -2.192871e-02 -4.430228e-01
<VARIANCE> 39
 2.740690e+01 2.637054e+01 3.742198e+01 4.671672e+01 1.371912e+02 3.572111e+01 4.786927e+01 4.245552e+01 3.641811e+01 2.807456e+01 3.033616e+01 1.687542e+01 2.299258e+01 1.700418e+00 2.566197e+00 3.716077e+00 2.812598e+00 4.383859e+00 4.199689e+00 3.418323e+00 3.880367e+00 3.877835e+00 3.145933e+00 2.900156e+00 1.977583e+00 1.214821e+00 3.349286e-01 3.838547e-01 4.359194e-01 4.069557e-01 8.158752e-01 5.499248e-01 5.431650e-01 4.929856e-01 5.349185e-01 4.576461e-01 4.813462e-01 3.467677e-01 2.105133e-01
<GCONST> 1.212492e+02
<TRANSP> 5
 0.000000e+00 1.000000e+00 0.000000e+00 0.000000e+00 0.000000e+00
 0.000000e+00 6.967228e-01 3.032771e-01 0.000000e+00 0.000000e+00
 0.000000e+00 0.000000e+00 5.679135e-01 4.320866e-01 0.000000e+00
 0.000000e+00 0.000000e+00 0.000000e+00 5.896548e-01 4.103452e-01
 0.000000e+00 0.000000e+00 0.000000e+00 0.000000e+00 0.000000e+00
<ENDHMM>
~h "i"
<BEGINHMM>
<NUMSTATES> 5
<STATE> 2
<MEAN> 39
 -1.660490e+01 -4.741648e+00 7.627964e+00 8.451942e-01 8.341805e-01 -2.553147e+00 -1.719140e-01 -1.831549e+00 2.091143e-01 -9.641430e-01 1.164862e-01 -4.433243e-01 6.208948e+01 7.621958e-01 2.327677e-01 9.360019e-01 7.005354e-01 -3.622259e-01 -6.541955e-01 -8.738375e-01 -3.703999e-01 -6.815844e-01 -5.724952e-01 -3.848715e-01 -4.346001e-01 4.238710e-01 3.462293e-01 1.657613e-01 5.826693e-03 9.230867e-02 -1.117938e-01 -1.558605e-01 -2.421919e-01 -7.838044e-02 -1.645850e-01 -1.236538e-01 -7.598311e-02 -1.170560e-01 9.438219e-02
<VARIANCE> 39
 4.873490e+01 4.839715e+01 3.897205e+01 3.564921e+01 6.700155e+01 4.998722e+01 3.687000e+01 3.368529e+01 3.537086e+01 2.814956e+01 2.389997e+01 1.894058e+01 7.827451e+01 4.556828e+00 3.313448e+00 3.339810e+00 3.465035e+00 6.329508e+00 4.539276e+00 4.219528e+00 3.096128e+00 3.275459e+00 2.736097e+00 2.254957e+00 1.837156e+00 3.384016e+00 4.663198e-01 5.465853e-01 5.217448e-01 4.548554e-01 9.235918e-01 7.602410e-01 6.219017e-01 5.595756e-01 5.341513e-01 4.394605e-01 3.663310e-01 2.978114e-01 5.914410e-01
<GCONST> 1.268195e+02
<STATE> 3
<MEAN> 39
 -1.175309e+01 -3.664411e+00 1.161903e+01 2.631238e+00 -3.957298e+00 -7.640526e+00 -6.869641e+00 -5.014125e+00 -4.949728e+00 -5.759125e+00 -2.598931e+00 -4.039430e+00 6.822509e+01 1.071216e+00 2.216063e-01 4.969042e-01 6.003161e-01 -6.096295e-01 -8.112521e-01 -9.516374e-01 -1.397177e-01 -5.977766e-01 -4.827633e-01 -1.852533e-01 -3.577915e-01 4.247162e-01 -3.445988e-01 1.012337e-01 -4.077741e-01 -2.105882e-01 3.831937e-01 4.690696e-01 5.552678e-01 2.447501e-01 3.725321e-01 3.554903e-01 2.108330e-01 2.263652e-01 -4.133086e-01
<VARIANCE> 39
 3.388185e+01 3.182907e+01 3.546055e+01 5.405561e+01 1.658188e+02 5.562194e+01 4.551602e+01 3.600131e+01 4.097275e+01 4.112523e+01 3.263856e+01 2.456909e+01 2.643370e+01 3.760226e+00 2.887297e+00 3.377321e+00 3.168869e+00 6.604048e+00 4.195696e+00 4.129051e+00 3.377537e+00 3.307111e+00 2.979608e+00 2.325237e+00 1.820039e+00 2.955928e+00 4.675859e-01 4.720463e-01 4.419694e-01 5.840862e-01 1.240382e+00 7.389448e-01 6.777655e-01 5.877224e-01 5.966864e-01 5.266958e-01 4.481397e-01 3.454002e-01 3.699475e-01
<GCONST> 1.277775e+02
<STATE> 4
<MEAN> 39
 -1.157403e+01 -3.252259e+00 1.112718e+01 3.679813e+00 -2.055581e+00 -7.472144e+00 -5.178919e+00 -3.524565e+00 -3.798681e+00 -4.047815e+00 -1.969460e+00 -3.372588e+00 6.642900e+01 5.191557e-02 2.814290e-01 -3.872386e-01 -2.375441e-02 4.001582e-01 3.490280e-01 2.274496e-01 6.570222e-02 2.254625e-01 2.611687e-01 6.350037e-02 1.336618e-01 -5.172058e-01 -1.170196e-01 3.890967e-03 -1.678665e-01 -9.477602e-02 1.467387e-01 2.228206e-01 1.971547e-01 5.016034e-02 1.254086e-01 1.087577e-01 3.841140e-02 6.738191e-02 -1.729010e-01
<VARIANCE> 39
 2.972978e+01 3.621325e+01 3.966072e+01 4.736063e+01 1.453883e+02 6.764407e+01 4.646959e+01 3.759204e+01 4.195881e+01 3.563850e+01 3.070905e+01 2.495037e+01 4.590601e+01 1.403928e+00 1.663501e+00 1.866031e+00 1.781100e+00 3.229207e+00 2.635476e+00 2.236516e+00 1.925862e+00 1.808297e+00 1.616331e+00 1.444625e+00 1.199138e+00 1.729356e+00 2.510158e-01 2.602579e-01 2.924064e-01 3.266462e-01 5.294033e-01 4.750540e-01 4.285476e-01 3.707201e-01 3.428160e-01 2.904157e-01 2.743610e-01 2.110508e-01 2.087152e-01
<GCONST> 1.134353e+02
<TRANSP> 5
 0.000000e+00 1.000000e+00 0.000000e+00 0.000000e+00 0.000000e+00
 0.000000e+00 5.549310e-01 4.450690e-01 0.000000e+00 0.000000e+00
 0.000000e+00 0.000000e+00 4.980965e-01 5.019035e-01 0.000000e+00
 0.000000e+00 0.000000e+00 0.000000e+00 7.174098e-01 2.825902e-01
 0.000000e+00 0.000000e+00 0.000000e+00 0.000000e+00 0.000000e+00
<ENDHMM>
~h "j"
<BEGINHMM>
<NUMSTATES> 5
<STATE> 2
<MEAN> 39
 -1.237872e+01 -2.789610e+00 1.084265e+01 2.237489e+00 2.236092e-01 -7.275615e+00 -4.259070e+00 -4.522297e+00 -3.565186e+00 -3.704744e+00 -2.430186e+00 -2.981684e+00 6.816685e+01 1.846235e+00 2.345149e-01 3.221375e-01 6.319236e-01 -1.099288e+00 -1.524699e+00 -1.563914e+00 -4.795753e-01 -7.578169e-01 -5.551820e-01 -1.981768e-01 -2.912412e-01 4.986353e-01 6.471790e-02 -2.476681e-01 -5.072424e-01 -1.596663e-01 -1.048370e-01 2.380713e-02 -2.540113e-02 1.819207e-01 2.190329e-01 1.757488e-01 1.745338e-01 1.052511e-01 9.740540e-02
<VARIANCE> 39
 4.100566e+01 3.142113e+01 3.346997e+01 4.503710e+01 1.098643e+02 4.117924e+01 3.571161e+01 2.870067e+01 2.557714e+01 2.104216e+01 1.849619e+01 1.550815e+01 2.081853e+01 4.815267e+00 3.297630e+00 3.293234e+00 3.128889e+00 6.646505e+00 4.234327e+00 4.226688e+00 3.052994e+00 3.124979e+00 2.404796e+00 1.972833e+00 1.653092e+00 1.051196e+00 4.071330e-01 3.858069e-01 3.622523e-01 3.914812e-01 5.770124e-01 5.943794e-01 5.647957e-01 4.590727e-01 4.013547e-01 3.013001e-01 2.614440e-01 2.243883e-01 1.853958e-01
<GCONST> 1.178725e+02
<STATE> 3
<MEAN> 39
 -8.439524e+00 -5.163885e+00 7.471385e+00 1.561601e+00 -5.888767e+00 -1.113764e+01 -9.237200e+00 -4.194734e+00 -3.840726e+00 -3.393932e+00 -1.433932e+00 -3.105560e+00 7.094571e+01 1.090783e+00 -7.782173e-01 -1.113568e+00 -2.411333e-01 -9.967840e-01 -6.367238e-01 -5.539033e-01 3.385936e-01 2.821092e-01 1.597542e-01 2.192884e-01 5.079515e-03 6.988617e-01 -5.374254e-01 -6.154902e-02 -2.818401e-01 -3.477175e-01 4.848903e-01 6.267715e-01 7.093971e-01 2.042396e-01 3.091926e-01 1.547332e-01 2.069872e-02 9.041321e-02 -1.566542e-01
<VARIANCE> 39
 1.754643e+01 2.652467e+01 3.591941e+01 6.244944e+01 1.803879e+02 5.554152e+01 4.240197e+01 4.187788e+01 4.165717e+01 3.422546e+01 2.788002e+01 2.034769e+01 2.573060e+01 1.899181e+00 2.161572e+00 3.460759e+00 2.321051e+00 3.826028e+00 3.565878e+00 3.769778e+00 2.995960e+00 2.877099e+00 2.371628e+00 1.995928e+00 1.582623e+00 1.092217e+00 3.236259e-01 3.803781e-01 3.438423e-01 3.564305e-01 8.672796e-01 5.461732e-01 5.753418e-01 5.108649e-01 5.778107e-01 4.238839e-01 3.381454e-01 2.687011e-01 9.246955e-02
<GCONST> 1.184213e+02
<STATE> 4
<MEAN> 39
 -7.894076e+00 -4.393713e+00 1.002795e+01 5.262461e+00 2.846864e+00 -1.047363e+01 -7.041293e+00 -3.223546e+00 -3.704792e+00 -3.412623e+00 -1.892262e+00 -2.790053e+00 6.860128e+01 1.071480e-01 -1.304134e-01 -4.691799e-01 -2.574458e-01 -8.355886e-02 2.349168e-02 2.548632e-02 5.475425e-02 1.754967e-01 7.802281e-02 2.220425e-02 3.068650e-02 4.617567e-02 -4.026705e-02 3.918848e-02 -6.792169e-02 -4.901957e-02 9.944508e-02 1.126743e-01 9.018563e-02 -1.139104e-02 3.327624e-02 2.822541e-02 -2.336843e-02 1.367053e-02 -8.674895e-02
<VARIANCE> 39
 1.807937e+01 3.253993e+01 4.971531e+01 4.916755e+01 1.535594e+02 7.656589e+01 4.621002e+01 4.312574e+01 4.316674e+01 3.580696e+01 3.463046e+01 2.414067e+01 2.871649e+01 3.078938e-01 6.933115e-01 1.406288e+00 1.004518e+00 1.197242e+00 1.304316e+00 1.570301e+00 1.312881e+00 1.305107e+00 1.073396e+00 9.291534e-01 8.605734e-01 4.588425e-01 8.031371e-02 1.210746e-01 1.658628e-01 1.536172e-01 2.580180e-01 2.737475e-01 2.841219e-01 2.401373e-01 2.309067e-01 1.940694e-01 1.707708e-01 1.454660e-01 7.219497e-02
<GCONST> 9.649253e+01
<TRANSP> 5
 0.000000e+00 1.000000e+00 0.000000e+00 0.000000e+00 0.000000e+00
 0.000000e+00 4.552487e-01 5.447513e-01 0.000000e+00 0.000000e+00
 0.000000e+00 0.000000e+00 4.301641e-01 5.698359e-01 0.000000e+00
 0.000000e+00 0.000000e+00 0.000000e+00 7.903401e-01 2.096599e-01
 0.000000e+00 0.000000e+00 0.000000e+00 0.000000e+00 0.000000e+00
<ENDHMM>
~h "k"
<BEGINHMM>
<NUMSTATES> 5
<STATE> 2
<MEAN> 39
 -1.255116e+01 -1.059580e+00 6.307724e+00 2.076836e+00 1.490790e+00 -1.926055e+00 -2.643190e+00 -1.821793e+00 -1.356773e+00 -2.857609e+00 6.275347e-01 -2.403325e+00 5.907696e+01 -1.132647e+00 4.874256e-01 -4.616666e-01 3.415832e-01 1.709402e+00 1.647301e+00 1.815386e+00 1.208487e+00 1.137647e+00 1.185739e+00 5.275663e-01 8.514720e-01 -3.288674e+00 1.587068e-02 -5.215600e-01 -5.088816e-01 -4.766706e-01 -4.755365e-01 -1.117188e-01 9.509195e-03 6.322840e-02 1.985449e-01 1.398579e-01 8.818405e-02 1.361781e-01 5.842924e-01
<VARIANCE> 39
 3.224181e+01 3.604611e+01 4.552556e+01 4.049920e+01 7.515299e+01 4.936457e+01 5.305245e+01 3.931819e+01 4.622100e+01 3.796453e+01 3.109389e+01 2.181145e+01 4.027768e+01 2.840528e+00 3.533645e+00 3.841319e+00 3.641952e+00 7.843430e+00 4.623065e+00 4.491632e+00 3.653885e+00 3.651119e+00 3.537823e+00 2.813810e+00 2.171553e+00 3.275888e+00 3.745887e-01 6.780742e-01 6.416748e-01 6.719791e-01 1.066243e+00 8.583505e-01 8.829004e-01 6.879066e-01 7.634003e-01 6.343390e-01 5.115842e-01 3.987953e-01 1.034925e+00
<GCONST> 1.316111e+02
<STATE> 3
<MEAN> 39
 -1.417742e+01 -1.111843e-01 3.126337e+00 1.717618e+00 3.394224e+00 2.364589e+00 2.354066e+00 2.029629e+00 3.203547e+00 1.470962e+00 3.053692e+00 1.276492e+00 5.050358e+01 -5.397041e-01 -1.243570e+00 -1.225013e+00 -1.127721e+00 -5.351073e-01 -5.409613e-02 1.508083e-01 3.625182e-01 3.770088e-01 2.174777e-01 4.432501e-01 2.297262e-01 1.039513e+00 5.594751e-02 -5.568689e-01 -4.694149e-02 -5.006444e-01 -6.095621e-01 -6.270941e-01 -6.431331e-01 -4.696854e-01 -4.210317e-01 -4.895573e-01 -1.438130e-01 -3.451955e-01 1.659986e+00
<VARIANCE> 39
 1.285819e+01 1.588951e+01 1.733509e+01 1.785501e+01 1.795365e+01 2.119856e+01 1.882002e+01 1.826698e+01 1.779157e+01 1.524734e+01 1.547219e+01 1.120501e+01 2.271300e+01 2.000973e+00 4.271582e+00 3.787280e+00 4.508304e+00 4.226053e+00 4.528236e+00 4.132629e+00 3.285177e+00 3.119528e+00 2.957071e+00 1.958897e+00 1.880843e+00 8.136900e+00 3.656447e-01 5.913800e-01 5.801277e-01 5.904635e-01 7.506077e-01 6.785086e-01 6.591666e-01 5.049406e-01 4.643064e-01 4.581147e-01 3.568112e-01 2.994930e-01 8.656223e-01
<GCONST> 1.162547e+02
<STATE> 4
<MEAN> 39
 -1.641015e+01 -8.025837e+00 -8.529342e-01 -5.176694e+00 -1.354161e+00 -1.657853e+00 -1.239241e+00 2.426924e-02 1.236000e+00 -1.246926e+00 3.227356e+00 -7.921780e-01 6.518808e+01 1.752629e-02 -6.150055e-01 3.947710e-01 -5.505967e-01 -7.920978e-01 -1.048540e+00 -6.158141e-01 -7.338041e-01 -6.559513e-01 -5.786931e-01 -4.408540e-01 -3.448916e-01 2.171719e+00 5.097573e-01 6.760616e-01 6.153696e-01 6.249018e-01 1.482256e-01 -2.871551e-02 -3.869698e-02 -1.270811e-01 -1.295273e-01 -4.998400e-02 -2.902825e-01 -2.415328e-02 -6.667942e-01
<VARIANCE> 39
 2.259768e+01 3.679398e+01 5.373446e+01 5.373705e+01 4.899973e+01 5.627729e+01 4.339365e+01 3.852520e+01 3.638364e+01 2.653575e+01 2.554415e+01 1.801817e+01 3.602266e+01 3.299273e+00 4.583229e+00 4.547812e+00 5.190421e+00 4.746346e+00 4.291068e+00 4.047223e+00 3.044208e+00 2.689650e+00 2.707982e+00 2.180527e+00 1.767196e+00 6.563089e+00 5.131847e-01 7.417939e-01 8.477225e-01 8.164632e-01 9.667687e-01 9.550589e-01 8.321697e-01 7.137148e-01 6.178181e-01 6.233873e-01 4.597930e-01 3.815242e-01 8.837094e-01
<GCONST> 1.301667e+02
<TRANSP> 5
 0.000000e+00 1.000000e+00 0.000000e+00 0.000000e+00 0.000000e+00
 0.000000e+00 5.309782e-01 4.690217e-01 0.000000e+00 0.000000e+00
 0.000000e+00 0.000000e+00 6.346484e-01 3.653516e-01 0.000000e+00
 0.000000e+00 0.000000e+00 0.000000e+00 6.998580e-01 3.001420e-01
 0.000000e+00 0.000000e+00 0.000000e+00 0.000000e+00 0.000000e+00
<ENDHMM>
~h "l"
<BEGINHMM>
<NUMSTATES> 5
<STATE> 2
<MEAN> 39
 -5.516243e+00 -3.003740e+00 5.428481e+00 4.810414e+00 3.764327e+00 -5.693440e+00 -4.312216e+00 -5.226999e+00 -3.928808e+00 -3.554388e+00 -1.569809e+00 -1.920437e+00 6.512827e+01 -8.997881e-02 3.010742e-01 7.279388e-01 5.379521e-01 3.068331e-01 3.356235e-01 3.605696e-01 2.101424e-01 -1.001547e-01 -1.880319e-01 -3.061097e-01 -6.969267e-02 -6.042978e-01 -7.493642e-02 -7.209441e-02 -1.681847e-01 -3.110473e-01 -2.820208e-01 -5.875659e-02 1.369126e-02 9.547540e-02 1.032733e-01 3.841928e-02 1.123218e-01 3.636256e-02 1.993928e-01
<VARIANCE> 39
 3.016125e+01 2.754482e+01 4.223486e+01 4.211895e+01 1.134012e+02 5.149714e+01 4.949749e+01 4.358248e+01 4.672467e+01 3.760140e+01 3.012575e+01 2.597535e+01 3.293708e+01 1.364709e+00 1.549223e+00 2.482697e+00 2.349338e+00 3.148992e+00 3.737682e+00 3.612907e+00 3.395461e+00 3.252414e+00 2.443137e+00 2.070121e+00 1.730186e+00 1.115021e+00 1.511604e-01 2.546270e-01 4.085414e-01 3.987813e-01 4.825324e-01 6.287514e-01 5.932471e-01 5.822494e-01 5.517970e-01 4.345601e-01 3.954280e-01 3.180280e-01 2.127748e-01
<GCONST> 1.184263e+02
<STATE> 3
<MEAN> 39
 -7.580957e+00 -2.896965e+00 7.513182e+00 4.013020e+00 1.363245e-01 -5.305470e+00 -4.181087e+00 -4.869983e+00 -3.720514e+00 -3.935271e+00 -2.164386e+00 -2.277368e+00 6.500639e+01 2.412996e-02 -1.125564e-01 -5.248479e-01 -5.200353e-01 -4.627807e-01 -1.576716e-01 2.155175e-02 3.189022e-02 1.938513e-01 8.440930e-02 3.234293e-01 1.545922e-01 4.310798e-01 4.365453e-02 -2.446222e-01 -5.444853e-01 -3.994442e-01 -3.268734e-01 -2.197017e-01 -1.720840e-01 1.085940e-01 2.245680e-01 1.710865e-01 2.532887e-01 4.351277e-02 4.048830e-01
<VARIANCE> 39
 3.325615e+01 2.665509e+01 4.167789e+01 4.281372e+01 1.041810e+02 4.520374e+01 5.923311e+01 4.448627e+01 5.000209e+01 3.924453e+01 3.103899e+01 2.543351e+01 3.749263e+01 1.469934e+00 1.514197e+00 2.852293e+00 2.179479e+00 3.157084e+00 3.065326e+00 3.606052e+00 3.239867e+00 3.070659e+00 2.439012e+00 2.085812e+00 1.638057e+00 1.411393e+00 2.658773e-01 3.709261e-01 5.252816e-01 4.923008e-01 7.475101e-01 7.687885e-01 9.332651e-01 9.239771e-01 8.125662e-01 6.019889e-01 5.106087e-01 3.840382e-01 2.833403e-01
<GCONST> 1.231282e+02
<STATE> 4
<MEAN> 39
 -9.931108e+00 -3.249337e+00 2.522377e+00 8.352145e-01 8.216630e-01 -1.818825e+00 -1.305760e+00 -2.133008e+00 4.059178e-01 -4.545544e-01 4.345147e-01 -6.709238e-01 6.020490e+01 -5.265577e-02 -1.910461e-01 -4.957342e-01 -4.584233e-01 -3.341776e-01 -1.093146e-01 -6.409904e-02 1.940313e-01 2.657226e-01 1.859567e-01 2.667827e-01 9.960403e-02 2.236958e-01 4.649451e-02 -1.181789e-02 -6.885458e-03 -1.107322e-02 -4.359857e-02 -5.391686e-02 -7.671545e-02 2.083261e-02 -2.521582e-02 -3.092720e-02 -2.474056e-02 -3.818318e-02 6.248098e-02
<VARIANCE> 39
 3.558335e+01 2.573476e+01 3.426981e+01 3.431035e+01 7.151537e+01 5.250647e+01 4.212682e+01 3.944907e+01 4.452821e+01 3.362617e+01 2.418415e+01 2.252751e+01 7.446150e+01 1.123817e+00 1.557552e+00 2.345466e+00 2.180778e+00 2.831166e+00 2.860566e+00 2.769284e+00 2.742169e+00 2.633091e+00 2.136558e+00 1.918564e+00 1.518553e+00 1.870209e+00 1.735352e-01 2.161624e-01 2.718057e-01 2.845792e-01 3.796752e-01 3.995707e-01 4.178887e-01 3.920751e-01 3.756453e-01 3.136996e-01 2.773878e-01 2.385372e-01 1.757187e-01
<GCONST> 1.127391e+02
<TRANSP> 5
 0.000000e+00 1.000000e+00 0.000000e+00 0.000000e+00 0.000000e+00
 0.000000e+00 4.899101e-01 5.100899e-01 0.000000e+00 0.000000e+00
 0.000000e+00 0.000000e+00 3.839738e-01 6.160262e-01 0.000000e+00
 0.000000e+00 0.000000e+00 0.000000e+00 5.962715e-01 4.037286e-01
 0.000000e+00 0.000000e+00 0.000000e+00 0.000000e+00 0.000000e+00
<ENDHMM>
~h "m"
<BEGINHMM>
<NUMSTATES> 5
<STATE> 2
<MEAN> 39
 -3.998284e+00 5.933807e-01 4.881242e+00 2.351600e+00 4.023881e+00 -2.613039e+00 -4.034071e+00 -3.092294e+00 -3.042377e+00 -3.532359e+00 -1.832208e+00 -4.107458e+00 6.355558e+01 -4.851724e-02 1.327712e-01 1.553183e-01 8.813726e-02 2.215513e-01 2.135978e-01 7.867767e-02 -3.551526e-02 -9.731642e-02 -1.797193e-01 -4.343654e-03 -7.882875e-03 -1.174629e-01 -4.700246e-02 -1.624656e-01 -1.717372e-01 -1.984750e-01 -3.160582e-01 -1.947773e-01 3.339533e-02 2.888822e-02 1.689158e-01 9.597885e-02 -1.832163e-02 1.084820e-01 2.001665e-01
<VARIANCE> 39
 2.413618e+01 2.512013e+01 2.520534e+01 3.153116e+01 5.910320e+01 5.854993e+01 6.304115e+01 5.081257e+01 5.998549e+01 4.778225e+01 3.996996e+01 3.277411e+01 2.005415e+01 2.400847e-01 5.828180e-01 7.112126e-01 1.081300e+00 1.151785e+00 1.553004e+00 1.365821e+00 1.244583e+00 1.536550e+00 1.247890e+00 1.246834e+00 1.113423e+00 3.687980e-01 6.745957e-02 1.528952e-01 2.069006e-01 3.018569e-01 3.444696e-01 4.226501e-01 3.089694e-01 2.894609e-01 3.528590e-01 2.980711e-01 3.065840e-01 2.884851e-01 9.824987e-02
<GCONST> 9.929850e+01
<STATE> 3
<MEAN> 39
 -5.045868e+00 9.250902e-02 4.513173e+00 1.923807e+00 2.986100e+00 -2.638700e+00 -4.845853e+00 -3.773282e+00 -3.799334e+00 -4.551995e+00 -1.175392e+00 -3.839322e+00 6.325991e+01 -1.445366e-02 -4.211557e-01 -6.227907e-01 -7.777096e-01 -9.445141e-01 -3.624641e-01 2.435058e-01 8.395229e-02 4.857590e-01 2.158515e-01 -1.672377e-01 2.713885e-01 7.609850e-01 -6.503341e-02 -2.812524e-01 -2.837445e-01 -3.560620e-01 -5.067940e-01 -1.738612e-01 1.929267e-01 2.467588e-01 3.092477e-01 2.055404e-01 -5.313123e-02 6.368928e-02 2.553385e-01
<VARIANCE> 39
 2.699325e+01 2.623188e+01 2.601159e+01 3.264537e+01 5.408857e+01 5.259992e+01 6.729365e+01 5.426699e+01 6.128841e+01 4.542886e+01 3.962112e+01 3.227340e+01 2.671756e+01 9.000285e-01 1.349473e+00 1.829597e+00 2.320164e+00 2.399770e+00 3.168121e+00 2.991793e+00 2.398035e+00 2.841193e+00 2.203752e+00 2.066303e+00 1.975063e+00 1.459257e+00 1.457687e-01 2.425593e-01 3.424313e-01 4.067936e-01 4.680859e-01 5.984718e-01 5.449449e-01 4.468082e-01 5.305143e-01 4.114181e-01 4.522686e-01 4.095658e-01 1.603975e-01
<GCONST> 1.157320e+02
<STATE> 4
<MEAN> 39
 -9.701717e+00 -1.389784e+00 1.812693e+00 -1.465446e-01 1.864085e+00 -6.201166e-01 2.338221e-01 1.951506e-01 1.496003e+00 -5.753726e-01 3.831170e-01 -6.569333e-02 5.705711e+01 -1.468986e-01 -2.899947e-01 -3.045282e-01 -3.571924e-01 -6.506571e-01 -2.691756e-01 2.032550e-01 2.436108e-01 3.664418e-01 1.995133e-01 8.827771e-03 1.674748e-01 2.104936e-01 1.418631e-03 -1.760727e-02 6.296164e-02 2.731906e-02 -3.072460e-02 -1.616209e-03 -1.929656e-02 1.917909e-02 -3.607611e-02 -4.119717e-02 -2.636913e-02 -5.885469e-02 3.316326e-02
<VARIANCE> 39
 3.140575e+01 2.293111e+01 2.072206e+01 2.328698e+01 3.560030e+01 3.787921e+01 4.179428e+01 3.222505e+01 3.561071e+01 3.117012e+01 2.456669e+01 2.139918e+01 7.255485e+01 6.507523e-01 1.408761e+00 1.820915e+00 2.268969e+00 2.666202e+00 2.598886e+00 2.219228e+00 1.898696e+00 2.178124e+00 1.796792e+00 1.872800e+00 1.665590e+00 1.334531e+00 9.807266e-02 1.493215e-01 1.755225e-01 1.747223e-01 2.355646e-01 2.767425e-01 2.739075e-01 2.639484e-01 2.514794e-01 2.438900e-01 2.136148e-01 1.822881e-01 9.875815e-02
<GCONST> 1.024878e+02
<TRANSP> 5
 0.000000e+00 1.000000e+00 0.000000e+00 0.000000e+00 0.000000e+00
 0.000000e+00 7.484037e-01 2.515964e-01 0.000000e+00 0.000000e+00
 0.000000e+00 0.000000e+00 4.151532e-01 5.848469e-01 0.000000e+00
 0.000000e+00 0.000000e+00 0.000000e+00 6.600077e-01 3.399923e-01
 0.000000e+00 0.000000e+00 0.000000e+00 0.000000e+00 0.000000e+00
<ENDHMM>
~h "n"
<BEGINHMM>
<NUMSTATES> 5
<STATE> 2
<MEAN> 39
 -7.693192e+00 4.132586e-01 3.726107e+00 2.207857e+00 3.877620e+00 -4.247766e-01 -1.142738e+00 -1.483207e+00 3.084844e-02 8.728767e-02 -6.948872e-01 -2.189124e+00 5.810097e+01 3.998283e-02 2.149916e-01 9.764466e-02 1.968824e-01 2.550838e-01 2.516867e-01 2.686613e-02 5.850482e-02 4.631938e-02 5.813839e-02 -1.812240e-01 -2.740558e-01 -2.640841e-01 -1.188549e-02 -8.561075e-02 4.494510e-02 7.452539e-03 3.034752e-02 -1.152934e-01 -3.548672e-02 -2.945099e-02 -2.503910e-02 -3.713331e-02 -2.321993e-02 2.753062e-02 1.376876e-01
<VARIANCE> 39
 4.423708e+01 2.594541e+01 2.610770e+01 2.465428e+01 4.851818e+01 4.700800e+01 3.959597e+01 3.169441e+01 3.761845e+01 3.224058e+01 2.821558e+01 3.405878e+01 6.647963e+01 4.715468e-01 9.981467e-01 1.003748e+00 1.304085e+00 1.351958e+00 1.692025e+00 1.503237e+00 1.348194e+00 1.658653e+00 1.311851e+00 1.344395e+00 1.209409e+00 6.999760e-01 1.141031e-01 1.817348e-01 1.850585e-01 2.221739e-01 2.335068e-01 2.772899e-01 2.555003e-01 2.209707e-01 2.983884e-01 2.328466e-01 2.413200e-01 2.194386e-01 9.828964e-02
<GCONST> 9.957536e+01
<STATE> 3
<MEAN> 39
 -7.332764e+00 1.295019e+00 4.685731e+00 3.602674e+00 5.087991e+00 -6.883430e-01 -1.859221e+00 -1.559205e+00 -5.938252e-01 -4.896684e-01 -2.129620e+00 -4.298885e+00 5.837304e+01 1.184536e+00 3.558884e-01 5.247377e-01 6.059958e-01 6.195232e-01 -5.800772e-01 -4.907436e-01 -3.477978e-01 -4.829937e-01 -5.158403e-01 -6.362996e-01 -7.648249e-01 1.142340e+00 -1.170385e-02 -2.953576e-01 -1.147979e-01 -1.886793e-01 -1.997897e-01 -1.876467e-01 1.091034e-02 -3.756431e-02 7.807427e-03 -3.588252e-02 1.231612e-01 2.289215e-01 3.767936e-01
<VARIANCE> 39
 4.362004e+01 2.691008e+01 2.509153e+01 3.001867e+01 5.310214e+01 5.151976e+01 4.363096e+01 3.638717e+01 4.500111e+01 3.787347e+01 2.961477e+01 2.968483e+01 5.127289e+01 3.210217e+00 2.141630e+00 2.069453e+00 2.118719e+00 2.147745e+00 2.832103e+00 2.668406e+00 2.379091e+00 3.015754e+00 2.436689e+00 2.040362e+00 2.126557e+00 3.590598e+00 5.253649e-01 5.138834e-01 4.178020e-01 4.849960e-01 4.592995e-01 5.742940e-01 5.198730e-01 4.393829e-01 5.666410e-01 4.804989e-01 4.227940e-01 3.671261e-01 3.701724e-01
<GCONST> 1.207382e+02
<STATE> 4
<MEAN> 39
 -3.298789e+00 6.748204e-01 5.483968e+00 4.342232e+00 5.791687e+00 -4.071620e+00 -3.498260e+00 -2.703573e+00 -2.504002e+00 -2.456594e+00 -3.208227e+00 -5.481552e+00 6.500942e+01 -3.615528e-01 -7.082916e-01 -1.212747e-01 -9.416781e-01 -5.335092e-01 -4.317352e-01 4.025369e-01 -1.012141e-01 -1.183108e-01 -1.962400e-01 3.155849e-01 7.172501e-01 1.137882e+00 -2.607999e-01 -2.071306e-01 -1.512139e-01 -3.722965e-01 -2.964045e-01 -4.670314e-02 1.346636e-01 6.075076e-02 1.011170e-01 5.249512e-02 1.387674e-01 2.476871e-01 7.996532e-02
<VARIANCE> 39
 2.673189e+01 2.533855e+01 2.268287e+01 3.738867e+01 5.937478e+01 4.437295e+01 4.376556e+01 4.124768e+01 5.225836e+01 4.168904e+01 3.074712e+01 2.447508e+01 1.960658e+01 1.295480e+00 1.537990e+00 1.698452e+00 3.107511e+00 2.515926e+00 2.823168e+00 2.604261e+00 2.304414e+00 3.297870e+00 2.381606e+00 2.097853e+00 1.748053e+00 1.542264e+00 3.150480e-01 3.410011e-01 3.030294e-01 4.872164e-01 4.136510e-01 5.207232e-01 5.083626e-01 4.463653e-01 5.921931e-01 4.260271e-01 3.673613e-01 3.334985e-01 2.772008e-01
<GCONST> 1.155761e+02
<TRANSP> 5
 0.000000e+00 1.000000e+00 0.000000e+00 0.000000e+00 0.000000e+00
 0.000000e+00 7.115573e-01 2.884427e-01 0.000000e+00 0.000000e+00
 0.000000e+00 0.000000e+00 5.214157e-01 4.785842e-01 0.000000e+00
 0.000000e+00 0.000000e+00 0.000000e+00 6.672301e-01 3.327698e-01
 0.000000e+00 0.000000e+00 0.000000e+00 0.000000e+00 0.000000e+00
<ENDHMM>
~h "o"
<BEGINHMM>
<NUMSTATES> 5
<STATE> 2
<MEAN> 39
 -5.885971e+00 -1.401675e+00 9.404700e-01 -4.762711e+00 -4.770967e+00 -4.153229e+00 -4.497241e+00 -5.170062e+00 -3.891577e+00 -4.333398e+00 4.731300e-01 -1.419789e+00 6.608070e+01 1.947031e+00 5.719262e-01 -5.811003e-01 -9.189747e-01 -2.092858e+00 -3.807161e-01 -8.100072e-01 -4.234609e-01 -7.595883e-01 -9.224612e-01 1.888301e-01 -2.289533e-01 5.686768e-01 -3.246830e-01 -6.983528e-02 1.663427e-01 1.904334e-01 2.611849e-01 2.038096e-01 2.557528e-01 3.175447e-01 2.821570e-01 6.256104e-02 -4.996048e-02 -5.217978e-02 -2.464671e-01
<VARIANCE> 39
 2.382044e+01 3.309472e+01 3.045479e+01 4.198011e+01 9.125210e+01 6.110737e+01 5.986020e+01 4.674989e+01 4.416505e+01 3.795461e+01 3.415766e+01 2.581155e+01 3.277706e+01 2.452595e+00 3.434440e+00 2.339672e+00 4.147097e+00 5.570060e+00 4.629947e+00 4.967044e+00 4.512167e+00 3.968610e+00 3.701516e+00 3.226406e+00 2.323450e+00 1.811486e+00 4.791359e-01 5.061572e-01 3.881776e-01 5.051590e-01 7.140729e-01 5.166503e-01 6.210123e-01 5.238255e-01 5.445782e-01 4.591081e-01 3.894563e-01 3.471086e-01 4.573928e-01
<GCONST> 1.264827e+02
<STATE> 3
<MEAN> 39
 -3.584479e+00 -9.934903e-01 -1.419443e-01 -7.641016e+00 -9.056494e+00 -3.798460e+00 -4.550704e+00 -4.647593e+00 -4.146583e+00 -5.687567e+00 1.001607e+00 -2.237617e+00 6.769761e+01 9.598435e-02 2.149992e-01 9.854279e-02 -8.899856e-02 -1.403126e-01 3.055682e-01 1.321428e-01 1.557785e-01 9.130207e-02 -2.486381e-01 -1.651935e-01 -1.702460e-01 -2.501080e-01 -3.423688e-01 2.711994e-02 2.568337e-01 4.556867e-01 6.696480e-01 1.222396e-01 1.558848e-01 8.072076e-02 1.229444e-01 1.871539e-01 -1.471200e-01 3.098912e-03 -3.658899e-01
<VARIANCE> 39
 1.444904e+01 3.352790e+01 2.615096e+01 4.899554e+01 9.450562e+01 9.021757e+01 6.476898e+01 6.216389e+01 5.394024e+01 5.573610e+01 5.062848e+01 3.092389e+01 2.471172e+01 3.025049e-01 1.080814e+00 8.380181e-01 1.866354e+00 2.298687e+00 1.800401e+00 2.171213e+00 1.981524e+00 2.024573e+00 1.741887e+00 1.606463e+00 1.318300e+00 6.956997e-01 1.819775e-01 2.538643e-01 2.337483e-01 3.788751e-01 5.412474e-01 4.969733e-01 5.190296e-01 5.727155e-01 4.865434e-01 4.663284e-01 4.302129e-01 3.122048e-01 1.890740e-01
<GCONST> 1.116142e+02
<STATE> 4
<MEAN> 39
 -4.482548e+00 3.957924e-01 9.294816e-01 -5.239013e+00 -7.086339e+00 -2.211382e+00 -4.903531e+00 -4.543640e+00 -3.787990e+00 -6.582422e+00 -3.800988e-02 -2.723961e+00 6.472476e+01 -8.354977e-01 2.676288e-01 9.565564e-01 1.695235e+00 2.214882e+00 4.209368e-01 7.124608e-01 5.784810e-01 5.107879e-01 7.059371e-01 -4.173199e-01 -2.095891e-02 -1.785645e+00 -4.635122e-01 -1.158942e-01 2.409519e-01 2.575613e-01 4.914744e-01 8.460511e-02 3.965373e-01 2.112070e-01 1.922047e-01 3.647032e-01 8.362918e-02 1.315586e-01 -3.529648e-01
<VARIANCE> 39
 1.344799e+01 4.216143e+01 2.523904e+01 5.824270e+01 9.184084e+01 6.692773e+01 7.437521e+01 6.055981e+01 5.364860e+01 5.821801e+01 4.373767e+01 3.583495e+01 3.806307e+01 1.036059e+00 2.616020e+00 2.151412e+00 3.179497e+00 4.404282e+00 4.427016e+00 4.390848e+00 4.656462e+00 4.074888e+00 4.092378e+00 3.353900e+00 2.378526e+00 2.823957e+00 1.995007e-01 4.067184e-01 3.555522e-01 5.963215e-01 8.496204e-01 6.178688e-01 7.536008e-01 7.214827e-01 7.227398e-01 6.537368e-01 5.779623e-01 4.352999e-01 3.063842e-01
<GCONST> 1.276977e+02
<TRANSP> 5
 0.000000e+00 1.000000e+00 0.000000e+00 0.000000e+00 0.000000e+00
 0.000000e+00 5.034606e-01 4.965394e-01 0.000000e+00 0.000000e+00
 0.000000e+00 0.000000e+00 6.807613e-01 3.192387e-01 0.000000e+00
 0.000000e+00 0.000000e+00 0.000000e+00 5.088584e-01 4.911416e-01
 0.000000e+00 0.000000e+00 0.000000e+00 0.000000e+00 0.000000e+00
<ENDHMM>
~h "p"
<BEGINHMM>
<NUMSTATES> 5
<STATE> 2
<MEAN> 39
 -8.565317e+00 2.922054e+00 5.666718e+00 3.726010e+00 3.658189e+00 3.916928e-01 -4.409710e-01 -2.141088e+00 -1.462334e+00 -2.605529e+00 -1.117907e+00 -1.656977e+00 5.396145e+01 -1.593342e+00 7.878063e-01 -2.289022e-02 3.122377e-01 6.893213e-01 1.649912e+00 1.521031e+00 1.076354e+00 1.329973e+00 9.375955e-01 5.528262e-01 6.441778e-01 -3.060704e+00 -2.971533e-01 -7.541377e-01 -3.493107e-01 -4.987847e-01 -4.657568e-01 -4.541510e-01 -2.212556e-01 1.707643e-02 1.110066e-01 1.838413e-01 2.005392e-01 1.123761e-01 9.877685e-01
<VARIANCE> 39
 2.872072e+01 2.260390e+01 2.111165e+01 2.256430e+01 2.716321e+01 2.337925e+01 2.199984e+01 2.209925e+01 2.331615e+01 2.069215e+01 1.559826e+01 1.419530e+01 2.717519e+01 2.450838e+00 3.193307e+00 2.580472e+00 2.795837e+00 5.116650e+00 3.408737e+00 3.448186e+00 2.617281e+00 2.628272e+00 2.645959e+00 1.988398e+00 1.694887e+00 4.703345e+00 3.703111e-01 4.371443e-01 4.321715e-01 4.166082e-01 6.193237e-01 5.253853e-01 4.500057e-01 4.331569e-01 4.426814e-01 4.086272e-01 3.019419e-01 2.703234e-01 8.178998e-01
<GCONST> 1.149258e+02
<STATE> 3
<MEAN> 39
 -1.365427e+01 1.086569e+00 3.006424e+00 2.158484e+00 3.069852e+00 2.521764e+00 2.678600e+00 1.734510e+00 3.286253e+00 2.052486e+00 2.456647e+00 1.680175e+00 4.923785e+01 -8.028618e-01 -1.142855e+00 -6.616051e-01 -8.416371e-01 -2.946872e-01 -3.682925e-01 -2.348879e-02 -2.752878e-02 2.886406e-01 3.027761e-01 2.265446e-01 1.653366e-01 1.519955e+00 3.690213e-01 -4.360523e-01 -5.377293e-02 -3.127003e-01 -3.033652e-01 -5.347162e-01 -4.939703e-01 -4.394133e-01 -4.318976e-01 -3.526636e-01 -2.884499e-01 -3.279532e-01 1.420144e+00
<VARIANCE> 39
 9.870098e+00 9.678596e+00 8.969811e+00 9.036294e+00 1.148271e+01 1.255692e+01 1.090248e+01 1.052450e+01 1.204074e+01 9.813272e+00 1.054062e+01 7.467494e+00 1.640901e+01 1.698301e+00 2.223620e+00 1.600255e+00 1.831979e+00 1.816851e+00 2.042017e+00 1.862986e+00 1.996239e+00 1.815448e+00 1.841880e+00 1.485365e+00 1.312033e+00 7.042973e+00 3.924381e-01 3.351198e-01 2.980367e-01 3.549946e-01 5.075860e-01 4.162750e-01 4.315332e-01 3.358216e-01 3.241306e-01 3.205367e-01 2.670725e-01 2.498476e-01 7.213055e-01
<GCONST> 9.807729e+01
<STATE> 4
<MEAN> 39
 -1.669713e+01 -6.055170e+00 1.520090e+00 -3.093187e+00 9.487756e-01 -1.931421e+00 9.800126e-02 -1.796212e+00 1.133057e+00 3.025282e-01 9.272057e-01 -2.931789e-01 6.531953e+01 1.050295e+00 -9.606549e-01 -5.364869e-01 -1.255901e+00 -1.200774e+00 -1.169621e+00 -9.805048e-01 -7.079175e-01 -7.627796e-01 -5.291631e-01 -4.848142e-01 -6.499389e-01 3.066754e+00 7.473173e-01 5.201952e-01 1.225485e-01 1.720704e-01 -2.969131e-01 -1.965934e-03 -1.285044e-01 1.227358e-01 -1.367763e-01 -1.233116e-01 -7.246314e-02 -7.832243e-02 -6.477817e-01
<VARIANCE> 39
 3.777440e+01 2.317920e+01 2.285993e+01 2.641216e+01 2.522932e+01 2.161608e+01 1.809383e+01 1.679170e+01 1.658695e+01 1.538654e+01 1.197277e+01 1.081577e+01 3.550051e+01 4.458217e+00 4.012260e+00 2.899133e+00 3.668883e+00 4.351800e+00 3.659950e+00 3.632201e+00 2.536029e+00 2.549634e+00 2.249675e+00 1.704896e+00 1.833487e+00 7.447305e+00 4.987392e-01 6.418670e-01 4.761899e-01 5.891157e-01 7.137032e-01 6.104941e-01 6.401117e-01 5.433055e-01 5.036362e-01 4.692799e-01 3.303860e-01 2.974503e-01 8.627425e-01
<GCONST> 1.177725e+02
<TRANSP> 5
 0.000000e+00 1.000000e+00 0.000000e+00 0.000000e+00 0.000000e+00
 0.000000e+00 5.777981e-01 4.222019e-01 0.000000e+00 0.000000e+00
 0.000000e+00 0.000000e+00 7.009742e-01 2.990258e-01 0.000000e+00
 0.000000e+00 0.000000e+00 0.000000e+00 6.565756e-01 3.434244e-01
 0.000000e+00 0.000000e+00 0.000000e+00 0.000000e+00 0.000000e+00
<ENDHMM>
~h "s"
<BEGINHMM>
<NUMSTATES> 5
<STATE> 2
<MEAN> 39
 -1.843855e+01 -2.337332e+00 6.516516e+00 -3.599014e+00 2.763841e+00 -1.063049e+00 8.056867e-01 -1.705597e+00 9.951410e-01 -2.212605e-01 8.329583e-03 -3.666471e-01 6.402079e+01 -3.184109e+00 -3.472691e-01 2.537091e-01 -1.103505e+00 6.643075e-01 5.970590e-01 8.416348e-01 1.591935e-01 5.641521e-01 4.729762e-01 4.337010e-01 3.424932e-01 1.029123e+00 4.027405e-02 -5.944142e-02 -2.926286e-01 -5.579991e-02 -2.639380e-01 -1.619294e-01 -1.264651e-01 4.080945e-02 1.315399e-02 1.902461e-02 5.781306e-02 9.592857e-03 5.135600e-02
<VARIANCE> 39
 5.533795e+01 3.751161e+01 4.257719e+01 3.413314e+01 3.113304e+01 3.575124e+01 3.682272e+01 3.307124e+01 3.128193e+01 2.440884e+01 1.919153e+01 1.588780e+01 7.711780e+01 4.775777e+00 3.107895e+00 4.390238e+00 3.129365e+00 3.961128e+00 3.969767e+00 3.838292e+00 3.024230e+00 2.765622e+00 2.461510e+00 2.021588e+00 1.583835e+00 2.032878e+00 8.432624e-01 4.610217e-01 5.171011e-01 4.355419e-01 5.353203e-01 5.508397e-01 5.345249e-01 4.231649e-01 4.249422e-01 3.578891e-01 3.046259e-01 2.302885e-01 2.955027e-01
<GCONST> 1.208332e+02
<STATE> 3
<MEAN> 39
 -2.941153e+01 -2.745308e+00 5.046983e+00 -7.336868e+00 2.787152e+00 -1.167791e+00 1.649524e+00 -1.254125e+00 1.978557e+00 8.091714e-01 1.257256e+00 3.538644e-01 7.004812e+01 -2.417607e-01 -2.336694e-01 -2.417488e-01 -1.076523e-01 -2.157388e-01 -1.310872e-01 1.177175e-02 -4.024607e-03 7.814971e-02 9.581087e-02 1.292256e-01 7.370293e-02 1.036188e-01 7.865670e-01 -1.116802e-01 1.098270e-01 2.255133e-01 -1.263504e-01 -1.211711e-01 -2.134967e-01 -1.499555e-01 -1.473400e-01 -1.390432e-01 -1.153016e-01 -1.031474e-01 -1.828714e-01
<VARIANCE> 39
 8.624336e+00 5.101279e+01 4.445614e+01 3.692115e+01 2.646436e+01 2.535666e+01 2.791829e+01 2.964914e+01 2.082151e+01 1.404381e+01 1.181707e+01 9.432587e+00 1.903993e+01 1.576709e+00 1.211026e+00 1.192542e+00 1.076859e+00 1.134856e+00 1.162615e+00 1.180467e+00 1.088361e+00 1.009523e+00 9.367519e-01 8.323306e-01 6.873856e-01 4.974877e-01 3.122767e-01 2.313320e-01 2.785494e-01 2.799908e-01 2.704238e-01 2.730606e-01 2.972763e-01 2.515694e-01 2.329088e-01 2.132657e-01 1.842483e-01 1.552053e-01 1.089873e-01
<GCONST> 9.269421e+01
<STATE> 4
<MEAN> 39
 -2.392514e+01 -6.380099e+00 5.236693e+00 -6.575656e+00 1.738054e+00 -1.844733e+00 9.328344e-01 -2.686799e+00 1.720987e+00 5.637513e-01 1.389764e+00 3.941904e-01 6.846261e+01 3.606564e+00 1.707502e-01 2.728518e-02 1.178551e+00 -4.686494e-01 -6.584753e-01 -1.092389e+00 -6.993869e-01 -9.112994e-01 -6.732183e-01 -6.045654e-01 -5.132523e-01 -8.497126e-01 8.453981e-01 4.100816e-01 -3.650170e-02 2.459090e-01 -1.410339e-01 -2.112247e-01 -3.109386e-01 -1.044641e-01 -3.012315e-01 -1.895055e-01 -1.940723e-01 -1.652773e-01 -3.520336e-02
<VARIANCE> 39
 3.044022e+01 4.125750e+01 2.805676e+01 3.008866e+01 2.422947e+01 2.751122e+01 2.817259e+01 3.336646e+01 2.534053e+01 1.593047e+01 1.392170e+01 1.134474e+01 2.895368e+01 3.792275e+00 2.941478e+00 2.874295e+00 3.152333e+00 3.659119e+00 2.842617e+00 3.302763e+00 2.842770e+00 2.443323e+00 1.917810e+00 1.648806e+00 1.453789e+00 1.686629e+00 4.843490e-01 4.119159e-01 3.341542e-01 4.278842e-01 5.542818e-01 4.971971e-01 5.506455e-01 5.058399e-01 4.493042e-01 3.738582e-01 3.141754e-01 2.582132e-01 3.105951e-01
<GCONST> 1.138776e+02
<TRANSP> 5
 0.000000e+00 1.000000e+00 0.000000e+00 0.000000e+00 0.000000e+00
 0.000000e+00 7.420497e-01 2.579503e-01 0.000000e+00 0.000000e+00
 0.000000e+00 0.000000e+00 8.174999e-01 1.825001e-01 0.000000e+00
 0.000000e+00 0.000000e+00 0.000000e+00 6.108351e-01 3.891649e-01
 0.000000e+00 0.000000e+00 0.000000e+00 0.000000e+00 0.000000e+00
<ENDHMM>
~h "t"
<BEGINHMM>
<NUMSTATES> 5
<STATE> 2
<MEAN> 39
 -1.324641e+01 1.891777e+00 8.236134e+00 1.063409e+00 2.411963e+00 -1.479463e+00 -1.390780e+00 -2.694984e+00 -8.191320e-01 -2.210210e+00 -9.546239e-01 -2.020346e+00 5.798676e+01 -1.173623e+00 6.274736e-01 -4.233412e-01 5.719378e-01 1.389195e+00 1.869989e+00 1.754244e+00 1.142247e+00 1.070478e+00 8.253412e-01 7.121186e-01 6.684818e-01 -3.359388e+00 -1.474288e-02 -8.082591e-01 -6.551325e-01 -4.709314e-01 -6.338168e-01 -2.378403e-01 -1.054230e-01 1.764885e-01 1.411789e-01 1.607288e-01 1.785349e-01 1.638138e-01 8.122457e-01
<VARIANCE> 39
 3.709348e+01 2.720885e+01 2.753074e+01 3.045746e+01 3.305447e+01 3.442969e+01 3.320768e+01 2.616910e+01 2.563364e+01 2.325540e+01 1.752411e+01 1.804241e+01 4.232499e+01 3.255284e+00 3.466811e+00 3.093172e+00 3.108862e+00 5.218918e+00 3.527222e+00 4.093661e+00 2.906261e+00 2.719298e+00 2.629198e+00 2.317954e+00 1.797034e+00 4.336477e+00 4.528498e-01 4.966075e-01 4.542483e-01 5.733737e-01 6.381777e-01 7.132404e-01 5.789896e-01 4.936084e-01 4.768888e-01 4.002242e-01 3.576696e-01 2.876749e-01 1.189660e+00
<GCONST> 1.213257e+02
<STATE> 3
<MEAN> 39
 -1.492197e+01 6.620036e-01 3.587095e+00 1.293806e+00 3.034209e+00 2.401899e+00 2.778569e+00 1.699692e+00 3.290217e+00 1.892211e+00 2.555604e+00 1.534610e+00 5.059324e+01 -9.700329e-01 -1.180403e+00 -9.862093e-01 -9.782172e-01 -4.617276e-01 -2.085251e-01 1.620729e-01 1.714043e-01 2.592643e-01 3.001693e-01 2.626306e-01 3.233337e-01 1.358471e+00 -9.124120e-02 -3.993875e-01 9.502904e-02 -4.760936e-01 -3.987235e-01 -6.684703e-01 -5.263768e-01 -5.016695e-01 -3.542397e-01 -3.158425e-01 -3.006401e-01 -2.702042e-01 1.646399e+00
<VARIANCE> 39
 1.992315e+01 1.518874e+01 1.407285e+01 1.427321e+01 1.408152e+01 1.516788e+01 1.435226e+01 1.368207e+01 1.383898e+01 1.232143e+01 1.139373e+01 9.564138e+00 2.958246e+01 2.802672e+00 3.078700e+00 2.214776e+00 2.952283e+00 2.341845e+00 2.950027e+00 2.370992e+00 2.444428e+00 1.982847e+00 1.923550e+00 1.561025e+00 1.428403e+00 8.862484e+00 4.692309e-01 4.909942e-01 4.120163e-01 4.442547e-01 5.382224e-01 4.872046e-01 4.928018e-01 3.939838e-01 3.187641e-01 3.149382e-01 2.928674e-01 2.551846e-01 9.933724e-01
<GCONST> 1.075557e+02
<STATE> 4
<MEAN> 39
 -2.018888e+01 -5.431310e+00 2.355041e+00 -5.154284e+00 7.827583e-02 -2.033807e+00 2.832804e-01 -1.281721e+00 1.667936e+00 5.559892e-01 1.101172e+00 4.092341e-01 6.551170e+01 1.066928e-01 -4.246014e-01 9.095503e-02 -5.074269e-01 -5.234809e-01 -7.146518e-01 -7.196763e-01 -6.021016e-01 -3.435032e-01 -2.687621e-01 -3.217890e-01 -3.268996e-01 1.872069e+00 7.433086e-01 3.656784e-01 1.996094e-01 4.481540e-01 2.937641e-02 6.932690e-02 -1.124241e-01 -1.980653e-02 -1.191709e-01 -9.221251e-02 -5.584459e-02 -1.048407e-01 -6.602370e-01
<VARIANCE> 39
 4.065327e+01 3.314357e+01 2.824513e+01 2.872502e+01 2.639029e+01 2.995321e+01 2.623479e+01 2.423620e+01 2.011201e+01 1.573754e+01 1.304236e+01 1.139207e+01 5.547701e+01 5.140027e+00 2.999161e+00 2.691462e+00 3.784860e+00 3.423215e+00 3.674183e+00 3.209193e+00 2.682462e+00 2.190296e+00 1.923899e+00 1.648393e+00 1.562608e+00 8.220281e+00 6.622161e-01 5.885637e-01 5.473014e-01 6.024366e-01 6.183031e-01 6.201523e-01 6.023911e-01 5.352694e-01 4.589539e-01 4.020860e-01 3.295639e-01 3.109336e-01 8.636380e-01
<GCONST> 1.194593e+02
<TRANSP> 5
 0.000000e+00 1.000000e+00 0.000000e+00 0.000000e+00 0.000000e+00
 0.000000e+00 5.332841e-01 4.667160e-01 0.000000e+00 0.000000e+00
 0.000000e+00 0.000000e+00 6.517538e-01 3.482462e-01 0.000000e+00
 0.000000e+00 0.000000e+00 0.000000e+00 7.590224e-01 2.409777e-01
 0.000000e+00 0.000000e+00 0.000000e+00 0.000000e+00 0.000000e+00
<ENDHMM>
~h "u"
<BEGINHMM>
<NUMSTATES> 5
<STATE> 2
<MEAN> 39
 -1.285554e+01 -4.969366e+00 1.430109e-01 -4.440836e+00 1.360300e+00 -1.975479e-01 -7.288755e-01 -2.708787e+00 -1.876100e-01 -2.196558e+00 4.056407e-01 -1.281409e+00 6.273829e+01 2.862362e+00 1.641434e+00 4.571460e-01 4.209577e-01 -1.278753e+00 -6.703805e-01 -1.125036e+00 -1.284635e+00 -1.583546e+00 -1.187557e+00 -7.350566e-01 -5.644177e-01 -3.613249e-01 2.785006e-01 5.124437e-01 1.311139e-01 -2.627532e-01 -8.619807e-01 -1.626310e-01 -1.771403e-01 6.618971e-02 -9.328979e-02 -2.415444e-01 2.534698e-02 -2.921937e-02 4.849919e-02
<VARIANCE> 39
 2.518391e+01 2.917177e+01 3.055824e+01 2.934390e+01 3.029037e+01 4.023726e+01 5.112693e+01 4.141716e+01 3.828420e+01 3.125626e+01 2.383722e+01 1.946130e+01 3.234224e+01 3.123871e+00 3.124615e+00 3.127749e+00 3.967259e+00 5.363837e+00 3.196368e+00 3.879751e+00 4.178001e+00 3.616270e+00 3.197210e+00 2.747841e+00 2.082058e+00 1.128096e+00 3.375089e-01 5.321646e-01 3.195185e-01 5.593192e-01 6.923479e-01 6.454545e-01 7.158010e-01 5.100651e-01 5.442073e-01 5.261529e-01 4.016070e-01 3.477049e-01 3.410904e-01
<GCONST> 1.217319e+02
<STATE> 3
<MEAN> 39
 -5.123538e+00 -5.080658e-01 1.839322e+00 -5.472460e+00 -7.400508e+00 -3.872668e+00 -5.975513e+00 -6.717469e+00 -4.851718e+00 -5.897783e+00 -9.740714e-01 -3.183890e+00 6.515037e+01 1.883008e+00 1.049533e+00 -2.330150e-02 -6.952511e-01 -2.383291e+00 -1.047487e-01 -4.660870e-01 -1.638053e-01 -7.162551e-01 -9.087014e-01 -4.768986e-02 -1.219225e-01 -6.759365e-04 -9.060150e-01 -3.463779e-01 1.820399e-02 -2.769256e-02 5.041419e-01 3.093131e-01 5.598071e-01 4.572229e-01 4.811651e-01 3.434163e-01 1.519302e-01 1.848201e-01 -7.173867e-02
<VARIANCE> 39
 1.671127e+01 3.743071e+01 2.496139e+01 4.369059e+01 6.586313e+01 5.686085e+01 5.487634e+01 6.087304e+01 4.502922e+01 5.020305e+01 3.371967e+01 3.059115e+01 2.871470e+01 2.344026e+00 2.824724e+00 2.512853e+00 3.839867e+00 5.125279e+00 6.088121e+00 4.587116e+00 3.914758e+00 3.839176e+00 3.593558e+00 3.122975e+00 2.489412e+00 1.097267e+00 2.983418e-01 4.522220e-01 4.236072e-01 6.154681e-01 8.323172e-01 7.684453e-01 6.384364e-01 6.606458e-01 6.187094e-01 6.032690e-01 5.124621e-01 4.231312e-01 1.919449e-01
<GCONST> 1.259033e+02
<STATE> 4
<MEAN> 39
 -4.097123e+00 2.071718e+00 1.602055e+00 -9.425351e+00 -1.294390e+01 -8.403317e-01 -3.443293e+00 -3.592062e+00 -4.649239e+00 -7.597367e+00 -8.884268e-02 -2.311786e+00 6.320536e+01 -1.704277e-01 2.876487e-02 9.120336e-02 -7.644337e-02 1.447496e-01 3.272962e-01 4.373327e-01 2.187828e-01 3.908829e-02 2.651567e-01 -2.899072e-02 2.609502e-02 -2.610998e-01 -3.447278e-01 -2.238735e-01 2.248553e-02 2.541348e-01 5.818495e-01 1.084717e-01 6.019469e-02 -1.436328e-02 1.485108e-01 2.311444e-01 3.562915e-02 1.637520e-02 -4.958746e-02
<VARIANCE> 39
 1.060831e+01 3.126494e+01 2.302879e+01 5.106512e+01 7.207394e+01 7.016361e+01 4.801313e+01 4.948386e+01 4.565153e+01 4.807292e+01 3.258019e+01 2.732332e+01 2.852100e+01 5.420383e-01 1.220574e+00 8.167133e-01 1.754223e+00 2.687427e+00 1.949606e+00 1.943852e+00 1.820423e+00 1.682954e+00 1.894355e+00 1.518504e+00 1.280355e+00 6.601936e-01 2.104791e-01 2.075550e-01 1.796099e-01 3.174385e-01 5.158556e-01 4.859884e-01 3.915587e-01 3.594771e-01 3.916642e-01 3.423296e-01 3.041596e-01 2.563879e-01 8.545785e-02
<GCONST> 1.066045e+02
<TRANSP> 5
 0.000000e+00 1.000000e+00 0.000000e+00 0.000000e+00 0.000000e+00
 0.000000e+00 4.639571e-01 5.360430e-01 0.000000e+00 0.000000e+00
 0.000000e+00 0.000000e+00 5.561006e-01 4.438994e-01 0.000000e+00
 0.000000e+00 0.000000e+00 0.000000e+00 7.684843e-01 2.315157e-01
 0.000000e+00 0.000000e+00 0.000000e+00 0.000000e+00 0.000000e+00
<ENDHMM>
~h "v"
<BEGINHMM>
<NUMSTATES> 5
<STATE> 2
<MEAN> 39
 -8.278419e+00 -4.429425e-02 4.051379e+00 2.104328e+00 3.473706e+00 -3.596977e+00 -2.405468e+00 -5.460041e+00 -3.399564e+00 -3.625486e+00 -1.008943e+00 -1.376529e+00 6.492704e+01 -1.420842e+00 6.781816e-01 4.236978e-01 2.468229e-01 8.650519e-01 9.499013e-01 9.077838e-01 2.671318e-01 4.652818e-01 -1.133336e-01 -2.062247e-01 -4.413293e-05 -5.443934e-01 -2.748611e-02 -3.319002e-01 -3.864060e-02 -1.378057e-01 -2.879915e-01 -2.047946e-01 -1.278265e-01 9.011414e-02 1.137099e-01 1.050174e-01 6.603432e-03 -9.165744e-02 3.133853e-01
<VARIANCE> 39
 3.422839e+01 1.968894e+01 2.584680e+01 2.879302e+01 6.874061e+01 3.372109e+01 2.683266e+01 2.118131e+01 2.365919e+01 1.902137e+01 1.609622e+01 1.354589e+01 2.155641e+01 1.749457e+00 1.436946e+00 1.586963e+00 2.028589e+00 2.276334e+00 2.245901e+00 2.227419e+00 1.814724e+00 1.889908e+00 1.707705e+00 1.446495e+00 1.154270e+00 6.643745e-01 2.139326e-01 2.168956e-01 2.208145e-01 2.537240e-01 2.840303e-01 3.474804e-01 2.909602e-01 2.781816e-01 2.757702e-01 2.423631e-01 2.172248e-01 1.929279e-01 1.339048e-01
<GCONST> 1.011828e+02
<STATE> 3
<MEAN> 39
 -1.341395e+01 2.274165e-01 4.567350e+00 1.590994e+00 4.349005e+00 -1.240837e+00 -1.785197e-01 -3.836571e+00 -1.423628e+00 -3.121981e+00 -1.397027e+00 -1.926948e+00 6.492234e+01 -6.184961e-02 -6.391770e-01 -2.975633e-01 -4.945535e-01 -4.753088e-01 -4.111294e-01 -2.018632e-01 4.360175e-02 1.855875e-01 1.730549e-01 5.535866e-02 1.233265e-02 5.588456e-01 9.009452e-01 -3.758767e-01 -3.169257e-01 -3.483263e-01 -6.364332e-01 -5.448785e-01 -5.067139e-01 -8.331313e-02 -2.221818e-01 3.481896e-02 9.153371e-02 4.696728e-02 3.251021e-01
<VARIANCE> 39
 3.857156e+01 2.220195e+01 1.971594e+01 2.358496e+01 4.994459e+01 2.815551e+01 2.593273e+01 1.928785e+01 2.183244e+01 1.461828e+01 1.268254e+01 1.097523e+01 2.795809e+01 2.843419e+00 1.131039e+00 1.325706e+00 1.641711e+00 1.892986e+00 1.864885e+00 1.901910e+00 1.425076e+00 1.483772e+00 1.173074e+00 9.870225e-01 8.901433e-01 5.730007e-01 3.987753e-01 3.787857e-01 3.378790e-01 4.928847e-01 4.590658e-01 4.708163e-01 4.262769e-01 3.951374e-01 3.800023e-01 3.446552e-01 2.928368e-01 2.269346e-01 2.186459e-01
<GCONST> 1.028799e+02
<STATE> 4
<MEAN> 39
 -5.457894e+00 -5.154214e+00 -6.093513e-01 -9.337398e-01 1.328983e+00 -8.774844e+00 -3.449885e+00 -4.999231e+00 -3.036073e+00 -2.756409e+00 -1.064944e+00 5.204753e-01 6.948000e+01 8.471601e-01 -6.826736e-01 -4.941766e-01 -5.025598e-01 -8.272467e-01 -8.499200e-01 -7.754591e-01 -1.815903e-01 -1.699947e-01 1.637980e-01 1.609633e-01 1.351168e-02 4.789441e-01 -2.642209e-02 3.066680e-02 6.706367e-02 2.198598e-02 -3.040657e-02 1.009463e-01 -1.890767e-02 3.770536e-02 -1.108607e-03 6.315269e-04 1.700735e-02 -6.261521e-02 -4.824487e-02
<VARIANCE> 39
 4.441611e+01 3.438880e+01 3.822061e+01 2.973252e+01 5.497529e+01 6.554660e+01 4.330788e+01 3.633372e+01 3.480806e+01 3.403792e+01 2.387661e+01 2.585199e+01 2.856144e+01 2.612324e+00 1.741083e+00 1.907868e+00 2.213659e+00 2.514203e+00 2.821273e+00 2.406163e+00 1.994241e+00 2.044238e+00 1.905513e+00 1.506221e+00 1.570027e+00 1.118088e+00 3.183367e-01 2.029395e-01 2.318027e-01 2.455012e-01 3.006679e-01 3.729469e-01 3.116088e-01 2.872422e-01 3.003888e-01 2.648622e-01 2.181866e-01 2.020577e-01 1.176336e-01
<GCONST> 1.092641e+02
<TRANSP> 5
 0.000000e+00 1.000000e+00 0.000000e+00 0.000000e+00 0.000000e+00
 0.000000e+00 5.824193e-01 4.175808e-01 0.000000e+00 0.000000e+00
 0.000000e+00 0.000000e+00 5.787596e-01 4.212405e-01 0.000000e+00
 0.000000e+00 0.000000e+00 0.000000e+00 6.379678e-01 3.620322e-01
 0.000000e+00 0.000000e+00 0.000000e+00 0.000000e+00 0.000000e+00
<ENDHMM>
~h "w"
<BEGINHMM>
<NUMSTATES> 5
<STATE> 2
<MEAN> 39
 -1.317929e+01 -9.492674e-02 6.919499e-01 -2.339709e+00 1.105040e+00 1.223437e+00 3.095668e+00 1.730511e+00 2.878756e+00 2.087755e+00 1.285898e+00 7.854807e-01 5.317937e+01 1.072219e+00 6.299555e-01 2.827236e-01 -2.041940e-01 -4.145734e-01 -7.723284e-01 -4.502529e-01 -1.330176e-01 -3.512430e-01 -2.192936e-01 -3.771729e-01 -5.406337e-01 3.867462e-01 3.546008e-01 1.130425e-01 2.531972e-02 -5.287440e-02 -1.233245e-01 -2.229431e-01 -1.645191e-01 -7.353388e-02 -1.607809e-01 -1.174752e-01 -5.515358e-02 -1.120606e-01 2.557785e-01
<VARIANCE> 39
 1.977183e+01 1.811338e+01 1.649971e+01 3.201482e+01 2.730123e+01 3.130103e+01 2.279228e+01 2.170208e+01 2.720963e+01 2.162788e+01 1.470348e+01 1.540046e+01 4.592786e+01 3.187600e+00 2.036835e+00 1.940938e+00 2.353904e+00 3.070117e+00 2.539951e+00 2.314476e+00 2.046228e+00 2.381800e+00 1.911024e+00 1.732794e+00 1.625741e+00 1.371655e+00 3.180880e-01 2.564114e-01 2.790903e-01 3.157875e-01 3.513708e-01 3.965769e-01 3.355718e-01 3.357847e-01 3.401943e-01 3.100934e-01 2.497189e-01 2.418985e-01 2.369066e-01
<GCONST> 1.066902e+02
<STATE> 3
<MEAN> 39
 -2.627709e+00 5.570371e+00 3.735042e+00 -4.261086e+00 -2.002254e+00 -8.735111e+00 -2.553942e+00 -8.401979e-01 -8.473063e-01 -9.843440e-01 -2.509971e+00 -3.842670e+00 6.207993e+01 1.947076e+00 2.114161e-01 -5.440233e-01 -9.386660e-01 -1.255191e+00 -1.357968e+00 -2.863500e-01 2.022157e-01 -6.090127e-01 -6.516614e-01 -2.806143e-01 -3.759416e-01 1.440856e+00 -5.097597e-01 -6.535127e-01 -3.301059e-01 -6.825031e-02 2.210954e-01 4.825617e-01 3.975386e-01 1.171980e-01 9.517442e-03 1.663551e-02 1.976360e-01 2.661301e-01 7.030078e-02
<VARIANCE> 39
 2.372335e+01 3.157096e+01 2.346994e+01 3.591293e+01 6.297084e+01 5.743748e+01 4.094010e+01 2.996159e+01 4.380209e+01 3.404906e+01 2.765014e+01 2.428895e+01 2.373973e+01 3.043851e+00 2.911317e+00 2.144634e+00 2.500066e+00 3.691060e+00 4.259890e+00 3.617183e+00 2.884801e+00 3.085474e+00 2.556156e+00 2.130978e+00 2.043991e+00 1.946775e+00 3.116374e-01 3.417742e-01 3.011217e-01 3.235980e-01 4.441535e-01 5.379052e-01 4.499749e-01 4.365924e-01 4.408146e-01 4.059330e-01 3.528029e-01 3.119449e-01 2.069110e-01
<GCONST> 1.173567e+02
<STATE> 4
<MEAN> 39
 -1.470521e+00 2.883808e-01 -1.486753e+00 -9.486950e+00 -5.932222e+00 -5.875055e+00 2.307393e-01 -4.036272e-01 -4.937407e+00 -4.798994e+00 -1.071042e+00 -1.955401e+00 6.747829e+01 1.246752e-01 -1.931551e+00 -1.000021e+00 -1.662098e-01 6.308725e-01 7.243182e-01 -1.599091e-01 -7.031638e-01 -9.372998e-01 1.120238e-02 7.861634e-01 7.966298e-01 1.326123e+00 -4.807058e-01 -2.374421e-01 2.339867e-01 6.016545e-01 6.327064e-01 4.833663e-02 -3.247433e-01 -2.473874e-01 3.114804e-01 4.786346e-01 1.578838e-01 -4.009961e-02 -1.577242e-01
<VARIANCE> 39
 1.460737e+01 3.189266e+01 2.653016e+01 4.972142e+01 1.250873e+02 8.180955e+01 4.798293e+01 4.788565e+01 6.374945e+01 4.616290e+01 3.650426e+01 3.732485e+01 2.606577e+01 9.328052e-01 1.542555e+00 1.201140e+00 2.853918e+00 4.019320e+00 2.752550e+00 3.421032e+00 3.284762e+00 2.896524e+00 3.431047e+00 2.023643e+00 1.865438e+00 6.579819e-01 2.417271e-01 2.917481e-01 2.420446e-01 3.404764e-01 5.881017e-01 6.828613e-01 6.610420e-01 5.920807e-01 6.354544e-01 4.670494e-01 4.275260e-01 4.763675e-01 1.107985e-01
<GCONST> 1.180643e+02
<TRANSP> 5
 0.000000e+00 1.000000e+00 0.000000e+00 0.000000e+00 0.000000e+00
 0.000000e+00 7.392434e-01 2.607566e-01 0.000000e+00 0.000000e+00
 0.000000e+00 0.000000e+00 6.514261e-01 3.485739e-01 0.000000e+00
 0.000000e+00 0.000000e+00 0.000000e+00 6.148543e-01 3.851457e-01
 0.000000e+00 0.000000e+00 0.000000e+00 0.000000e+00 0.000000e+00
<ENDHMM>
~h "y"
<BEGINHMM>
<NUMSTATES> 5
<STATE> 2
<MEAN> 39
 -2.055950e+01 -3.426973e+00 9.070479e+00 -5.068616e-01 -1.720089e+00 -2.989917e+00 -1.075193e+00 -2.076573e+00 -2.613041e-01 -2.597400e+00 -1.525311e-01 -1.460232e+00 6.758881e+01 1.186298e+00 -2.137239e-01 1.579864e-01 8.251268e-01 -3.104630e-01 -1.031732e+00 -5.054649e-01 -2.933494e-01 -2.692779e-01 -5.235580e-01 -3.841936e-01 -3.170308e-01 2.734490e-02 7.645760e-01 1.707319e-01 -2.163904e-01 1.382621e-01 6.537486e-02 -9.391337e-02 -3.726821e-01 -9.562182e-02 -1.260206e-01 -9.451974e-02 -9.624809e-02 -1.102426e-01 -2.907479e-01
<VARIANCE> 39
 8.707436e+01 4.935987e+01 3.390451e+01 4.274537e+01 8.653025e+01 5.438165e+01 5.273839e+01 3.448222e+01 3.225950e+01 2.525064e+01 2.131953e+01 1.687771e+01 1.750706e+01 4.645799e+00 2.326866e+00 1.898306e+00 2.120768e+00 3.689604e+00 3.908061e+00 3.690302e+00 2.671238e+00 2.547872e+00 1.834778e+00 1.652156e+00 1.252658e+00 1.138536e+00 4.801916e-01 4.292684e-01 3.433715e-01 3.302326e-01 6.066449e-01 5.904521e-01 6.564589e-01 5.148737e-01 4.127807e-01 3.388986e-01 3.043106e-01 2.337269e-01 2.297080e-01
<GCONST> 1.179157e+02
<STATE> 3
<MEAN> 39
 -9.729468e+00 -3.421262e+00 7.853131e+00 3.470944e+00 -1.944195e+00 -7.988094e+00 -6.235561e+00 -4.613946e+00 -2.759237e+00 -5.156004e+00 -2.857678e+00 -3.394737e+00 6.672572e+01 2.307762e+00 5.600667e-01 -6.882036e-01 5.944289e-01 -2.034259e-01 -5.284808e-01 -1.423820e+00 -3.356134e-01 -4.364154e-01 -4.198212e-01 -3.622281e-01 -4.465895e-01 -2.795535e-01 -4.861935e-01 5.028344e-02 -2.080653e-01 -3.453561e-01 1.631393e-01 4.903179e-01 3.829503e-01 1.970828e-01 1.730901e-01 2.714634e-01 2.894390e-01 1.229134e-01 -7.165460e-02
<VARIANCE> 39
 3.926159e+01 2.522235e+01 2.997397e+01 4.239746e+01 1.218424e+02 4.805364e+01 4.098239e+01 3.519527e+01 3.668003e+01 3.325897e+01 2.430291e+01 2.066759e+01 2.214971e+01 3.757597e+00 3.468132e+00 2.696167e+00 2.482507e+00 5.191478e+00 4.748800e+00 5.294629e+00 3.871063e+00 3.793316e+00 2.886874e+00 2.540143e+00 1.930487e+00 1.362405e+00 3.994764e-01 3.709645e-01 3.119387e-01 4.034352e-01 6.857856e-01 7.570171e-01 6.930696e-01 5.279253e-01 4.978128e-01 4.065685e-01 3.622835e-01 2.684064e-01 2.021777e-01
<GCONST> 1.219119e+02
<STATE> 4
<MEAN> 39
 -6.061245e+00 -3.318248e+00 4.453626e+00 2.811088e+00 -3.319545e-01 -8.116748e+00 -7.332367e+00 -3.935400e+00 -4.049445e+00 -5.113489e+00 -1.591698e+00 -3.694499e+00 6.733469e+01 2.231492e-01 4.065390e-01 -3.857843e-01 -3.703829e-01 1.926158e-01 6.227643e-01 2.918281e-01 4.528193e-02 1.530814e-02 2.393498e-01 2.784522e-01 -1.125034e-01 -3.541775e-01 -3.579239e-01 7.013348e-02 1.360499e-01 -1.417598e-01 8.680888e-02 2.728254e-01 3.634354e-01 5.917487e-02 1.211516e-01 1.123949e-01 1.004626e-02 7.752426e-02 -1.179671e-01
<VARIANCE> 39
 2.946740e+01 2.949067e+01 3.664266e+01 4.763439e+01 1.499079e+02 6.675743e+01 4.965873e+01 4.567411e+01 5.725800e+01 5.240313e+01 3.508920e+01 3.322556e+01 2.230516e+01 9.446856e-01 1.579018e+00 1.728224e+00 2.072221e+00 3.011081e+00 3.475336e+00 2.735229e+00 2.564206e+00 2.796910e+00 2.307424e+00 2.010199e+00 1.674430e+00 1.138832e+00 2.465713e-01 2.515067e-01 2.772605e-01 3.170444e-01 5.213803e-01 5.548808e-01 5.760240e-01 4.858699e-01 5.295978e-01 4.393013e-01 3.775024e-01 3.120190e-01 1.479681e-01
<GCONST> 1.169661e+02
<TRANSP> 5
 0.000000e+00 1.000000e+00 0.000000e+00 0.000000e+00 0.000000e+00
 0.000000e+00 5.883982e-01 4.116018e-01 0.000000e+00 0.000000e+00
 0.000000e+00 0.000000e+00 4.282573e-01 5.717427e-01 0.000000e+00
 0.000000e+00 0.000000e+00 0.000000e+00 6.431649e-01 3.568351e-01
