~o
<STREAMINFO> 1 39
<VECSIZE> 39<NULLD><MFCC_D_A_0><DIAGC>
~s "silst"
<MEAN> 39
 0.000000e+00 0.000000e+00 0.000000e+00 0.000000e+00 0.000000e+00 0.000000e+00 0.000000e+00 0.000000e+00 0.000000e+00 0.000000e+00 0.000000e+00 0.000000e+00 0.000000e+00 0.000000e+00 0.000000e+00 0.000000e+00 0.000000e+00 0.000000e+00 0.000000e+00 0.000000e+00 0.000000e+00 0.000000e+00 0.000000e+00 0.000000e+00 0.000000e+00 0.000000e+00 0.000000e+00 0.000000e+00 0.000000e+00 0.000000e+00 0.000000e+00 0.000000e+00 0.000000e+00 0.000000e+00 0.000000e+00 0.000000e+00 0.000000e+00 0.000000e+00 0.000000e+00
<VARIANCE> 39
 1.000000e+00 1.000000e+00 1.000000e+00 1.000000e+00 1.000000e+00 1.000000e+00 1.000000e+00 1.000000e+00 1.000000e+00 1.000000e+00 1.000000e+00 1.000000e+00 1.000000e+00 1.000000e+00 1.000000e+00 1.000000e+00 1.000000e+00 1.000000e+00 1.000000e+00 1.000000e+00 1.000000e+00 1.000000e+00 1.000000e+00 1.000000e+00 1.000000e+00 1.000000e+00 1.000000e+00 1.000000e+00 1.000000e+00 1.000000e+00 1.000000e+00 1.000000e+00 1.000000e+00 1.000000e+00 1.000000e+00 1.000000e+00 1.000000e+00 1.000000e+00 1.000000e+00
<GCONST> 7.167721e+01
~h "@"
<BEGINHMM>
<NUMSTATES> 5
<STATE> 2
<MEAN> 39
 -1.526890e+00 -7.682889e+00 -7.138412e+00 -8.896329e+00 -3.390423e+00 -1.182243e+00 -8.062387e+00 -2.622759e+00 -2.371847e+00 -4.157067e+00 -5.195968e+00 -6.453254e+00 6.616107e+01 1.048073e+00 -1.589501e+00 -1.487307e+00 -1.542762e+00 4.001543e-01 1.352643e+00 -4.957444e-02 4.799627e-01 1.509066e-01 -3.311037e-01 -1.176006e-01 -6.663228e-01 8.592541e-01 -4.060779e-01 3.254266e-01 3.620233e-01 5.078323e-01 2.865989e-01 6.337728e-03 9.023093e-02 -2.587880e-01 -1.298663e-01 1.176750e-01 2.581042e-01 1.495680e-01 -3.613234e-01
<VARIANCE> 39
 1.988065e+01 3.115360e+01 2.748463e+01 4.477145e+01 3.796482e+01 6.650594e+01 4.686140e+01 4.134633e+01 4.374882e+01 4.984834e+01 4.500986e+01 2.621099e+01 1.981437e+01 2.569838e+00 2.023916e+00 2.112613e+00 3.562322e+00 3.909620e+00 3.360325e+00 3.516177e+00 4.127792e+00 4.015898e+00 2.889855e+00 2.925206e+00 2.006576e+00 8.640788e-01 3.131470e-01 3.442482e-01 2.795139e-01 4.169405e-01 5.094354e-01 6.158550e-01 5.731275e-01 5.920752e-01 4.689819e-01 5.409289e-01 4.513917e-01 3.439875e-01 1.656384e-01
<GCONST> 1.197150e+02
<STATE> 3
<MEAN> 39
 -3.356946e-02 -8.227911e+00 -8.162877e+00 -8.724201e+00 -6.025385e-01 1.829337e+00 -7.096583e+00 -2.769712e+00 -3.405099e+00 -3.718275e+00 -3.753152e+00 -6.634496e+00 6.561494e+01 6.021251e-02 2.256714e-01 7.687421e-02 7.679202e-02 -3.205065e-02 -3.807877e-02 1.179128e-01 -1.226843e-01 -1.537289e-01 1.974775e-02 -1.865391e-02 8.882637e-02 -1.900738e-01 -4.449876e-02 2.755400e-01 2.665863e-01 2.146863e-01 -2.069331e-01 -2.788973e-01 4.216015e-02 -3.856539e-02 -4.951816e-02 7.993460e-02 -6.265670e-02 6.441496e-02 -1.701209e-01
<VARIANCE> 39
 1.541947e+01 2.905633e+01 2.284420e+01 5.236107e+01 3.593937e+01 6.825143e+01 6.115268e+01 4.132145e+01 6.280492e+01 3.704527e+01 4.098992e+01 2.730304e+01 2.244055e+01 2.437145e-01 5.892682e-01 7.337985e-01 8.494433e-01 1.295045e+00 1.336184e+00 1.337338e+00 1.229530e+00 1.230932e+00 1.117889e+00 1.188488e+00 9.987466e-01 2.230954e-01 5.347314e-02 1.269550e-01 1.444228e-01 2.399753e-01 2.329526e-01 2.250189e-01 2.223486e-01 2.546667e-01 2.412763e-01 2.101758e-01 2.093361e-01 1.766334e-01 4.945251e-02
<GCONST> 9.255454e+01
<STATE> 4
<MEAN> 39
 -3.615435e-01 -4.803732e+00 -5.560554e+00 -6.892579e+00 -3.074718e+00 -9.673160e-01 -5.315113e+00 -4.315173e+00 -4.252665e+00 -3.143890e+00 -4.839009e+00 -6.206818e+00 6.216151e+01 -3.446698e-01 1.781576e+00 1.405307e+00 1.535180e+00 -5.554700e-01 -1.069474e+00 5.095218e-01 -5.398405e-01 -3.085912e-01 2.343710e-01 -1.840414e-01 3.365794e-01 -1.327201e+00 -3.651052e-01 2.773934e-01 2.266170e-01 3.760030e-01 1.474895e-01 1.648035e-02 1.035688e-01 -6.377605e-02 1.702164e-02 -1.175750e-02 1.098349e-01 1.100186e-01 -2.627317e-01
<VARIANCE> 39
 2.103786e+01 3.320323e+01 2.899552e+01 5.925506e+01 4.207063e+01 7.224281e+01 6.413506e+01 5.169993e+01 4.028257e+01 4.936088e+01 4.609278e+01 2.469311e+01 4.423614e+01 1.185944e+00 1.896337e+00 1.827830e+00 3.037241e+00 2.842121e+00 2.715454e+00 3.252941e+00 3.207670e+00 3.048380e+00 2.422251e+00 2.365100e+00 1.862027e+00 1.080540e+00 2.909659e-01 3.239442e-01 3.365807e-01 4.674980e-01 4.485013e-01 5.005185e-01 5.751237e-01 5.910795e-01 4.354702e-01 4.299812e-01 4.502279e-01 3.191605e-01 1.993933e-01
<GCONST> 1.186834e+02
<TRANSP> 5
 0.000000e+00 1.000000e+00 0.000000e+00 0.000000e+00 0.000000e+00
 0.000000e+00 6.522725e-01 3.477275e-01 0.000000e+00 0.000000e+00
 0.000000e+00 0.000000e+00 8.165522e-01 1.834477e-01 0.000000e+00
 0.000000e+00 0.000000e+00 0.000000e+00 6.954803e-01 3.045197e-01
 0.000000e+00 0.000000e+00 0.000000e+00 0.000000e+00 0.000000e+00
<ENDHMM>
~h "E"
<BEGINHMM>
<NUMSTATES> 5
<STATE> 2
<MEAN> 39
 -7.741541e+00 -1.718776e+00 6.199923e-01 -2.503140e+00 -8.481242e+00 -5.826767e+00 -3.232699e+00 -1.321157e+00 -8.930049e-01 -1.580993e+00 -2.010456e+00 -1.934322e+00 5.763868e+01 1.245424e+00 -6.702515e-01 6.482046e-01 -5.667230e-01 -1.198468e+00 -1.048021e+00 -5.416833e-01 1.549629e-01 -3.581534e-01 -5.553392e-01 -5.768641e-01 -4.737671e-01 1.237997e+00 -1.201434e-01 -9.516466e-02 -9.171048e-02 -7.537464e-02 1.735536e-02 1.700419e-01 1.411038e-01 1.096386e-01 -5.937903e-02 2.816362e-02 6.392781e-02 7.479125e-02 1.182289e-02
<VARIANCE> 39
 4.153743e+01 4.359108e+01 3.808570e+01 6.254264e+01 5.578930e+01 5.410846e+01 5.426414e+01 4.709049e+01 4.056519e+01 4.050266e+01 3.352177e+01 2.645616e+01 1.217021e+02 6.392235e+00 3.705410e+00 3.527913e+00 4.899746e+00 5.229962e+00 5.129111e+00 4.976549e+00 4.310490e+00 4.262015e+00 3.368268e+00 3.022862e+00 2.159459e+00 7.272433e+00 6.184521e-01 5.278284e-01 4.274075e-01 5.626617e-01 7.235311e-01 6.414921e-01 6.976763e-01 5.757996e-01 6.029315e-01 5.933623e-01 4.231459e-01 3.614014e-01 8.886786e-01
<GCONST> 1.334527e+02
<STATE> 3
<MEAN> 39
 -4.458313e+00 -8.236948e+00 8.333658e-01 -7.373606e+00 -1.304144e+01 -9.139300e+00 -5.932164e+00 -1.718691e-01 -2.796140e+00 -3.706279e+00 -4.961467e+00 -3.129950e+00 6.707041e+01 1.766566e-01 -9.072260e-01 1.414918e-01 -3.355510e-01 -7.244021e-01 -4.112481e-02 5.001877e-01 5.499069e-01 -1.222351e-01 -4.194209e-01 -4.312087e-02 -4.040026e-02 6.903021e-01 -3.718446e-01 4.477916e-01 -6.876644e-02 2.875348e-01 4.798979e-01 4.539196e-01 1.968274e-01 -2.530723e-01 1.253005e-02 1.122818e-01 2.478439e-01 1.337239e-01 -5.357408e-01
<VARIANCE> 39
 1.699841e+01 4.895041e+01 4.423084e+01 6.729556e+01 4.936568e+01 4.934311e+01 5.255833e+01 5.091992e+01 4.867737e+01 4.912520e+01 4.102732e+01 3.045306e+01 2.687681e+01 1.577486e+00 2.074238e+00 2.428412e+00 2.282896e+00 3.054075e+00 2.802749e+00 3.306829e+00 3.002504e+00 2.398988e+00 3.285735e+00 2.178040e+00 1.687883e+00 1.113326e+00 4.321882e-01 3.546901e-01 3.757457e-01 5.817983e-01 6.229888e-01 6.038915e-01 6.613950e-01 6.236573e-01 5.971313e-01 5.428343e-01 4.386677e-01 3.630543e-01 2.724512e-01
<GCONST> 1.215826e+02
<STATE> 4
<MEAN> 39
 -4.596357e+00 -7.170335e+00 5.193531e-01 -5.940349e+00 -1.347865e+01 -7.921592e+00 -3.221102e+00 2.606060e-01 -2.333364e+00 -5.024729e+00 -3.118827e+00 -3.214760e+00 6.690018e+01 -6.088816e-02 3.894709e-01 2.144285e-01 2.543038e-01 3.378155e-02 -5.892136e-03 -5.327702e-02 -2.058884e-01 -1.508064e-01 -5.216445e-02 9.707422e-02 1.542673e-01 -4.032944e-01 -2.896199e-02 1.989962e-01 2.537020e-02 1.541693e-01 2.239929e-01 2.885607e-02 -8.147759e-02 -9.681107e-02 2.254105e-02 5.287964e-02 1.878075e-03 3.510292e-02 -2.542178e-01
<VARIANCE> 39
 1.526817e+01 5.085981e+01 4.364806e+01 8.164491e+01 4.152753e+01 3.998610e+01 5.359221e+01 6.391911e+01 4.446548e+01 4.651038e+01 3.265882e+01 2.581495e+01 2.881363e+01 4.199721e-01 1.060070e+00 1.142530e+00 1.244082e+00 1.665249e+00 1.500132e+00 1.654995e+00 1.716266e+00 1.489868e+00 1.433520e+00 1.262783e+00 1.203478e+00 8.081950e-01 9.848317e-02 1.548609e-01 1.675964e-01 2.291777e-01 2.846166e-01 2.699553e-01 2.965613e-01 3.065033e-01 2.598145e-01 2.528029e-01 2.130877e-01 1.891451e-01 1.396448e-01
<GCONST> 1.019535e+02
<TRANSP> 5
 0.000000e+00 1.000000e+00 0.000000e+00 0.000000e+00 0.000000e+00
 0.000000e+00 5.973012e-01 4.026988e-01 0.000000e+00 0.000000e+00
 0.000000e+00 0.000000e+00 5.394264e-01 4.605736e-01 0.000000e+00
 0.000000e+00 0.000000e+00 0.000000e+00 8.222573e-01 1.777427e-01
 0.000000e+00 0.000000e+00 0.000000e+00 0.000000e+00 0.000000e+00
<ENDHMM>
~h "N"
<BEGINHMM>
<NUMSTATES> 5
<STATE> 2
<MEAN> 39
 -3.713464e+00 -8.579180e-01 -3.130747e+00 -4.588085e+00 -4.386378e+00 -6.034750e+00 -6.576788e+00 -4.554403e+00 -4.222765e+00 -2.621933e+00 -5.160785e+00 -5.154538e+00 6.220920e+01 1.546073e+00 -1.167896e+00 -1.617911e+00 -2.411160e+00 8.434422e-02 1.357876e+00 -9.709436e-01 5.650571e-01 3.248379e-03 -3.560084e-01 -1.018254e-01 -1.100859e+00 1.537130e+00 -7.060245e-02 -2.168567e-01 5.962916e-02 -6.809644e-02 2.820478e-02 6.672756e-01 3.891460e-01 3.423448e-02 -7.949967e-02 1.539705e-02 3.103421e-01 2.860318e-01 -3.242013e-01
<VARIANCE> 39
 3.380353e+01 2.591098e+01 4.241122e+01 5.890921e+01 3.605127e+01 5.896077e+01 4.210100e+01 4.023168e+01 4.067483e+01 4.571101e+01 4.484256e+01 2.062613e+01 3.546056e+01 6.379738e+00 3.233105e+00 5.173871e+00 4.033148e+00 5.684474e+00 5.535234e+00 4.883637e+00 6.470578e+00 5.275362e+00 4.251353e+00 3.593629e+00 2.545356e+00 1.934657e+00 5.972080e-01 3.915320e-01 5.369463e-01 6.062682e-01 6.732005e-01 7.863674e-01 7.204844e-01 9.675738e-01 5.768494e-01 5.876413e-01 4.887448e-01 3.980677e-01 2.977484e-01
<GCONST> 1.307463e+02
<STATE> 3
<MEAN> 39
 -1.074417e+00 -7.267638e+00 -7.752964e+00 -1.236717e+01 -2.713644e+00 1.122878e+00 -8.358180e+00 -3.292460e+00 -5.009596e+00 -4.105675e+00 -3.054783e+00 -6.349110e+00 6.602152e+01 4.740581e-01 -3.468761e-01 -5.089980e-01 -1.238198e+00 1.723356e-02 1.658660e+00 7.527758e-01 -1.069072e-01 -5.307469e-01 -5.721851e-01 7.850076e-01 3.136854e-01 -2.117349e-01 -1.960548e-01 4.979111e-01 4.525962e-01 4.725546e-01 -1.611118e-01 -4.862122e-01 3.632549e-01 -6.445298e-02 -2.879614e-02 -5.183094e-02 -1.153836e-01 2.676220e-01 -4.460893e-01
<VARIANCE> 39
 1.666037e+01 3.010337e+01 3.078334e+01 6.104480e+01 4.984254e+01 8.206860e+01 4.665755e+01 3.673859e+01 4.125100e+01 4.666697e+01 4.641302e+01 2.021531e+01 2.330094e+01 5.513822e-01 1.762332e+00 1.622128e+00 2.133604e+00 3.170869e+00 3.286588e+00 2.501149e+00 2.611778e+00 2.357700e+00 2.161959e+00 1.975270e+00 1.695685e+00 9.649700e-01 2.490737e-01 2.445474e-01 2.958119e-01 3.830701e-01 5.305650e-01 5.660037e-01 4.876634e-01 6.681994e-01 5.884358e-01 4.149782e-01 4.259763e-01 2.978851e-01 1.605686e-01
<GCONST> 1.143836e+02
<STATE> 4
<MEAN> 39
 -7.978565e-01 -2.217071e+00 -5.087944e+00 -8.689350e+00 -4.315788e+00 1.995596e+00 -5.447756e-01 -2.421995e+00 -4.347962e+00 -3.625362e+00 -1.900797e+00 -3.152694e+00 5.769726e+01 -2.122754e-01 4.266300e-01 4.304851e-01 6.674281e-01 6.338292e-02 -3.996654e-01 3.121405e-01 7.835908e-03 2.107063e-01 2.606857e-01 -1.466708e-01 1.592374e-01 -8.310741e-01 -1.721796e-01 5.662905e-02 8.641309e-02 2.956447e-01 1.275301e-01 -1.164190e-01 -1.259029e-01 -3.888036e-02 9.994204e-02 1.274295e-01 -5.250015e-03 -3.966469e-02 -6.901090e-02
<VARIANCE> 39
 3.062828e+01 2.667354e+01 2.998001e+01 8.699482e+01 4.664333e+01 5.859407e+01 5.057555e+01 4.324067e+01 4.585700e+01 4.466614e+01 3.278614e+01 2.522146e+01 8.106970e+01 5.946850e-01 1.141005e+00 1.144121e+00 2.376287e+00 1.922079e+00 2.089300e+00 2.216622e+00 2.310571e+00 2.068553e+00 1.900345e+00 1.443163e+00 1.286705e+00 1.535739e+00 1.589037e-01 1.768372e-01 2.015180e-01 3.945178e-01 3.469895e-01 4.307263e-01 3.636094e-01 4.197658e-01 3.820870e-01 3.443935e-01 2.711990e-01 2.473579e-01 1.436446e-01
<GCONST> 1.100885e+02
<TRANSP> 5
 0.000000e+00 1.000000e+00 0.000000e+00 0.000000e+00 0.000000e+00
 0.000000e+00 5.582379e-01 4.417621e-01 0.000000e+00 0.000000e+00
 0.000000e+00 0.000000e+00 6.850174e-01 3.149826e-01 0.000000e+00
 0.000000e+00 0.000000e+00 0.000000e+00 8.549602e-01 1.450398e-01
 0.000000e+00 0.000000e+00 0.000000e+00 0.000000e+00 0.000000e+00
<ENDHMM>
~h "O"
<BEGINHMM>
<NUMSTATES> 5
<STATE> 2
<MEAN> 39
 -2.052124e+00 -4.307149e+00 -4.467900e+00 -8.067373e+00 -7.912352e+00 -3.196254e+00 -8.972733e+00 -3.176948e+00 3.759661e-02 -1.864719e+00 -4.007148e+00 -3.776428e+00 6.494822e+01 1.261403e+00 -1.479345e+00 -8.341433e-01 -1.403304e+00 -6.640288e-01 -2.858487e-02 -6.693861e-01 6.615376e-01 6.257422e-01 -1.972881e-01 -9.599399e-01 -7.709053e-01 1.403293e+00 -5.065635e-01 2.694193e-01 1.892156e-01 5.790495e-01 4.987772e-01 2.460751e-01 4.541926e-01 8.265087e-02 -8.594491e-02 1.271726e-04 1.295375e-01 1.810306e-01 -6.347800e-01
<VARIANCE> 39
 1.939956e+01 3.224715e+01 4.513783e+01 6.578908e+01 3.855819e+01 9.393132e+01 4.449043e+01 4.849012e+01 3.663416e+01 4.523442e+01 5.476874e+01 3.032643e+01 2.083729e+01 3.698266e+00 1.873009e+00 2.799462e+00 3.831700e+00 3.257668e+00 5.253225e+00 4.218003e+00 4.635941e+00 3.425428e+00 3.756505e+00 3.348111e+00 2.374322e+00 1.199151e+00 5.109567e-01 4.298031e-01 4.299853e-01 6.011785e-01 4.507176e-01 7.500244e-01 5.928581e-01 7.739931e-01 5.427974e-01 6.153638e-01 6.588314e-01 4.056207e-01 3.505543e-01
<GCONST> 1.265821e+02
<STATE> 3
<MEAN> 39
 -1.096217e+00 -6.103058e+00 -5.799185e+00 -6.550814e+00 -6.322224e+00 -9.961861e-01 -7.299766e+00 -7.327963e-01 1.805233e+00 -2.477424e+00 -4.384001e+00 -5.409302e+00 6.539896e+01 8.319949e-02 1.297009e-01 -2.208031e-01 3.461663e-02 5.656387e-01 1.968446e-01 1.672765e-01 -2.102494e-01 -4.940196e-02 -1.220415e-01 -1.957016e-01 -2.852081e-02 -2.531379e-01 -9.712078e-02 3.596811e-01 3.319907e-01 3.019610e-01 2.702257e-02 -1.129423e-01 7.022469e-02 -2.143622e-01 -2.954277e-01 9.815191e-03 1.238221e-01 1.783002e-01 -3.154695e-01
<VARIANCE> 39
 1.013771e+01 2.910041e+01 3.332899e+01 6.939130e+01 3.634024e+01 7.529866e+01 4.518175e+01 4.793412e+01 3.876892e+01 4.783191e+01 4.986427e+01 3.103027e+01 1.538788e+01 2.970774e-01 6.829029e-01 1.142726e+00 1.132119e+00 1.336375e+00 2.052970e+00 1.430441e+00 1.886245e+00 1.765359e+00 1.537313e+00 1.487401e+00 1.303805e+00 3.083391e-01 1.591071e-01 1.812778e-01 1.543671e-01 2.987751e-01 2.893663e-01 3.090177e-01 3.424135e-01 4.073339e-01 2.990114e-01 3.040729e-01 2.592845e-01 2.450460e-01 9.099632e-02
<GCONST> 1.008993e+02
<STATE> 4
<MEAN> 39
 -1.466699e+00 -3.194626e+00 -3.793474e+00 -6.473424e+00 -5.913284e+00 -3.184848e+00 -7.600715e+00 -3.271473e+00 -1.333026e+00 -4.504591e+00 -5.924269e+00 -3.435128e+00 6.232952e+01 -3.308548e-01 1.592154e+00 1.276297e+00 1.768648e+00 3.435858e-01 -4.341139e-01 4.550061e-01 -9.180498e-01 -1.006434e+00 -9.009764e-02 1.745545e-01 4.217658e-01 -1.391096e+00 -3.328204e-01 1.904857e-01 2.374780e-01 4.111240e-01 1.181968e-01 1.739434e-02 2.458461e-01 -1.075229e-01 -2.656881e-02 1.183069e-01 1.653110e-01 -1.210833e-02 -2.187167e-01
<VARIANCE> 39
 1.561714e+01 3.179930e+01 3.334037e+01 5.925366e+01 2.758336e+01 1.045443e+02 5.507990e+01 4.639313e+01 4.608524e+01 5.430779e+01 4.751055e+01 3.291051e+01 2.838146e+01 1.305795e+00 1.495921e+00 1.716487e+00 2.289539e+00 3.116642e+00 3.612844e+00 2.976058e+00 3.081475e+00 2.578617e+00 2.668006e+00 2.197418e+00 1.916399e+00 5.862147e-01 2.771200e-01 3.067676e-01 2.857273e-01 3.613373e-01 3.128524e-01 5.265128e-01 4.669079e-01 5.967608e-01 4.406023e-01 5.161368e-01 3.912682e-01 3.312611e-01 1.288619e-01
<GCONST> 1.159295e+02
<TRANSP> 5
 0.000000e+00 1.000000e+00 0.000000e+00 0.000000e+00 0.000000e+00
 0.000000e+00 5.748087e-01 4.251913e-01 0.000000e+00 0.000000e+00
 0.000000e+00 0.000000e+00 7.671795e-01 2.328205e-01 0.000000e+00
 0.000000e+00 0.000000e+00 0.000000e+00 5.671406e-01 4.328593e-01
 0.000000e+00 0.000000e+00 0.000000e+00 0.000000e+00 0.000000e+00
<ENDHMM>
~h "R"
<BEGINHMM>
<NUMSTATES> 5
<STATE> 2
<MEAN> 39
 -4.772823e+00 -4.683062e+00 -3.857463e+00 -6.264815e+00 -4.899666e+00 -2.764856e+00 -6.678299e+00 -3.625417e+00 -4.011887e-01 -2.173736e+00 -4.379625e+00 -2.107277e+00 6.203990e+01 -5.159844e-01 4.643072e-01 2.382877e-01 4.741958e-01 1.041240e+00 5.466101e-01 -1.548493e-01 -5.455984e-02 2.064740e-01 2.635185e-01 4.300341e-02 2.996797e-01 -7.820541e-01 -3.309037e-01 1.616221e-01 2.145450e-01 3.706132e-01 1.279885e-01 1.340541e-02 3.115264e-01 1.539166e-01 -1.013997e-01 -1.266641e-02 1.302285e-01 6.036469e-04 -3.036346e-01
<VARIANCE> 39
 3.923610e+01 4.527431e+01 3.138176e+01 7.693571e+01 4.903980e+01 7.555592e+01 6.041658e+01 4.343447e+01 4.853640e+01 7.141994e+01 4.912814e+01 3.409108e+01 4.661773e+01 2.319580e+00 2.717612e+00 2.243366e+00 4.684403e+00 4.357607e+00 3.762299e+00 3.536505e+00 3.548935e+00 2.979785e+00 3.445788e+00 3.070003e+00 2.418276e+00 1.998508e+00 3.569851e-01 3.818842e-01 3.424815e-01 5.939063e-01 6.129268e-01 6.105956e-01 6.032447e-01 5.800400e-01 5.889312e-01 6.926907e-01 5.712744e-01 4.564002e-01 3.099961e-01
<GCONST> 1.279711e+02
<STATE> 3
<MEAN> 39
 -8.218814e+00 -2.841936e+00 -2.956647e+00 -1.359531e+00 5.140284e-01 -3.714300e-01 -5.717745e+00 -3.327511e+00 1.430890e-01 -1.899937e+00 -4.114504e+00 -1.943929e+00 5.820503e+01 -1.415680e+00 1.724407e-01 3.161658e-01 1.011353e+00 1.050029e+00 3.395300e-01 5.752505e-01 5.828871e-01 2.026742e-01 3.526210e-01 4.254140e-01 2.858916e-01 -8.773232e-01 2.161773e-01 -1.366343e-01 -5.050554e-02 -3.299758e-01 -5.702966e-01 -2.169977e-01 1.676206e-01 6.949639e-02 -3.514028e-02 -6.153195e-02 8.869644e-02 -7.756023e-02 1.644697e-01
<VARIANCE> 39
 4.501411e+01 3.349083e+01 3.436945e+01 6.196841e+01 5.588276e+01 6.421165e+01 5.208482e+01 3.801881e+01 3.680823e+01 4.836749e+01 3.368068e+01 2.510028e+01 4.362428e+01 2.833129e+00 2.803274e+00 2.698960e+00 3.697346e+00 3.670986e+00 3.949637e+00 3.511152e+00 3.266636e+00 3.417826e+00 4.028697e+00 2.624089e+00 2.193638e+00 1.609609e+00 4.190538e-01 4.092178e-01 3.833070e-01 6.337189e-01 7.154251e-01 5.624508e-01 6.040125e-01 5.864111e-01 5.638931e-01 5.712499e-01 4.556703e-01 3.689327e-01 2.843419e-01
<GCONST> 1.254707e+02
<STATE> 4
<MEAN> 39
 -1.095444e+01 -3.069136e+00 -3.568206e+00 -1.360670e-01 1.642426e+00 9.496457e-01 -1.743051e+00 -7.664899e-01 2.071717e+00 3.032887e-01 -9.319014e-01 -2.331287e-01 5.299601e+01 2.936848e-01 3.553863e-01 3.304332e-01 -1.148537e-01 -6.253891e-01 -3.727144e-01 1.461742e-01 -1.204102e-01 -2.328354e-01 -2.495708e-01 9.207602e-02 -9.670025e-02 -2.764433e-01 4.360918e-01 2.096194e-02 5.811687e-02 -2.838991e-01 -4.224989e-01 -1.861565e-01 -1.331789e-01 -2.055880e-01 -1.884092e-01 -1.696832e-01 -1.382295e-01 -1.469372e-01 2.262921e-01
<VARIANCE> 39
 4.063344e+01 3.318062e+01 4.194030e+01 4.492804e+01 4.855716e+01 5.097446e+01 5.205322e+01 3.769765e+01 3.150185e+01 3.405714e+01 3.049277e+01 2.404156e+01 8.209979e+01 2.871013e+00 2.334744e+00 2.327612e+00 2.854883e+00 3.214738e+00 2.955239e+00 3.012805e+00 2.854496e+00 2.664785e+00 2.848332e+00 2.410670e+00 1.808644e+00 2.533829e+00 5.128418e-01 4.893422e-01 4.255323e-01 6.076565e-01 6.909310e-01 6.358098e-01 5.979390e-01 6.102912e-01 4.696023e-01 5.189375e-01 4.689987e-01 3.542253e-01 4.027094e-01
<GCONST> 1.237508e+02
<TRANSP> 5
 0.000000e+00 1.000000e+00 0.000000e+00 0.000000e+00 0.000000e+00
 0.000000e+00 4.268951e-01 5.731049e-01 0.000000e+00 0.000000e+00
 0.000000e+00 0.000000e+00 3.353336e-01 6.646664e-01 0.000000e+00
 0.000000e+00 0.000000e+00 0.000000e+00 6.165627e-01 3.834373e-01
 0.000000e+00 0.000000e+00 0.000000e+00 0.000000e+00 0.000000e+00
<ENDHMM>
~h "S"
<BEGINHMM>
<NUMSTATES> 5
<STATE> 2
<MEAN> 39
 -1.481007e+01 1.161521e+00 7.541799e+00 -5.450979e-01 -4.700741e+00 -1.299268e+00 -2.921914e-01 -9.694001e-01 -1.344129e+00 -4.416871e+00 -1.685310e+00 -1.577742e+00 6.212275e+01 -4.919543e+00 2.211670e-01 1.797468e-01 -5.669837e-02 1.704928e+00 1.449938e+00 1.117376e+00 6.686646e-01 1.180006e+00 4.749112e-01 9.343818e-01 1.903974e-01 3.078481e-01 -1.434851e-01 -3.802345e-01 -4.596464e-01 -3.867614e-01 -2.062990e-01 -7.212045e-02 -1.874625e-01 -1.774581e-02 9.192896e-02 2.725798e-01 8.944594e-02 7.052269e-03 1.264931e-01
<VARIANCE> 39
 6.613060e+01 2.843761e+01 3.143602e+01 5.249667e+01 2.554181e+01 3.124098e+01 3.568213e+01 3.939576e+01 4.098072e+01 2.311849e+01 1.927751e+01 1.567290e+01 1.489289e+01 2.353983e+00 2.739971e+00 3.772388e+00 3.064629e+00 3.156611e+00 2.969926e+00 3.431905e+00 4.132204e+00 2.835992e+00 3.456827e+00 1.961796e+00 1.655748e+00 8.368768e-01 1.115296e+00 2.948296e-01 3.585184e-01 3.852371e-01 5.049272e-01 5.248306e-01 5.261717e-01 4.885573e-01 4.396338e-01 3.539395e-01 2.655000e-01 3.014491e-01 1.547438e-01
<GCONST> 1.162754e+02
<STATE> 3
<MEAN> 39
 -2.899832e+01 -1.158778e-01 5.097155e+00 -4.602383e+00 -1.904987e+00 7.091331e-01 5.939193e-01 -2.307079e-01 1.813150e+00 -1.442434e+00 1.836241e+00 1.401348e-01 6.348143e+01 -6.875830e-01 -2.371648e-01 -3.793095e-01 -3.986182e-01 -6.669116e-02 -1.428581e-01 -1.116350e-01 2.520042e-02 3.008905e-01 1.689642e-01 2.555669e-01 3.013284e-01 -5.228600e-02 8.618367e-01 2.034776e-03 7.761888e-02 9.441206e-02 -2.399179e-01 -2.484306e-01 -1.552798e-01 -7.712696e-02 -1.772012e-01 -1.865136e-01 -2.315312e-01 -7.155757e-02 -1.429071e-01
<VARIANCE> 39
 1.181617e+01 2.428002e+01 2.186950e+01 3.468534e+01 2.144370e+01 2.158957e+01 2.169251e+01 1.760884e+01 2.361694e+01 1.642614e+01 1.195012e+01 1.070997e+01 1.288090e+01 2.578980e+00 8.835583e-01 1.062700e+00 1.033214e+00 1.209527e+00 1.190892e+00 9.890517e-01 1.187795e+00 1.177698e+00 1.202078e+00 1.082118e+00 8.297995e-01 3.916258e-01 3.560829e-01 1.720648e-01 2.159969e-01 2.283990e-01 2.527984e-01 2.848007e-01 2.544641e-01 2.679428e-01 2.419758e-01 2.432780e-01 2.039257e-01 1.673949e-01 9.283676e-02
<GCONST> 9.045976e+01
<STATE> 4
<MEAN> 39
 -2.385691e+01 -2.125764e+00 3.971370e+00 -3.853186e+00 -4.188413e+00 -1.615028e+00 -5.798005e-01 -1.064076e-01 2.922477e+00 -2.607691e+00 6.174574e-01 5.405366e-01 6.153799e+01 4.242472e+00 -2.908300e-01 -4.328879e-01 -1.206032e-01 -1.223231e+00 -1.290116e+00 -1.428675e+00 -2.788180e-01 -5.260628e-01 -6.823085e-01 -1.181931e+00 -7.104841e-01 -4.000491e-01 1.017761e+00 -1.115477e-01 -1.410549e-01 -1.620606e-01 -2.377653e-01 -8.144154e-02 -2.430546e-01 -1.344409e-02 -1.938633e-01 4.395879e-02 -2.483799e-01 -2.761785e-01 1.522635e-01
<VARIANCE> 39
 4.575436e+01 2.174141e+01 1.721410e+01 3.250606e+01 2.691193e+01 2.941522e+01 2.290358e+01 2.348000e+01 2.811396e+01 2.505358e+01 1.897219e+01 1.371948e+01 2.464870e+01 8.087018e+00 2.595551e+00 2.289797e+00 2.387513e+00 3.139855e+00 3.109943e+00 2.493476e+00 2.173154e+00 1.551856e+00 2.516824e+00 2.607813e+00 1.606689e+00 1.465477e+00 8.910253e-01 4.380043e-01 2.909773e-01 4.212358e-01 3.813410e-01 5.764452e-01 4.315552e-01 3.923556e-01 3.183084e-01 4.225099e-01 5.134040e-01 2.725184e-01 4.462433e-01
<GCONST> 1.139702e+02
<TRANSP> 5
 0.000000e+00 1.000000e+00 0.000000e+00 0.000000e+00 0.000000e+00
 0.000000e+00 7.134845e-01 2.865155e-01 0.000000e+00 0.000000e+00
 0.000000e+00 0.000000e+00 8.293181e-01 1.706819e-01 0.000000e+00
 0.000000e+00 0.000000e+00 0.000000e+00 5.639622e-01 4.360378e-01
 0.000000e+00 0.000000e+00 0.000000e+00 0.000000e+00 0.000000e+00
<ENDHMM>
~h "Z"
<BEGINHMM>
<NUMSTATES> 5
<STATE> 2
<MEAN> 39
 -8.698157e+00 1.917701e+00 5.412416e+00 -1.871079e+00 -6.783269e+00 -5.158266e+00 -7.115286e+00 -5.956588e+00 -1.704075e+00 -4.262471e+00 -2.059091e+00 -2.517622e+00 6.175629e+01 -3.676298e+00 1.571803e+00 1.779903e+00 9.021910e-01 1.184152e+00 2.376877e-01 8.883710e-01 -1.584865e-01 7.242100e-01 -4.655867e-01 2.918464e-01 1.020197e-01 2.508471e-01 -3.682950e-01 -1.765791e-01 -3.835766e-02 -4.307340e-02 1.300311e-01 3.495397e-01 2.161879e-01 2.264437e-01 -3.872017e-02 7.664744e-02 -5.165219e-02 -6.006263e-02 5.576083e-03
<VARIANCE> 39
 4.927311e+01 3.098787e+01 3.958460e+01 7.381367e+01 3.644536e+01 4.472887e+01 5.562754e+01 4.113955e+01 3.775816e+01 3.216693e+01 2.957864e+01 2.553574e+01 3.024518e+01 2.722385e+00 3.271050e+00 2.770038e+00 2.665797e+00 3.000360e+00 4.431956e+00 4.647289e+00 4.091943e+00 2.736493e+00 2.525652e+00 2.371844e+00 1.797209e+00 1.029955e+00 6.975048e-01 3.943456e-01 3.605115e-01 3.816076e-01 4.132599e-01 4.991599e-01 7.011296e-01 5.148321e-01 4.500448e-01 4.096734e-01 3.849624e-01 3.592583e-01 1.138183e-01
<GCONST> 1.206762e+02
<STATE> 3
<MEAN> 39
 -2.131173e+01 5.052211e+00 1.100762e+01 -5.116167e-01 -2.921975e+00 -2.009595e+00 -4.091809e+00 -4.577519e+00 1.552023e-02 -5.654234e+00 -1.824205e+00 -2.458564e+00 6.292795e+01 -5.771663e-01 -2.933778e-01 -1.331653e-01 8.860826e-02 3.225274e-02 -2.390321e-01 -6.210431e-02 2.446738e-01 2.592783e-01 -2.319700e-02 -3.172188e-02 3.999841e-02 7.826090e-02 1.222594e+00 -4.613496e-01 -4.888955e-01 -2.122477e-01 -5.107793e-01 -4.195882e-01 -3.282749e-01 3.763088e-02 -1.442535e-01 8.766715e-02 -1.888103e-02 5.621619e-02 -5.042936e-02
<VARIANCE> 39
 3.685326e+01 2.922396e+01 2.351798e+01 6.407771e+01 3.151107e+01 3.844633e+01 4.120943e+01 3.006013e+01 3.857741e+01 2.026630e+01 1.648800e+01 1.513054e+01 1.462366e+01 6.916580e+00 1.746251e+00 1.982342e+00 1.746872e+00 3.077183e+00 3.588966e+00 2.554414e+00 1.851082e+00 1.737752e+00 1.435205e+00 1.380072e+00 1.057193e+00 5.292354e-01 4.422051e-01 3.720004e-01 3.236955e-01 3.783269e-01 4.409507e-01 4.849528e-01 4.759197e-01 3.906062e-01 3.680956e-01 2.997254e-01 2.937683e-01 2.035595e-01 1.013823e-01
<GCONST> 1.089666e+02
<STATE> 4
<MEAN> 39
 -1.453917e+01 -1.400208e+00 2.896601e+00 1.392548e+00 -1.952548e+00 -3.033515e+00 -8.276020e-01 -1.375089e+00 2.062216e+00 -1.695381e+00 -6.575971e-01 -9.626619e-02 5.320243e+01 1.042896e+00 -2.975614e-01 -3.606346e-01 -6.460638e-02 -3.635523e-01 -3.188799e-01 -2.596531e-01 1.338592e-01 -1.247496e-01 1.717404e-02 -2.779138e-02 9.271743e-02 -3.580718e-01 2.319770e-01 6.104017e-04 -3.227261e-03 -3.957542e-02 -4.864559e-02 4.355508e-02 -3.877912e-02 -3.846508e-02 -1.117589e-01 -2.049046e-02 -7.336350e-02 -5.925114e-02 -3.489190e-02
<VARIANCE> 39
 7.646465e+01 3.811469e+01 3.413683e+01 4.970424e+01 4.411306e+01 4.712064e+01 5.020937e+01 3.250653e+01 4.224121e+01 2.881035e+01 2.429675e+01 1.905675e+01 9.084251e+01 5.656173e+00 2.290110e+00 1.892187e+00 2.040262e+00 2.886294e+00 3.091598e+00 2.888838e+00 2.450327e+00 2.404282e+00 2.167655e+00 1.947905e+00 1.398217e+00 1.925795e+00 6.094880e-01 3.379990e-01 2.473929e-01 3.042671e-01 3.894663e-01 4.840655e-01 4.825788e-01 4.605162e-01 3.876971e-01 4.075867e-01 3.340671e-01 2.536266e-01 1.940043e-01
<GCONST> 1.179531e+02
<TRANSP> 5
 0.000000e+00 1.000000e+00 0.000000e+00 0.000000e+00 0.000000e+00
 0.000000e+00 6.324697e-01 3.675303e-01 0.000000e+00 0.000000e+00
 0.000000e+00 0.000000e+00 7.470071e-01 2.529929e-01 0.000000e+00
 0.000000e+00 0.000000e+00 0.000000e+00 7.962143e-01 2.037857e-01
 0.000000e+00 0.000000e+00 0.000000e+00 0.000000e+00 0.000000e+00
<ENDHMM>
~h "^"
<BEGINHMM>
<NUMSTATES> 5
<STATE> 2
<MEAN> 39
 -1.520718e+01 1.274646e-01 2.686165e+00 -1.291108e+00 -3.818449e+00 -3.799886e+00 -3.262994e+00 -1.909071e+00 -1.012517e+00 -1.761043e+00 -1.461652e+00 -4.093079e-01 5.871441e+01 1.359161e+00 2.194515e-01 5.176266e-01 -3.214411e-01 -9.819718e-01 -8.591447e-01 -7.273117e-01 -1.963867e-01 -2.907167e-01 -2.948649e-01 -4.395938e-01 1.394119e-01 -1.327306e-01 5.957848e-01 5.639594e-02 -1.746145e-01 8.841003e-02 8.244500e-02 1.338944e-01 1.380937e-01 8.625579e-02 3.703116e-02 8.489815e-02 5.834249e-02 -7.917830e-02 -4.064732e-01
<VARIANCE> 39
 1.567967e+02 2.362758e+01 2.731485e+01 4.642118e+01 3.510796e+01 5.510410e+01 5.013600e+01 3.242664e+01 4.030722e+01 3.234023e+01 2.714952e+01 1.639853e+01 3.371326e+01 3.792178e+00 2.705364e+00 2.422631e+00 3.657918e+00 4.176979e+00 4.438115e+00 3.805937e+00 3.894624e+00 2.899407e+00 2.657852e+00 2.136523e+00 2.321463e+00 6.946796e+00 8.569939e-01 3.408703e-01 3.565543e-01 4.363115e-01 2.635736e-01 3.362846e-01 4.370723e-01 4.659554e-01 2.997988e-01 4.117300e-01 3.145401e-01 2.741682e-01 7.288414e-01
<GCONST> 1.225332e+02
<STATE> 3
<MEAN> 39
 -1.320154e+01 3.438945e-02 2.773266e+00 -2.440472e+00 -5.117861e+00 -4.575086e+00 -3.978609e+00 -1.702975e+00 -1.463307e+00 -1.599799e+00 -1.606487e+00 -5.878621e-01 5.890916e+01 1.723190e+00 2.741101e-01 1.340650e-01 -1.549154e-01 -5.707860e-01 -5.079457e-01 -3.370914e-01 -4.316115e-02 -2.006567e-01 -3.061704e-03 -2.069442e-01 8.001054e-02 -8.487547e-01 1.709515e-01 1.080137e-02 -2.380304e-01 2.201388e-01 2.871180e-01 2.599760e-01 2.591767e-01 7.642630e-02 6.908844e-02 1.351819e-01 1.600730e-01 -6.887464e-02 -3.564122e-01
<VARIANCE> 39
 1.517833e+02 2.810034e+01 2.973659e+01 5.633944e+01 5.194305e+01 6.685142e+01 5.583978e+01 3.922194e+01 4.396688e+01 3.425434e+01 2.998532e+01 2.179527e+01 3.403639e+01 3.069743e+00 2.524600e+00 1.869255e+00 2.924480e+00 2.957893e+00 3.575891e+00 3.769813e+00 3.136111e+00 2.484174e+00 2.107294e+00 1.600442e+00 2.002855e+00 8.977492e+00 9.214190e-01 4.063877e-01 3.963201e-01 4.623652e-01 4.733935e-01 5.124040e-01 5.131131e-01 6.143476e-01 4.128162e-01 4.216959e-01 3.494388e-01 3.514090e-01 4.567347e-01
<GCONST> 1.243414e+02
<STATE> 4
<MEAN> 39
 -9.279405e+00 -1.798553e+00 2.236527e+00 -5.164153e+00 -7.305792e+00 -8.213899e+00 -4.515594e+00 -1.562865e+00 -1.197824e+00 -2.080410e+00 -2.641268e+00 -2.096825e-01 6.039586e+01 1.004882e+00 5.727431e-01 -1.085388e-01 6.680326e-01 2.026368e-01 1.816083e-01 8.227209e-03 -1.584404e-01 -5.051139e-02 1.951974e-01 2.181450e-01 2.794144e-02 -1.225152e+00 -2.552581e-01 2.283438e-01 -1.622214e-01 4.463440e-01 3.632889e-01 3.930088e-01 8.205169e-02 -7.122804e-02 -1.167195e-02 -2.703100e-02 1.281453e-01 -7.689562e-02 -3.068649e-01
<VARIANCE> 39
 8.546035e+01 3.913609e+01 2.213566e+01 6.772771e+01 5.600377e+01 8.779530e+01 7.069871e+01 4.775322e+01 4.845906e+01 3.849369e+01 3.068769e+01 2.645508e+01 6.149461e+01 3.360949e+00 2.524953e+00 1.647506e+00 2.979115e+00 1.710779e+00 2.323555e+00 2.571852e+00 2.418774e+00 2.026998e+00 1.615529e+00 1.378306e+00 1.611145e+00 6.228562e+00 5.033341e-01 6.178435e-01 3.385094e-01 6.108666e-01 5.882605e-01 7.837091e-01 7.327737e-01 7.499683e-01 4.705174e-01 4.235191e-01 3.348503e-01 4.645236e-01 6.863320e-01
<GCONST> 1.248625e+02
<TRANSP> 5
 0.000000e+00 1.000000e+00 0.000000e+00 0.000000e+00 0.000000e+00
 0.000000e+00 4.064122e-02 9.593588e-01 0.000000e+00 0.000000e+00
 0.000000e+00 0.000000e+00 8.682652e-08 9.999999e-01 0.000000e+00
 0.000000e+00 0.000000e+00 0.000000e+00 3.776764e-01 6.223235e-01
 0.000000e+00 0.000000e+00 0.000000e+00 0.000000e+00 0.000000e+00
<ENDHMM>
~h "a"
<BEGINHMM>
<NUMSTATES> 5
<STATE> 2
<MEAN> 39
 -2.636161e+00 -7.664427e+00 -3.915261e+00 -6.925691e+00 -8.821297e+00 -5.070697e+00 -5.655851e+00 1.065117e-01 1.135722e-01 -3.656221e+00 -5.805391e+00 -4.757930e+00 6.586349e+01 6.347377e-01 -1.654966e+00 -8.800000e-01 -8.586693e-01 -1.966667e-01 5.317138e-01 6.109111e-01 9.104243e-01 4.344151e-01 -5.298491e-01 -7.122055e-01 -4.201427e-01 1.268132e+00 -3.924884e-01 3.778903e-01 2.512359e-01 4.200137e-01 4.422396e-01 1.841024e-01 1.439630e-01 -2.150496e-01 -1.751705e-01 -1.157070e-02 2.340401e-01 1.862179e-01 -4.789075e-01
<VARIANCE> 39
 1.674948e+01 4.075924e+01 3.476250e+01 6.441859e+01 4.456731e+01 6.143034e+01 5.158569e+01 4.993236e+01 4.182269e+01 4.874240e+01 3.817496e+01 2.642290e+01 2.743863e+01 2.719680e+00 2.297765e+00 2.390715e+00 3.209836e+00 2.972483e+00 3.772877e+00 3.695913e+00 3.551116e+00 2.952753e+00 3.053566e+00 2.487572e+00 2.190631e+00 1.405073e+00 3.690913e-01 4.201333e-01 2.992148e-01 4.292837e-01 4.921621e-01 6.014382e-01 5.824395e-01 5.764462e-01 4.619425e-01 4.999095e-01 3.997206e-01 3.267757e-01 3.282694e-01
<GCONST> 1.217910e+02
<STATE> 3
<MEAN> 39
 -2.407369e+00 -9.137565e+00 -5.636064e+00 -7.180047e+00 -6.109263e+00 -2.078986e+00 -2.747372e+00 1.175114e-01 2.653269e-01 -4.890929e+00 -5.575705e+00 -5.018880e+00 6.621414e+01 -1.033667e-02 1.520794e-01 5.329059e-02 2.442546e-01 1.445896e-01 -8.341561e-02 6.763286e-02 -6.533729e-02 2.118018e-02 -7.860805e-02 2.179774e-02 5.338083e-02 -1.703458e-01 -2.026001e-02 3.952224e-01 2.564538e-01 1.786633e-01 -2.725659e-02 -1.709646e-01 -1.827782e-01 -1.588096e-01 -8.749343e-02 1.369913e-01 9.726015e-02 1.102609e-01 -3.146811e-01
<VARIANCE> 39
 1.327311e+01 4.359437e+01 3.082856e+01 6.777470e+01 4.529231e+01 6.274552e+01 4.998582e+01 5.412209e+01 4.395837e+01 5.348779e+01 3.777919e+01 2.724087e+01 2.912689e+01 2.543440e-01 7.447726e-01 9.180371e-01 9.692852e-01 1.382828e+00 1.590765e+00 1.379710e+00 1.401731e+00 1.181473e+00 1.188800e+00 1.006244e+00 9.876318e-01 2.973783e-01 7.990757e-02 1.925933e-01 1.512526e-01 2.315811e-01 2.580055e-01 2.744248e-01 2.904591e-01 3.195824e-01 2.704627e-01 2.372194e-01 2.056832e-01 1.916894e-01 1.120507e-01
<GCONST> 9.767769e+01
<STATE> 4
<MEAN> 39
 -2.666493e+00 -6.544235e+00 -3.457228e+00 -5.047822e+00 -7.159461e+00 -4.380793e+00 -4.593083e+00 3.889017e-01 6.927802e-01 -3.561931e+00 -5.161465e+00 -3.742393e+00 6.316956e+01 -1.521358e-01 1.847407e+00 1.143019e+00 1.322806e+00 4.932773e-01 -3.323972e-01 -2.357278e-01 -7.448549e-01 -4.420236e-01 3.304690e-01 3.445181e-01 4.977561e-01 -1.853224e+00 -2.646969e-01 3.627369e-01 2.160558e-01 3.164714e-01 3.480597e-01 2.376163e-01 1.519055e-01 -1.754174e-01 -1.437441e-01 1.776914e-03 1.218760e-01 5.779813e-02 -4.963963e-01
<VARIANCE> 39
 1.705634e+01 3.905988e+01 3.473683e+01 6.245495e+01 4.735088e+01 6.439290e+01 5.597723e+01 4.757362e+01 4.743612e+01 5.874438e+01 4.002751e+01 2.924820e+01 5.552681e+01 1.290848e+00 2.337491e+00 1.898513e+00 2.601360e+00 2.894048e+00 2.753225e+00 3.091651e+00 3.146731e+00 2.822129e+00 2.409739e+00 1.952086e+00 1.824568e+00 2.174120e+00 2.935055e-01 3.235134e-01 2.853249e-01 4.290317e-01 4.194250e-01 5.221214e-01 5.427017e-01 5.355955e-01 4.910750e-01 4.807367e-01 3.772999e-01 3.195938e-01 3.714235e-01
<GCONST> 1.200431e+02
<TRANSP> 5
 0.000000e+00 1.000000e+00 0.000000e+00 0.000000e+00 0.000000e+00
 0.000000e+00 5.360544e-01 4.639457e-01 0.000000e+00 0.000000e+00
 0.000000e+00 0.000000e+00 7.507114e-01 2.492886e-01 0.000000e+00
 0.000000e+00 0.000000e+00 0.000000e+00 5.704571e-01 4.295429e-01
 0.000000e+00 0.000000e+00 0.000000e+00 0.000000e+00 0.000000e+00
<ENDHMM>
~h "b"
<BEGINHMM>
<NUMSTATES> 5
<STATE> 2
<MEAN> 39
 3.794338e+00 4.839131e+00 1.413751e+00 1.942639e+00 -2.129144e+00 -8.972241e-01 -3.701581e+00 -8.548293e+00 -6.992725e+00 -1.404025e+00 -2.486912e+00 -4.960154e+00 5.107731e+01 3.129059e-01 2.073571e+00 4.395443e-01 1.088627e+00 1.252581e+00 9.428927e-01 8.142832e-01 -7.031726e-01 -4.509239e-01 -2.596524e-01 1.532880e-01 -2.888694e-01 -2.222886e+00 -5.280796e-01 -4.970340e-01 -1.242923e-01 -4.615681e-01 -4.763685e-01 -2.028139e-01 -1.465969e-01 5.027555e-01 3.754679e-01 -5.638376e-02 -1.288728e-02 2.209870e-01 7.588862e-01
<VARIANCE> 39
 2.431804e+01 2.386976e+01 1.483243e+01 3.054364e+01 1.874015e+01 4.637678e+01 3.086807e+01 2.813233e+01 3.364629e+01 2.493419e+01 3.745965e+01 1.899755e+01 2.081824e+01 1.180201e+00 2.008873e+00 2.264172e+00 3.215958e+00 2.853810e+00 3.976624e+00 3.105655e+00 3.457707e+00 3.499738e+00 2.211694e+00 2.046141e+00 1.932855e+00 2.071308e+00 2.390018e-01 3.792802e-01 3.144240e-01 4.558212e-01 4.364404e-01 5.331522e-01 5.053092e-01 5.365108e-01 6.045836e-01 3.996873e-01 4.007953e-01 3.624992e-01 4.086255e-01
<GCONST> 1.144768e+02
<STATE> 3
<MEAN> 39
 2.525105e+00 8.658139e+00 2.840821e+00 4.005822e+00 -4.598056e-01 -2.503026e-02 -2.475854e+00 -7.740357e+00 -6.214360e+00 -2.785560e+00 -2.418235e+00 -4.525795e+00 4.728488e+01 -1.561966e+00 -9.987084e-01 -3.384224e-01 -1.113133e-01 -3.948176e-01 -4.219239e-01 -3.973874e-01 8.475020e-01 8.822883e-01 -1.241310e-01 3.085745e-02 3.843910e-01 1.452503e+00 -2.334947e-01 -1.130008e+00 -5.235186e-01 -7.579070e-01 -6.710364e-01 -3.682972e-01 -4.766332e-01 2.672576e-01 4.546466e-01 2.455670e-01 2.450398e-02 1.244448e-01 1.344285e+00
<VARIANCE> 39
 3.431225e+01 2.137251e+01 1.404939e+01 2.188902e+01 1.609680e+01 2.415265e+01 2.701796e+01 1.799366e+01 2.106995e+01 1.740829e+01 2.579940e+01 1.402437e+01 2.035525e+01 2.100561e+00 3.048663e+00 2.105721e+00 3.171065e+00 2.373282e+00 2.216130e+00 2.318923e+00 2.166484e+00 2.752784e+00 2.054474e+00 1.937305e+00 1.449535e+00 3.817488e+00 4.107575e-01 4.258707e-01 4.499811e-01 7.689146e-01 4.674855e-01 5.836921e-01 6.026683e-01 5.655392e-01 5.792090e-01 4.661899e-01 4.232069e-01 3.405013e-01 4.108934e-01
<GCONST> 1.127811e+02
<STATE> 4
<MEAN> 39
 -3.616221e+00 6.830298e-01 -2.913511e-01 1.538914e+00 -3.655360e+00 -3.419252e+00 -6.107515e+00 -5.237799e+00 -2.280462e+00 -1.793152e+00 -1.984806e+00 -3.143031e+00 5.742577e+01 -4.002083e-01 -2.290923e+00 -1.546305e+00 -2.338079e+00 -1.703930e+00 -6.500058e-01 -1.314963e+00 6.954318e-01 1.398066e+00 5.766262e-01 4.661175e-02 3.458775e-01 3.117843e+00 6.821341e-01 1.758711e-01 -3.505896e-02 -4.743445e-01 -1.052156e-01 2.431788e-01 8.779928e-02 -1.259983e-01 -1.416276e-01 5.199649e-02 -1.425027e-01 -1.142435e-01 -2.881829e-01
<VARIANCE> 39
 2.874405e+01 1.871709e+01 2.511628e+01 5.262382e+01 2.413392e+01 3.869498e+01 2.825685e+01 2.063465e+01 2.208732e+01 1.923750e+01 2.328193e+01 1.344714e+01 3.279726e+01 2.657630e+00 3.445099e+00 3.593858e+00 6.677491e+00 3.943357e+00 4.764960e+00 4.309832e+00 3.844293e+00 3.857680e+00 3.357070e+00 2.935333e+00 2.191307e+00 4.238393e+00 5.186082e-01 6.552025e-01 4.974885e-01 8.587217e-01 6.800814e-01 6.791261e-01 5.844915e-01 6.222653e-01 5.833139e-01 5.605235e-01 4.166324e-01 3.705474e-01 6.338327e-01
<GCONST> 1.234918e+02
<TRANSP> 5
 0.000000e+00 1.000000e+00 0.000000e+00 0.000000e+00 0.000000e+00
 0.000000e+00 6.341810e-01 3.658189e-01 0.000000e+00 0.000000e+00
 0.000000e+00 0.000000e+00 5.799940e-01 4.200060e-01 0.000000e+00
 0.000000e+00 0.000000e+00 0.000000e+00 4.757667e-01 5.242333e-01
 0.000000e+00 0.000000e+00 0.000000e+00 0.000000e+00 0.000000e+00
<ENDHMM>
~h "d"
<BEGINHMM>
<NUMSTATES> 5
<STATE> 2
<MEAN> 39
 -1.140435e+00 4.492013e+00 4.012742e+00 2.199585e+00 -7.335996e+00 -7.763628e+00 -5.005561e+00 -4.167296e+00 -4.171517e+00 -6.069574e+00 -5.501402e+00 -2.603880e+00 5.446943e+01 9.859610e-01 2.061809e+00 2.968233e-01 1.482464e+00 1.459083e+00 7.642586e-01 9.822433e-01 -1.379572e-02 3.299648e-04 -5.628003e-01 -7.382149e-01 -1.520199e-01 -2.902154e+00 -5.367444e-01 -4.510311e-01 -2.153963e-01 -4.898269e-01 -1.308444e-01 1.402951e-01 -4.356943e-02 7.487087e-02 7.044147e-02 2.237938e-01 2.390886e-01 -5.727828e-02 6.951248e-01
<VARIANCE> 39
 3.385266e+01 2.843060e+01 2.173058e+01 4.924158e+01 3.427817e+01 4.043483e+01 3.907342e+01 4.151029e+01 3.949726e+01 3.830347e+01 3.001010e+01 2.393038e+01 3.969929e+01 2.684168e+00 2.132325e+00 2.160823e+00 3.114534e+00 3.241029e+00 3.200100e+00 3.319649e+00 3.174879e+00 3.253475e+00 2.673280e+00 2.175592e+00 1.759374e+00 2.900880e+00 5.441223e-01 4.764796e-01 2.943858e-01 4.875328e-01 4.937849e-01 5.267941e-01 5.607926e-01 6.520687e-01 4.699160e-01 5.003174e-01 3.788505e-01 3.635870e-01 8.492907e-01
<GCONST> 1.214060e+02
<STATE> 3
<MEAN> 39
 -6.768659e-03 8.473043e+00 4.315309e+00 4.446607e+00 -4.354513e+00 -5.397546e+00 -3.373453e+00 -3.828292e+00 -3.591565e+00 -6.368245e+00 -6.124381e+00 -3.422418e+00 4.914858e+01 -1.760466e+00 -4.290625e-01 -3.241278e-01 -4.909172e-02 5.006785e-01 3.992423e-01 1.969832e-01 -2.695945e-01 -5.346001e-02 4.399102e-01 6.459104e-01 5.506703e-03 1.058463e+00 -7.376205e-01 -9.330914e-01 -9.826618e-02 -6.458572e-01 -7.583772e-01 -3.559216e-01 -4.446692e-01 -7.255550e-02 -3.730140e-02 2.914062e-01 4.704993e-01 1.828516e-01 1.527559e+00
<VARIANCE> 39
 4.586146e+01 2.603005e+01 1.747239e+01 3.064090e+01 2.670276e+01 2.598172e+01 2.498347e+01 2.883757e+01 3.139225e+01 2.806763e+01 2.072315e+01 1.797306e+01 3.421384e+01 3.480502e+00 2.989302e+00 2.035809e+00 2.199545e+00 2.772023e+00 2.615195e+00 2.417858e+00 2.578455e+00 2.329040e+00 2.396769e+00 2.056515e+00 1.699920e+00 4.726541e+00 6.693692e-01 4.398341e-01 4.544562e-01 6.847348e-01 7.533844e-01 5.624381e-01 6.028077e-01 6.589701e-01 6.631197e-01 5.255999e-01 4.124956e-01 3.443501e-01 6.549451e-01
<GCONST> 1.189769e+02
<STATE> 4
<MEAN> 39
 -9.511881e+00 2.887307e+00 8.785707e-01 2.524915e+00 -3.596738e+00 -4.702621e+00 -3.041926e+00 -3.767093e+00 -2.825830e+00 -4.099779e+00 -2.361657e+00 -2.046823e+00 5.659499e+01 -1.198647e+00 -1.237880e+00 -6.222538e-02 -1.044250e+00 -1.438598e+00 -7.350692e-01 -6.848348e-01 -7.997198e-02 3.754612e-02 4.794097e-01 8.404248e-01 3.839567e-01 2.386815e+00 6.520484e-01 -3.594159e-02 3.267733e-01 -2.363764e-01 -5.233845e-01 -1.873941e-01 -2.381467e-01 8.996616e-02 -5.371556e-03 4.070003e-02 -1.477079e-01 2.118115e-02 -1.542972e-01
<VARIANCE> 39
 3.886651e+01 3.745039e+01 2.741988e+01 4.079727e+01 3.088698e+01 3.702044e+01 2.841351e+01 3.008651e+01 3.207880e+01 2.664090e+01 1.789640e+01 1.821209e+01 6.326414e+01 3.600964e+00 2.650467e+00 2.743615e+00 3.282026e+00 3.894329e+00 3.112948e+00 3.427655e+00 3.334888e+00 3.060574e+00 2.821105e+00 2.118368e+00 1.661285e+00 5.007400e+00 5.393251e-01 5.242069e-01 4.849964e-01 5.366276e-01 6.643026e-01 6.475924e-01 5.716296e-01 5.291535e-01 5.168259e-01 4.586726e-01 3.935693e-01 3.624763e-01 5.193281e-01
<GCONST> 1.221770e+02
<TRANSP> 5
 0.000000e+00 1.000000e+00 0.000000e+00 0.000000e+00 0.000000e+00
 0.000000e+00 4.754637e-01 5.245363e-01 0.000000e+00 0.000000e+00
 0.000000e+00 0.000000e+00 5.119837e-01 4.880163e-01 0.000000e+00
 0.000000e+00 0.000000e+00 0.000000e+00 5.537598e-01 4.462403e-01
 0.000000e+00 0.000000e+00 0.000000e+00 0.000000e+00 0.000000e+00
<ENDHMM>
~h "e"
<BEGINHMM>
<NUMSTATES> 5
<STATE> 2
<MEAN> 39
 -7.142327e+00 6.332871e-01 6.767888e+00 -3.277919e+00 -1.309423e+01 -8.707324e+00 -6.926990e+00 -5.408155e+00 -5.947618e+00 -3.503243e+00 -1.821704e+00 -2.116564e+00 6.188614e+01 1.121391e+00 -7.526354e-01 1.386706e+00 -1.300916e+00 -2.438611e+00 -6.830391e-01 -8.565627e-01 -2.569684e-01 -8.890257e-01 2.959780e-01 -5.951902e-02 -1.634864e-01 1.174017e+00 -7.234693e-02 9.522424e-02 -2.414497e-01 1.344480e-01 5.245106e-01 4.286380e-01 2.830454e-01 1.921455e-01 2.226676e-01 1.157006e-01 -8.087865e-02 1.238409e-02 -4.618550e-01
<VARIANCE> 39
 2.322556e+01 3.322678e+01 3.336841e+01 7.572842e+01 4.266673e+01 4.470861e+01 4.148465e+01 4.872924e+01 4.051154e+01 3.365813e+01 2.739867e+01 2.268352e+01 3.503545e+01 3.887350e+00 2.282680e+00 2.723423e+00 3.779995e+00 3.750886e+00 3.644214e+00 4.220371e+00 4.222986e+00 3.343239e+00 3.223763e+00 2.822064e+00 2.335083e+00 2.588644e+00 5.271767e-01 3.562433e-01 3.767239e-01 5.967050e-01 6.408599e-01 5.057494e-01 5.343348e-01 6.168982e-01 5.273231e-01 4.307561e-01 4.065396e-01 3.450821e-01 4.840846e-01
<GCONST> 1.241835e+02
<STATE> 3
<MEAN> 39
 -6.037848e+00 -3.567045e-01 9.575813e+00 -5.267621e+00 -1.657104e+01 -7.204360e+00 -7.884660e+00 -5.000865e+00 -7.212597e+00 -2.176196e+00 -1.174846e+00 -2.216005e+00 6.401131e+01 1.485866e-01 6.516229e-02 1.228973e-01 1.882119e-01 -2.066710e-03 1.604879e-01 1.985497e-01 1.168556e-01 -4.794216e-02 5.805001e-02 2.182194e-02 5.620619e-02 -2.182479e-01 -6.570487e-02 2.545679e-01 -2.927808e-01 4.600901e-01 6.583287e-01 7.338779e-02 2.478689e-01 4.970001e-02 1.778645e-01 -1.778691e-01 -6.585295e-02 -9.446500e-04 -4.231342e-01
<VARIANCE> 39
 1.259948e+01 3.681064e+01 3.233708e+01 8.846082e+01 3.064665e+01 4.364851e+01 3.980915e+01 5.766748e+01 3.817310e+01 3.568106e+01 3.289832e+01 2.384712e+01 2.262179e+01 5.435394e-01 1.031947e+00 1.046158e+00 1.690862e+00 1.557258e+00 1.521816e+00 1.492625e+00 1.578622e+00 1.463459e+00 1.317852e+00 1.100401e+00 9.695361e-01 6.637214e-01 2.199306e-01 2.425591e-01 2.334229e-01 3.787245e-01 4.209934e-01 3.582732e-01 4.404046e-01 4.058407e-01 3.845941e-01 3.231972e-01 2.716951e-01 2.492128e-01 2.043100e-01
<GCONST> 1.044014e+02
<STATE> 4
<MEAN> 39
 -7.273320e+00 7.746522e-01 5.572529e+00 -5.663629e-01 -9.237891e+00 -3.731077e+00 -2.703976e+00 -3.077378e+00 -3.558622e+00 -1.406790e+00 -6.400877e-01 -7.132772e-01 5.420305e+01 3.374353e-02 4.616506e-01 -8.507599e-01 9.882285e-01 1.496631e+00 3.220859e-01 7.693790e-01 3.745924e-01 5.734186e-01 -1.303693e-01 -4.274812e-02 6.528206e-02 -1.397911e+00 -1.083182e-01 1.195870e-01 -8.994322e-02 2.650689e-02 2.774767e-01 1.536197e-01 4.469547e-02 -4.005548e-02 9.350415e-02 2.689832e-02 -3.420756e-02 -5.880437e-02 -1.653671e-01
<VARIANCE> 39
 2.623842e+01 3.511585e+01 4.210732e+01 6.614541e+01 6.173193e+01 6.578825e+01 5.000807e+01 4.800222e+01 4.872010e+01 3.224137e+01 2.745373e+01 2.294912e+01 9.959161e+01 2.014520e+00 2.547180e+00 1.937212e+00 3.028301e+00 3.498937e+00 3.077022e+00 2.998159e+00 2.830189e+00 2.742144e+00 2.345245e+00 1.928247e+00 1.809769e+00 2.861357e+00 3.234998e-01 4.507227e-01 3.544950e-01 4.010533e-01 6.491877e-01 6.429959e-01 5.263654e-01 5.291681e-01 4.641420e-01 3.725232e-01 3.226895e-01 2.881027e-01 4.658600e-01
<GCONST> 1.220932e+02
<TRANSP> 5
 0.000000e+00 1.000000e+00 0.000000e+00 0.000000e+00 0.000000e+00
 0.000000e+00 4.595215e-01 5.404785e-01 0.000000e+00 0.000000e+00
 0.000000e+00 0.000000e+00 7.061446e-01 2.938555e-01 0.000000e+00
 0.000000e+00 0.000000e+00 0.000000e+00 6.295079e-01 3.704921e-01
 0.000000e+00 0.000000e+00 0.000000e+00 0.000000e+00 0.000000e+00
<ENDHMM>
~h "f"
<BEGINHMM>
<NUMSTATES> 5
<STATE> 2
<MEAN> 39
 -1.152757e+01 1.504645e-01 2.727440e-01 3.169225e+00 -2.896782e+00 -8.229424e-01 -1.949134e-01 -1.328641e+00 -2.026410e+00 -3.446767e+00 -2.645683e+00 -1.783972e+00 5.760497e+01 -3.397932e+00 -3.654469e-01 -5.726215e-01 1.419392e+00 1.201202e+00 8.074588e-01 6.947172e-01 6.607644e-01 8.015006e-01 6.167436e-01 8.049679e-01 5.714108e-01 -7.920385e-01 6.945872e-02 -4.972220e-01 -3.539458e-01 -6.732338e-01 -5.109705e-01 -2.459081e-01 -1.383478e-01 5.804451e-02 1.357378e-01 2.189905e-01 1.416186e-01 1.106450e-01 2.792684e-01
<VARIANCE> 39
 4.829095e+01 1.920676e+01 2.043538e+01 4.164664e+01 2.548660e+01 3.267080e+01 3.371967e+01 2.920560e+01 2.849332e+01 2.312373e+01 1.778193e+01 1.496785e+01 2.240427e+01 1.764779e+00 2.588979e+00 2.813448e+00 4.324842e+00 3.724452e+00 4.058929e+00 3.841201e+00 2.733948e+00 2.758879e+00 3.251755e+00 2.344578e+00 1.933938e+00 1.725161e+00 7.367535e-01 3.474751e-01 2.988870e-01 5.376413e-01 5.436193e-01 4.934188e-01 6.293014e-01 4.678143e-01 4.654889e-01 3.573611e-01 3.436229e-01 2.830102e-01 2.562809e-01
<GCONST> 1.161784e+02
<STATE> 3
<MEAN> 39
 -2.033877e+01 -4.531243e+00 -4.128612e+00 1.832894e+00 -3.731128e+00 -1.189068e+00 1.211522e-01 8.711582e-01 9.418632e-01 2.353444e-01 9.360672e-01 1.551530e+00 5.711566e+01 -4.229358e-01 -4.378135e-01 -3.596787e-01 -4.532675e-01 -3.886335e-01 -1.478399e-01 -1.774196e-02 1.600123e-01 1.946719e-01 2.447467e-01 2.645958e-01 3.225777e-01 2.819727e-03 6.835425e-01 2.057381e-01 3.360523e-01 -1.124315e-01 -1.097482e-01 -1.392633e-01 -1.313944e-01 -1.764974e-01 -1.851282e-01 -2.521215e-01 -2.609628e-01 -2.243996e-01 8.766910e-02
<VARIANCE> 39
 1.545603e+01 1.227224e+01 1.458296e+01 2.101844e+01 1.894858e+01 1.651892e+01 2.318868e+01 1.877424e+01 1.588767e+01 1.304610e+01 1.312431e+01 1.067192e+01 2.455821e+01 1.099774e+00 7.340609e-01 1.231285e+00 1.089427e+00 1.278519e+00 1.422158e+00 1.296136e+00 1.230343e+00 1.351817e+00 1.274060e+00 1.150573e+00 1.161492e+00 6.569818e-01 3.009588e-01 1.682264e-01 2.077469e-01 2.696774e-01 2.876329e-01 3.460856e-01 3.398528e-01 3.117947e-01 3.051686e-01 2.721440e-01 2.564755e-01 2.253959e-01 1.687535e-01
<GCONST> 9.196983e+01
<STATE> 4
<MEAN> 39
 -1.919561e+01 -4.950777e+00 -2.844746e+00 2.185628e-01 -4.807657e+00 -1.616302e+00 3.790433e-01 7.937050e-01 1.224485e+00 -3.747520e-01 5.330325e-01 1.237614e+00 5.764363e+01 3.121772e+00 5.688694e-01 1.181256e+00 -1.150432e+00 -1.290602e+00 -1.273194e+00 -1.256618e+00 -1.182340e+00 -8.461461e-01 -1.057482e+00 -1.172511e+00 -9.630710e-01 7.273584e-01 1.016913e+00 2.070374e-01 2.367166e-01 -3.121958e-01 -4.025359e-01 -3.271843e-01 -5.520320e-01 -3.160460e-01 -4.316543e-01 -2.091297e-01 -3.200798e-01 -3.645583e-01 3.602100e-01
<VARIANCE> 39
 1.673270e+01 1.006733e+01 1.951807e+01 1.890171e+01 2.601446e+01 1.870335e+01 1.890542e+01 1.735941e+01 1.895732e+01 1.348707e+01 1.416943e+01 1.132709e+01 2.279325e+01 3.499527e+00 1.899157e+00 2.759889e+00 2.753124e+00 2.556414e+00 2.995687e+00 2.809951e+00 2.678914e+00 2.565222e+00 1.741707e+00 1.852908e+00 1.592419e+00 1.307854e+00 4.129701e-01 3.977946e-01 3.569514e-01 5.170524e-01 3.739775e-01 5.746847e-01 5.664392e-01 5.456339e-01 4.660709e-01 3.717453e-01 4.361687e-01 4.060637e-01 2.134001e-01
<GCONST> 1.080315e+02
<TRANSP> 5
 0.000000e+00 1.000000e+00 0.000000e+00 0.000000e+00 0.000000e+00
 0.000000e+00 6.956242e-01 3.043757e-01 0.000000e+00 0.000000e+00
 0.000000e+00 0.000000e+00 8.000982e-01 1.999018e-01 0.000000e+00
 0.000000e+00 0.000000e+00 0.000000e+00 5.289220e-01 4.710780e-01
 0.000000e+00 0.000000e+00 0.000000e+00 0.000000e+00 0.000000e+00
<ENDHMM>
~h "g"
<BEGINHMM>
<NUMSTATES> 5
<STATE> 2
<MEAN> 39
 -2.315162e+00 7.204239e+00 6.992867e+00 2.931942e+00 -7.072381e+00 -5.495297e+00 -2.429754e+00 -4.493156e+00 -3.677608e+00 -2.874471e+00 -3.700406e+00 -2.904801e+00 5.025388e+01 -8.887823e-01 -1.073121e-01 -2.435810e-01 2.405691e-01 7.122142e-01 5.177940e-01 7.252040e-01 5.091878e-01 3.965640e-01 2.387852e-01 -1.502235e-01 4.565957e-01 -5.226071e-01 -7.862843e-01 -1.030244e+00 -6.677741e-01 -5.659128e-01 1.950692e-01 6.277888e-02 -3.891148e-01 -3.132577e-02 1.607429e-01 2.993689e-01 2.043543e-01 1.405358e-01 1.364049e+00
<VARIANCE> 39
 5.296948e+01 3.491811e+01 3.068668e+01 3.571016e+01 4.045649e+01 3.627993e+01 2.969856e+01 4.635159e+01 3.053270e+01 2.776983e+01 3.676033e+01 2.262565e+01 3.169923e+01 6.739398e+00 6.388241e+00 4.157210e+00 3.522038e+00 6.427886e+00 4.482088e+00 6.052867e+00 4.333429e+00 3.859479e+00 4.224939e+00 3.188453e+00 2.209596e+00 7.524733e+00 8.273324e-01 6.982652e-01 5.536557e-01 6.761590e-01 7.988530e-01 7.950868e-01 8.771105e-01 9.412743e-01 8.416671e-01 5.964602e-01 5.970602e-01 3.625487e-01 6.118802e-01
<GCONST> 1.325892e+02
<STATE> 3
<MEAN> 39
 -1.180711e+01 -1.439322e+00 1.182407e+00 1.863820e+00 -1.937458e+00 -3.055514e+00 -2.292531e+00 -2.800826e+00 -1.214193e+00 4.204546e-01 -2.204983e+00 -4.042280e-01 5.669762e+01 -1.627858e+00 -2.106794e+00 -1.416565e+00 -1.390531e+00 -4.014056e-01 -5.278777e-01 -8.861483e-01 2.294814e-01 2.437579e-01 6.630003e-01 1.241302e-01 4.251119e-01 3.491187e+00 8.573318e-01 4.747267e-01 3.060863e-01 -4.056279e-01 -7.178919e-01 -2.667810e-01 -2.422740e-01 -7.789467e-02 -2.639560e-01 -2.557721e-01 -4.593872e-02 -1.907894e-01 3.913848e-02
<VARIANCE> 39
 3.279754e+01 3.880668e+01 7.365659e+01 3.410261e+01 5.418763e+01 3.023029e+01 3.726666e+01 2.740389e+01 2.667030e+01 2.543701e+01 2.523405e+01 1.386401e+01 7.283687e+01 4.530744e+00 3.986287e+00 5.102080e+00 3.174565e+00 5.493018e+00 4.133234e+00 3.577711e+00 3.401424e+00 3.332391e+00 3.139394e+00 3.101706e+00 1.885616e+00 3.830189e+00 7.578222e-01 1.103762e+00 8.980857e-01 9.722713e-01 8.656567e-01 8.949151e-01 9.500674e-01 6.847391e-01 6.019893e-01 8.398080e-01 6.071380e-01 3.967361e-01 1.313493e+00
<GCONST> 1.315750e+02
<STATE> 4
<MEAN> 39
 -9.529770e+00 -1.119823e+00 4.580703e+00 -2.399082e+00 -1.001490e+01 -7.630138e+00 -5.614332e+00 -2.595148e+00 -2.957416e+00 -8.477384e-01 -1.671310e+00 -3.911542e-01 6.336481e+01 1.255164e+00 -4.713407e-01 -4.186263e-01 -9.555433e-01 -7.197587e-01 -4.656249e-01 -7.196587e-01 9.287896e-01 2.754852e-01 -3.978822e-01 -2.662584e-01 7.742985e-02 9.712458e-01 1.825688e-01 2.139520e-01 -8.948100e-02 2.869839e-01 5.935516e-01 4.890857e-01 3.436419e-01 3.162954e-02 1.557555e-01 -1.550065e-01 -1.273515e-01 -1.768183e-01 -7.173319e-01
<VARIANCE> 39
 3.337079e+01 2.356315e+01 5.203765e+01 4.189883e+01 4.960787e+01 2.609193e+01 3.860679e+01 3.961254e+01 3.543385e+01 2.133795e+01 2.635732e+01 1.287494e+01 2.278844e+01 2.515599e+00 4.083743e+00 3.286945e+00 4.056147e+00 5.319254e+00 4.357109e+00 3.777019e+00 4.455763e+00 3.919515e+00 4.381081e+00 2.103743e+00 1.828557e+00 1.933204e+00 8.739381e-01 6.306670e-01 6.074896e-01 5.100470e-01 1.006163e+00 6.037138e-01 7.005351e-01 8.343833e-01 7.154628e-01 6.324117e-01 4.195751e-01 2.672405e-01 3.281728e-01
<GCONST> 1.249490e+02
<TRANSP> 5
 0.000000e+00 1.000000e+00 0.000000e+00 0.000000e+00 0.000000e+00
 0.000000e+00 6.408683e-01 3.591318e-01 0.000000e+00 0.000000e+00
 0.000000e+00 0.000000e+00 5.048895e-01 4.951105e-01 0.000000e+00
 0.000000e+00 0.000000e+00 0.000000e+00 5.642030e-01 4.357969e-01
 0.000000e+00 0.000000e+00 0.000000e+00 0.000000e+00 0.000000e+00
<ENDHMM>
~h "i"
<BEGINHMM>
<NUMSTATES> 5
<STATE> 2
<MEAN> 39
 -1.311906e+01 2.109356e+00 3.259892e+00 -1.670824e+00 -6.540720e+00 -4.185791e+00 -3.058461e+00 -3.817494e+00 -2.587165e+00 -2.785476e+00 -1.090825e+00 -1.186426e+00 5.777560e+01 1.426090e+00 4.411010e-01 1.665230e+00 -2.728283e-01 -1.443789e+00 -8.065955e-01 -1.080135e+00 -1.044681e+00 -1.036742e+00 -6.280832e-01 -4.526547e-01 -4.976279e-01 5.235937e-01 2.810595e-01 -8.363994e-02 -3.215336e-02 -5.215347e-02 -5.664875e-02 -9.512537e-03 -1.250919e-01 8.308405e-02 -6.447792e-02 6.249448e-02 -2.722875e-02 -4.428928e-02 -3.608132e-02
<VARIANCE> 39
 6.473486e+01 3.926265e+01 5.531901e+01 5.909967e+01 4.463834e+01 4.212219e+01 4.840809e+01 4.426315e+01 4.447753e+01 3.417055e+01 2.624386e+01 2.113505e+01 6.179887e+01 6.707942e+00 3.484434e+00 3.554376e+00 5.227497e+00 4.493258e+00 4.347670e+00 4.727921e+00 4.301296e+00 4.284672e+00 3.530019e+00 3.160053e+00 2.456465e+00 4.219151e+00 5.643087e-01 5.529758e-01 5.236102e-01 6.748029e-01 6.913308e-01 6.306661e-01 7.244800e-01 6.271706e-01 5.511753e-01 5.266690e-01 4.258398e-01 3.440136e-01 7.064777e-01
<GCONST> 1.315223e+02
<STATE> 3
<MEAN> 39
 -8.584105e+00 1.770405e+00 7.419538e+00 -6.416987e+00 -1.325171e+01 -7.012924e+00 -8.197495e+00 -7.211401e+00 -8.310281e+00 -4.601894e+00 -4.198782e+00 -4.408298e+00 6.220855e+01 6.287746e-01 1.425483e-03 1.799118e-01 3.754283e-02 -4.078580e-01 -1.211235e-01 -9.648655e-02 8.106701e-02 -1.497098e-01 -1.354217e-02 -3.585471e-02 -1.077990e-01 -1.343856e-01 -2.123683e-01 2.170479e-02 -4.215980e-01 3.892817e-01 6.200439e-01 2.101327e-01 3.924573e-01 3.070616e-01 3.529848e-01 6.716707e-02 1.278188e-01 1.695888e-01 -4.232259e-01
<VARIANCE> 39
 3.503095e+01 4.045905e+01 4.591447e+01 8.286375e+01 4.973475e+01 4.481771e+01 4.704584e+01 5.445624e+01 5.080476e+01 3.352739e+01 4.204241e+01 3.410421e+01 2.893975e+01 3.024436e+00 2.748429e+00 2.577659e+00 3.725369e+00 3.854237e+00 2.961682e+00 3.553802e+00 2.722644e+00 2.945924e+00 2.419180e+00 2.272877e+00 1.840343e+00 2.247726e+00 4.452748e-01 4.646466e-01 3.990626e-01 5.769100e-01 6.268252e-01 6.376166e-01 6.716971e-01 6.062491e-01 5.582920e-01 5.233525e-01 4.487576e-01 3.811873e-01 3.638939e-01
<GCONST> 1.252316e+02
<STATE> 4
<MEAN> 39
 -1.120608e+01 1.229656e+00 2.303291e+00 3.601712e-01 -4.363687e+00 -1.546373e+00 -7.256049e-01 -9.576740e-01 -6.382465e-01 -6.230844e-01 7.287080e-01 3.257813e-01 4.940579e+01 1.301061e-01 9.220746e-02 -1.090868e-01 3.954297e-01 3.359447e-01 1.031835e-01 1.767606e-01 1.512321e-01 1.276039e-01 2.718101e-02 1.037259e-01 7.651972e-02 -5.569069e-01 -2.676041e-02 6.494519e-03 -2.400572e-02 -3.229320e-02 8.053342e-02 2.346142e-02 -2.803843e-02 -1.305465e-02 -2.518796e-02 -1.592447e-02 -4.695411e-02 -2.691009e-02 2.837484e-02
<VARIANCE> 39
 4.515171e+01 2.557333e+01 4.022340e+01 4.293953e+01 4.944175e+01 4.107026e+01 4.356814e+01 3.936962e+01 4.358996e+01 3.251157e+01 2.567835e+01 2.088708e+01 1.099101e+02 1.947841e+00 1.980076e+00 2.133774e+00 2.207983e+00 3.000360e+00 2.410796e+00 2.640539e+00 2.386961e+00 2.552219e+00 2.185111e+00 1.710937e+00 1.371403e+00 3.361724e+00 3.128482e-01 3.012899e-01 3.134867e-01 3.256509e-01 5.143181e-01 4.489740e-01 4.754033e-01 4.309414e-01 4.254474e-01 3.843106e-01 3.038063e-01 2.613463e-01 3.901452e-01
<GCONST> 1.170106e+02
<TRANSP> 5
 0.000000e+00 1.000000e+00 0.000000e+00 0.000000e+00 0.000000e+00
 0.000000e+00 3.837288e-01 6.162711e-01 0.000000e+00 0.000000e+00
 0.000000e+00 0.000000e+00 5.862866e-01 4.137134e-01 0.000000e+00
 0.000000e+00 0.000000e+00 0.000000e+00 6.839080e-01 3.160920e-01
 0.000000e+00 0.000000e+00 0.000000e+00 0.000000e+00 0.000000e+00
<ENDHMM>
~h "j"
<BEGINHMM>
<NUMSTATES> 5
<STATE> 2
<MEAN> 39
 -7.453640e+00 2.940421e+00 8.807228e+00 -5.387446e+00 -1.200527e+01 -6.623790e+00 -7.365090e+00 -5.553512e+00 -6.464790e+00 -4.859969e+00 -2.378382e+00 -3.463171e+00 6.151266e+01 1.048486e+00 -4.271072e-02 5.694610e-01 -1.200710e+00 -1.036779e+00 -4.743066e-01 -5.169193e-01 5.184728e-02 -3.712413e-01 -6.763200e-02 -6.803157e-02 -2.538275e-01 5.027420e-01 -2.543072e-01 -3.047897e-01 -4.658865e-01 1.533402e-01 2.394328e-01 2.544150e-01 3.612266e-01 2.420668e-01 2.333475e-01 1.677301e-01 5.228556e-02 7.234038e-02 -9.962170e-03
<VARIANCE> 39
 2.261609e+01 4.102002e+01 3.629922e+01 8.744634e+01 3.910062e+01 4.660067e+01 4.175043e+01 4.838002e+01 3.813504e+01 2.665473e+01 3.159848e+01 3.370158e+01 2.422963e+01 4.699831e+00 3.900401e+00 3.537060e+00 3.997356e+00 5.099161e+00 4.261053e+00 3.910557e+00 3.400356e+00 3.198503e+00 2.752558e+00 2.415536e+00 2.090599e+00 1.631085e+00 5.052913e-01 3.785233e-01 3.754954e-01 6.967389e-01 7.856011e-01 7.427671e-01 5.997576e-01 5.270749e-01 4.500468e-01 4.008581e-01 3.595138e-01 3.358157e-01 1.604671e-01
<GCONST> 1.239395e+02
<STATE> 3
<MEAN> 39
 -6.641038e+00 5.119286e+00 1.035113e+01 -3.973863e+00 -1.202398e+01 -5.101455e+00 -7.754772e+00 -6.272648e+00 -5.699568e+00 -4.871239e+00 -2.898687e-01 -2.613199e+00 6.074795e+01 4.099037e-02 -2.478471e-01 -1.625988e-01 -1.162011e-01 -2.465473e-01 1.825317e-01 7.984997e-02 4.698193e-03 7.162148e-02 8.477743e-02 2.423856e-02 -1.117472e-01 1.196010e-01 -1.738342e-02 -1.198258e-01 -8.777779e-02 8.841189e-02 7.815141e-03 2.288032e-02 9.922867e-02 5.772130e-02 5.052835e-02 5.116032e-03 -3.113496e-02 -6.734133e-03 -1.725427e-02
<VARIANCE> 39
 1.278249e+01 4.934331e+01 2.994905e+01 9.874566e+01 3.391468e+01 4.637883e+01 3.583619e+01 4.550039e+01 3.351231e+01 3.488589e+01 3.414448e+01 2.934974e+01 2.540183e+01 2.402045e-01 1.146551e+00 8.902947e-01 9.153216e-01 1.664519e+00 1.358731e+00 1.330629e+00 1.446032e+00 1.116067e+00 1.117094e+00 9.424310e-01 7.768206e-01 5.118138e-01 6.913728e-02 1.521507e-01 1.435865e-01 2.133876e-01 2.988208e-01 2.303723e-01 2.438811e-01 2.305508e-01 2.069943e-01 2.049442e-01 1.761581e-01 1.446249e-01 7.532667e-02
<GCONST> 9.428716e+01
<STATE> 4
<MEAN> 39
 -8.342166e+00 -1.159243e+00 3.771009e+00 -1.640850e+00 -7.508058e+00 -1.832535e+00 -7.377682e-01 -7.216066e-01 -8.474221e-01 -1.945387e+00 -1.702759e-01 -1.700298e-01 5.339183e+01 6.515004e-03 -4.731038e-01 -5.396243e-01 8.873671e-02 1.558510e-01 1.560701e-01 4.245497e-01 3.214142e-01 2.001915e-01 2.117573e-02 -9.879053e-02 -2.788133e-02 -1.796552e-01 5.612358e-03 7.450926e-02 3.121780e-03 9.502970e-02 1.085827e-01 -1.185269e-02 -5.756494e-02 -4.311424e-02 -2.828397e-02 -6.703218e-02 -6.277730e-02 5.772556e-03 -9.115849e-02
<VARIANCE> 39
 1.605388e+01 3.843583e+01 3.884033e+01 7.356290e+01 6.588102e+01 5.168046e+01 5.427205e+01 5.472243e+01 4.919887e+01 3.172140e+01 2.581787e+01 3.025267e+01 1.311860e+02 4.000354e-01 1.379336e+00 1.132080e+00 1.120347e+00 1.647093e+00 1.684632e+00 1.820606e+00 1.786991e+00 1.420419e+00 1.700661e+00 1.224098e+00 1.012236e+00 7.727090e-01 6.614644e-02 1.789867e-01 1.434006e-01 2.156431e-01 3.150086e-01 3.140944e-01 3.228826e-01 3.396786e-01 2.812611e-01 3.013313e-01 2.191397e-01 1.992354e-01 1.157993e-01
<GCONST> 1.035697e+02
<TRANSP> 5
 0.000000e+00 1.000000e+00 0.000000e+00 0.000000e+00 0.000000e+00
 0.000000e+00 6.388009e-01 3.611991e-01 0.000000e+00 0.000000e+00
 0.000000e+00 0.000000e+00 8.151972e-01 1.848028e-01 0.000000e+00
 0.000000e+00 0.000000e+00 0.000000e+00 6.200738e-01 3.799261e-01
 0.000000e+00 0.000000e+00 0.000000e+00 0.000000e+00 0.000000e+00
<ENDHMM>
~h "k"
<BEGINHMM>
<NUMSTATES> 5
<STATE> 2
<MEAN> 39
 -9.620621e+00 2.845333e+00 4.026151e+00 1.490358e+00 -5.617969e+00 -4.536583e+00 -1.113386e+00 -4.166641e+00 -3.722415e+00 -1.597361e+00 -2.411397e+00 -2.564139e+00 5.340133e+01 -1.005668e+00 4.352089e-01 -2.462857e-01 1.193570e+00 2.220149e+00 1.363282e+00 1.178779e+00 6.688842e-01 1.396922e+00 7.216362e-01 6.218464e-01 6.771585e-01 -3.390225e+00 -1.797541e-01 -5.327825e-01 -5.132542e-01 -4.556914e-01 1.786638e-02 2.005576e-01 -1.570839e-01 3.093398e-01 2.257371e-01 9.049743e-02 9.052876e-02 1.141673e-01 4.037637e-01
<VARIANCE> 39
 5.456273e+01 4.747644e+01 4.509274e+01 5.952634e+01 6.198121e+01 4.303008e+01 4.079062e+01 5.459475e+01 4.157500e+01 3.083456e+01 3.617303e+01 2.276951e+01 5.227871e+01 4.105135e+00 4.783504e+00 3.506575e+00 4.624316e+00 4.038788e+00 3.920329e+00 3.676602e+00 4.661211e+00 4.027474e+00 3.131034e+00 2.968826e+00 2.024031e+00 4.249378e+00 6.322068e-01 8.447478e-01 6.391996e-01 8.247356e-01 1.079706e+00 8.197404e-01 8.143438e-01 8.069013e-01 8.255647e-01 5.587223e-01 5.015472e-01 3.715723e-01 1.430442e+00
<GCONST> 1.340915e+02
<STATE> 3
<MEAN> 39
 -1.256290e+01 1.686566e+00 1.053751e+00 3.590085e+00 8.813192e-01 1.128154e+00 2.271311e+00 4.759941e-01 1.899960e+00 1.599821e+00 6.998256e-01 6.247601e-01 4.346959e+01 -8.817418e-01 -1.362978e+00 -1.050785e+00 -1.420507e+00 1.187839e-01 1.850327e-01 -3.639022e-01 3.709624e-01 4.439195e-01 5.175081e-01 3.436348e-01 5.343443e-01 1.085063e+00 -1.834246e-01 -2.135858e-01 -1.399835e-01 -6.878756e-01 -7.079684e-01 -6.548329e-01 -5.826077e-01 -3.880479e-01 -4.506247e-01 -2.428853e-01 -1.837999e-01 -1.412455e-01 1.812987e+00
<VARIANCE> 39
 2.752839e+01 2.571480e+01 2.899947e+01 2.946539e+01 2.351366e+01 2.093635e+01 2.766809e+01 2.465585e+01 2.293855e+01 1.769579e+01 1.661939e+01 1.260598e+01 4.619741e+01 4.497048e+00 4.503464e+00 4.783204e+00 4.891791e+00 4.422321e+00 4.164412e+00 3.884760e+00 3.641434e+00 3.591393e+00 2.596415e+00 2.418038e+00 1.733746e+00 1.162916e+01 6.067758e-01 6.941336e-01 6.060389e-01 6.929163e-01 6.189500e-01 5.584680e-01 5.816043e-01 5.652592e-01 5.233036e-01 4.442426e-01 3.887986e-01 3.154383e-01 1.133795e+00
<GCONST> 1.234022e+02
<STATE> 4
<MEAN> 39
 -1.837477e+01 -2.888754e+00 -2.167911e+00 -5.591279e+00 -1.972635e+00 -2.609758e+00 -2.804472e+00 -1.341845e+00 5.058945e-01 1.495841e+00 4.152109e-01 1.117571e+00 5.874504e+01 -3.470001e-01 2.467694e-01 6.610113e-02 -9.786580e-01 -9.923460e-01 -7.971448e-01 -9.506957e-01 -7.005718e-01 -4.899186e-01 -4.815443e-01 -2.155158e-01 -2.025784e-01 2.393409e+00 8.305719e-01 5.923268e-01 6.406552e-01 5.947802e-01 -3.412814e-01 -5.085293e-02 9.172697e-02 -1.431744e-01 -3.057911e-01 -3.437105e-01 -1.189035e-01 -2.809894e-01 -6.575025e-01
<VARIANCE> 39
 3.501571e+01 3.986293e+01 4.973479e+01 3.644387e+01 3.540524e+01 2.667615e+01 3.029924e+01 2.383317e+01 2.490706e+01 2.337093e+01 1.730384e+01 1.286181e+01 2.795202e+01 4.852026e+00 3.873424e+00 4.575347e+00 4.578419e+00 3.573091e+00 3.063481e+00 3.102899e+00 2.659939e+00 2.896152e+00 2.603502e+00 2.048632e+00 1.782851e+00 7.129261e+00 7.326989e-01 8.662844e-01 7.006851e-01 7.966746e-01 8.143435e-01 7.174314e-01 6.805552e-01 6.292083e-01 6.649149e-01 5.466852e-01 4.691151e-01 3.526265e-01 9.055484e-01
<GCONST> 1.253815e+02
<TRANSP> 5
 0.000000e+00 1.000000e+00 0.000000e+00 0.000000e+00 0.000000e+00
 0.000000e+00 5.697801e-01 4.302199e-01 0.000000e+00 0.000000e+00
 0.000000e+00 0.000000e+00 6.171004e-01 3.828996e-01 0.000000e+00
 0.000000e+00 0.000000e+00 0.000000e+00 6.698494e-01 3.301506e-01
 0.000000e+00 0.000000e+00 0.000000e+00 0.000000e+00 0.000000e+00
<ENDHMM>
~h "l"
<BEGINHMM>
<NUMSTATES> 5
<STATE> 2
<MEAN> 39
 -3.842656e+00 -7.320808e-01 8.039125e+00 -1.476264e+00 -1.017094e+01 -7.281162e+00 -8.832070e+00 -3.030079e+00 -5.978481e+00 -4.286171e+00 -1.802709e+00 -2.370807e+00 6.057587e+01 4.986859e-02 6.693205e-01 7.539665e-01 1.136323e-01 8.443759e-01 1.223199e-01 -6.951191e-01 -2.033698e-01 -3.896454e-02 -6.282982e-01 -6.624246e-02 2.316875e-01 -4.416701e-01 -1.129600e-01 -2.679330e-02 -2.498537e-01 -1.065833e-01 1.224152e-01 1.052160e-01 1.337412e-01 9.700829e-02 1.631319e-01 6.120529e-02 -2.608156e-02 3.783390e-02 -3.131830e-02
<VARIANCE> 39
 2.520934e+01 3.860598e+01 4.651113e+01 7.044347e+01 3.647736e+01 4.984285e+01 4.738650e+01 4.863221e+01 5.418487e+01 3.596672e+01 3.047540e+01 2.279080e+01 3.053692e+01 1.423560e+00 2.121984e+00 2.613332e+00 2.772838e+00 4.171141e+00 3.951295e+00 3.941747e+00 3.238546e+00 3.450936e+00 2.753144e+00 2.338886e+00 2.088864e+00 2.524470e+00 1.656101e-01 3.111489e-01 3.842367e-01 4.608488e-01 5.875338e-01 6.378624e-01 6.532217e-01 5.436560e-01 5.583929e-01 4.776999e-01 3.833181e-01 3.283117e-01 2.911671e-01
<GCONST> 1.212949e+02
<STATE> 3
<MEAN> 39
 -4.350775e+00 1.129262e+00 9.044196e+00 -2.736496e+00 -6.067095e+00 -7.250215e+00 -1.186394e+01 -2.693348e+00 -4.703250e+00 -7.345776e+00 -2.324783e+00 -1.109815e+00 5.991356e+01 -2.931978e-02 -2.018502e-01 -3.314172e-01 -2.255959e-01 4.717062e-02 3.135822e-02 3.456180e-02 3.750800e-01 2.408998e-01 2.627421e-01 -6.478190e-02 1.044299e-01 1.094492e-01 -9.908582e-03 -5.684204e-01 -5.374696e-01 -1.045474e-01 -6.760091e-01 8.917440e-02 6.423317e-01 2.348997e-01 7.359934e-02 4.444146e-01 -3.531279e-02 -2.154366e-01 4.203171e-01
<VARIANCE> 39
 2.216133e+01 3.585539e+01 4.068276e+01 6.786668e+01 3.267685e+01 5.578149e+01 5.448688e+01 4.600785e+01 4.284843e+01 3.508175e+01 3.072906e+01 2.416880e+01 2.804921e+01 9.725187e-01 2.226533e+00 1.943353e+00 1.859074e+00 3.702487e+00 2.551543e+00 3.249448e+00 2.802413e+00 2.206925e+00 2.240886e+00 1.672847e+00 1.511760e+00 1.305958e+00 1.701192e-01 3.330279e-01 3.345099e-01 4.236108e-01 6.951573e-01 7.584757e-01 7.812536e-01 6.567577e-01 5.437725e-01 5.052662e-01 4.237770e-01 3.704961e-01 2.028441e-01
<GCONST> 1.173070e+02
<STATE> 4
<MEAN> 39
 -6.925120e+00 -5.122536e-01 3.178393e+00 1.034128e+00 -4.887398e+00 -3.924194e+00 -2.897635e+00 -8.698202e-01 -1.187377e+00 -2.852921e+00 -1.180271e+00 -1.643582e-01 5.352661e+01 -1.541545e-01 -4.388806e-01 -5.636159e-01 -1.123828e-01 -2.908795e-01 2.361899e-01 5.955393e-01 3.458033e-01 2.380428e-01 4.307716e-01 2.010725e-02 -8.509091e-02 6.664099e-02 2.216601e-02 -4.854687e-02 -5.357023e-02 -6.860080e-03 -4.318502e-02 4.893512e-02 3.321256e-02 -2.216867e-02 -8.061007e-03 -3.061384e-02 -2.894708e-02 -7.220225e-02 5.590575e-02
<VARIANCE> 39
 2.930242e+01 3.641086e+01 4.101392e+01 5.816824e+01 4.716940e+01 4.692358e+01 5.843501e+01 3.718449e+01 3.924381e+01 3.593469e+01 2.445372e+01 1.922937e+01 9.048449e+01 7.695240e-01 2.016311e+00 1.839639e+00 1.705430e+00 2.758969e+00 2.201385e+00 2.848877e+00 2.682078e+00 2.213101e+00 2.099971e+00 1.736834e+00 1.340467e+00 1.527744e+00 1.269636e-01 2.281981e-01 2.244020e-01 2.990188e-01 3.552755e-01 3.844668e-01 4.333336e-01 4.035507e-01 3.277837e-01 3.182623e-01 2.744100e-01 2.340796e-01 1.431663e-01
<GCONST> 1.110216e+02
<TRANSP> 5
 0.000000e+00 1.000000e+00 0.000000e+00 0.000000e+00 0.000000e+00
 0.000000e+00 5.788865e-01 4.211135e-01 0.000000e+00 0.000000e+00
 0.000000e+00 0.000000e+00 5.095025e-01 4.904975e-01 0.000000e+00
 0.000000e+00 0.000000e+00 0.000000e+00 6.615763e-01 3.384237e-01
 0.000000e+00 0.000000e+00 0.000000e+00 0.000000e+00 0.000000e+00
<ENDHMM>
~h "m"
<BEGINHMM>
<NUMSTATES> 5
<STATE> 2
<MEAN> 39
 -8.709207e-02 -1.707320e+00 1.409073e+00 -1.302301e-01 -6.996894e+00 -6.402250e+00 -5.936048e+00 -6.606004e+00 -8.687067e+00 -3.404530e+00 -2.588994e+00 -5.602640e+00 5.939117e+01 4.743500e-01 9.416990e-01 5.819146e-01 1.540145e+00 1.043843e+00 -5.774469e-01 -2.570694e-02 -1.444496e+00 -1.210545e+00 5.395902e-01 6.908345e-03 -6.517460e-01 -9.383696e-01 -2.218054e-01 -1.205479e-01 -2.809668e-02 -2.727538e-01 -7.522313e-02 1.897874e-01 7.515117e-02 1.618717e-01 2.113267e-01 3.880666e-03 -3.268714e-02 1.025026e-01 1.977582e-01
<VARIANCE> 39
 2.789912e+01 3.476918e+01 3.158976e+01 6.565267e+01 5.010609e+01 7.089447e+01 4.455457e+01 5.270998e+01 5.158677e+01 6.124560e+01 6.277493e+01 4.037253e+01 2.820169e+01 1.273672e+00 1.679643e+00 3.181790e+00 3.226581e+00 3.198982e+00 3.518529e+00 3.597538e+00 3.567078e+00 3.799971e+00 3.630854e+00 2.926606e+00 3.311211e+00 1.661762e+00 1.712173e-01 2.959387e-01 3.834407e-01 4.958432e-01 4.576560e-01 5.305120e-01 4.904342e-01 6.238119e-01 6.683607e-01 5.939715e-01 4.684518e-01 4.919544e-01 2.049904e-01
<GCONST> 1.236108e+02
<STATE> 3
<MEAN> 39
 8.901519e-01 1.175080e+00 2.959977e+00 3.624684e+00 -4.601078e+00 -6.806088e+00 -4.319350e+00 -9.695488e+00 -9.678136e+00 -1.605693e+00 -2.497294e+00 -6.503006e+00 5.728664e+01 -8.036596e-02 1.946909e-02 -5.305917e-02 -1.429092e-02 -7.408495e-03 1.240583e-01 5.789812e-02 1.267256e-01 1.527223e-01 -2.415332e-02 -3.819115e-02 1.410474e-01 5.345358e-02 -1.117303e-01 -2.161036e-01 -2.320406e-01 -4.187644e-01 -2.297644e-01 2.352282e-01 -2.494522e-02 4.266961e-01 3.724720e-01 -1.806243e-01 -5.772823e-02 1.479834e-01 2.276785e-01
<VARIANCE> 39
 2.276829e+01 2.764759e+01 2.159696e+01 7.006062e+01 4.931952e+01 6.645005e+01 5.084081e+01 5.223612e+01 4.572303e+01 5.600843e+01 6.312650e+01 3.101804e+01 2.059879e+01 2.630761e-01 7.126570e-01 1.040807e+00 1.394235e+00 1.298182e+00 1.735381e+00 1.507409e+00 1.765307e+00 1.743067e+00 1.498013e+00 1.309156e+00 1.321669e+00 5.192469e-01 9.360541e-02 1.709608e-01 3.235601e-01 3.771947e-01 3.071071e-01 3.753152e-01 3.845727e-01 4.625441e-01 4.658423e-01 3.846884e-01 3.215480e-01 3.408587e-01 1.013330e-01
<GCONST> 1.048732e+02
<STATE> 4
<MEAN> 39
 -6.319643e+00 -1.238515e+00 4.579590e-01 2.933798e+00 -1.369482e+00 -2.286651e+00 -3.848105e-01 -2.231146e+00 -1.947500e+00 -1.015355e+00 -9.047625e-01 -1.091352e+00 4.956428e+01 -2.737494e-01 -2.637236e-01 -3.734735e-01 -5.182101e-01 -1.449047e-01 3.683628e-01 2.968508e-02 5.299563e-01 5.412942e-01 -8.467201e-02 2.607692e-05 2.346745e-01 2.402176e-02 8.162153e-03 -4.002693e-02 -1.951447e-02 -1.302261e-01 -6.634371e-02 3.442222e-02 -3.777992e-02 2.951176e-02 2.130391e-02 -4.210278e-02 -1.284804e-02 -6.938906e-03 9.373524e-02
<VARIANCE> 39
 4.279025e+01 3.038198e+01 2.170619e+01 3.577012e+01 3.161457e+01 4.447281e+01 4.253946e+01 4.962548e+01 4.958397e+01 2.955564e+01 3.289912e+01 2.870005e+01 7.625378e+01 1.068319e+00 1.760684e+00 2.030835e+00 2.744921e+00 2.191262e+00 2.332697e+00 2.192565e+00 3.133113e+00 2.857915e+00 2.309250e+00 1.803040e+00 1.668323e+00 1.649953e+00 1.677431e-01 2.571967e-01 2.495339e-01 3.339480e-01 3.266652e-01 3.246801e-01 3.300467e-01 4.094664e-01 4.041175e-01 3.568344e-01 2.940849e-01 2.516873e-01 1.539642e-01
<GCONST> 1.119932e+02
<TRANSP> 5
 0.000000e+00 1.000000e+00 0.000000e+00 0.000000e+00 0.000000e+00
 0.000000e+00 5.912728e-01 4.087272e-01 0.000000e+00 0.000000e+00
 0.000000e+00 0.000000e+00 7.591946e-01 2.408054e-01 0.000000e+00
 0.000000e+00 0.000000e+00 0.000000e+00 7.339630e-01 2.660370e-01
 0.000000e+00 0.000000e+00 0.000000e+00 0.000000e+00 0.000000e+00
<ENDHMM>
~h "n"
<BEGINHMM>
<NUMSTATES> 5
<STATE> 2
<MEAN> 39
 -7.635061e+00 6.359734e-01 4.121221e-01 3.516048e+00 -1.258819e+00 -1.039888e+00 1.370886e+00 -1.213515e+00 -1.722806e-01 3.067152e-01 -5.583959e-01 4.241457e-01 4.516322e+01 3.577181e-02 1.607987e-01 3.062884e-01 2.936535e-01 3.034962e-02 -9.505740e-02 1.317988e-01 -4.452670e-01 -2.512740e-01 1.079127e-01 -2.495745e-01 -3.217305e-02 -7.158168e-02 4.836245e-02 6.195196e-03 8.531617e-02 -6.337889e-02 -8.700318e-02 -8.553592e-02 -1.163216e-01 -6.937717e-02 -8.562098e-02 -7.848781e-02 -7.693578e-02 -7.530034e-02 2.037832e-01
<VARIANCE> 39
 3.870278e+01 1.811740e+01 2.135259e+01 3.297935e+01 3.067439e+01 3.667278e+01 3.197721e+01 4.286170e+01 4.317358e+01 3.031567e+01 2.834909e+01 2.298890e+01 7.936255e+01 8.734631e-01 1.241443e+00 1.310452e+00 1.551220e+00 1.595671e+00 1.912159e+00 1.976462e+00 2.694365e+00 1.987999e+00 1.768771e+00 1.661352e+00 1.601107e+00 1.181041e+00 1.808736e-01 2.222488e-01 2.024937e-01 2.386894e-01 2.891766e-01 3.052964e-01 3.440739e-01 4.410296e-01 3.767800e-01 2.955571e-01 2.844068e-01 2.612058e-01 1.657822e-01
<GCONST> 1.058984e+02
<STATE> 3
<MEAN> 39
 -4.872561e+00 1.913377e+00 4.043650e+00 3.366787e+00 -4.200530e+00 -4.088837e+00 -7.528391e-01 -7.019745e+00 -5.446342e+00 -7.058352e-01 -4.574036e+00 -1.475911e+00 5.004163e+01 1.463174e+00 4.717475e-01 9.669019e-01 -3.371898e-01 -1.115695e+00 -1.039311e+00 -1.002303e+00 -1.716880e+00 -1.383024e+00 -6.697013e-01 -1.055831e+00 -6.273912e-01 1.906036e+00 -1.488094e-02 -2.098098e-01 -1.847876e-01 -3.572643e-01 -1.196399e-01 2.864425e-03 -1.777165e-01 3.427806e-01 2.013554e-01 -5.214467e-02 1.655930e-01 1.674772e-02 4.048396e-01
<VARIANCE> 39
 4.092956e+01 2.564037e+01 2.599842e+01 5.172385e+01 4.663431e+01 5.435263e+01 4.144812e+01 5.376155e+01 4.820469e+01 4.716425e+01 3.707281e+01 3.104060e+01 6.561427e+01 2.909308e+00 2.418424e+00 2.044951e+00 2.848066e+00 3.723292e+00 4.028975e+00 4.147290e+00 4.622457e+00 4.114391e+00 3.972052e+00 3.148015e+00 2.306528e+00 5.553331e+00 5.892066e-01 4.677756e-01 4.394158e-01 4.064414e-01 5.952443e-01 5.794176e-01 6.391456e-01 8.131886e-01 6.226084e-01 5.435191e-01 4.648104e-01 4.093699e-01 5.320262e-01
<GCONST> 1.281062e+02
<STATE> 4
<MEAN> 39
 -2.170873e-01 1.972535e+00 5.163188e+00 3.560085e-01 -8.517247e+00 -6.623512e+00 -3.596398e+00 -1.043713e+01 -8.042212e+00 -2.182291e+00 -6.814619e+00 -2.550878e+00 5.793695e+01 -3.820345e-01 -1.752090e-01 -6.048223e-01 -5.287908e-01 1.940784e-01 -1.005537e-01 -5.610493e-01 8.194256e-01 4.053780e-01 -1.609267e-01 1.740487e-01 -2.337436e-01 1.080279e+00 -4.599161e-01 -1.908731e-01 -4.330812e-01 -1.827018e-01 2.973894e-01 2.308285e-01 -5.337724e-02 5.948275e-01 3.433216e-01 -2.682709e-02 1.910085e-01 -7.623176e-02 2.845818e-02
<VARIANCE> 39
 2.283829e+01 2.253436e+01 2.968689e+01 6.322151e+01 4.004216e+01 6.276874e+01 4.675589e+01 4.646242e+01 3.939618e+01 6.248992e+01 4.103447e+01 3.238961e+01 1.893228e+01 1.672757e+00 1.591820e+00 2.524832e+00 2.024444e+00 2.555446e+00 2.730807e+00 2.773931e+00 3.770228e+00 2.369938e+00 2.132684e+00 1.760131e+00 2.007895e+00 2.113085e+00 3.564398e-01 2.855575e-01 4.840579e-01 4.081201e-01 4.927860e-01 5.649728e-01 5.914630e-01 6.897301e-01 5.063107e-01 5.013053e-01 3.886293e-01 3.847652e-01 3.295548e-01
<GCONST> 1.189814e+02
<TRANSP> 5
 0.000000e+00 1.000000e+00 0.000000e+00 0.000000e+00 0.000000e+00
 0.000000e+00 7.169073e-01 2.830928e-01 0.000000e+00 0.000000e+00
 0.000000e+00 0.000000e+00 5.040416e-01 4.959585e-01 0.000000e+00
 0.000000e+00 0.000000e+00 0.000000e+00 6.909213e-01 3.090787e-01
 0.000000e+00 0.000000e+00 0.000000e+00 0.000000e+00 0.000000e+00
<ENDHMM>
~h "o"
<BEGINHMM>
<NUMSTATES> 5
<STATE> 2
<MEAN> 39
 -4.183252e+00 -1.903540e+00 -2.447218e+00 -5.129158e+00 -7.091661e+00 -4.668688e+00 -7.476795e+00 -3.499957e+00 3.899653e-02 -1.019248e+00 -3.936052e+00 -2.502858e+00 5.962750e+01 2.067962e+00 -4.492708e-01 -7.145032e-01 -1.537258e+00 -7.839477e-01 2.170645e-01 -8.392640e-01 -3.623917e-01 -2.967170e-01 3.039460e-01 -5.076392e-01 -4.819806e-01 8.104559e-01 -3.714407e-01 2.590887e-02 1.590279e-01 2.997765e-02 2.086876e-01 2.800788e-01 2.499804e-01 5.562845e-02 -1.653135e-01 1.069274e-01 2.121193e-01 1.154375e-01 -1.313367e-02
<VARIANCE> 39
 3.820044e+01 4.147938e+01 3.394191e+01 8.802037e+01 5.455336e+01 7.316767e+01 5.971968e+01 5.437560e+01 5.645854e+01 6.303051e+01 4.456839e+01 2.470779e+01 5.413725e+01 3.985605e+00 3.547679e+00 3.224584e+00 4.560309e+00 5.856878e+00 6.059681e+00 4.279943e+00 4.934197e+00 5.548860e+00 3.520905e+00 3.262869e+00 2.284567e+00 3.403048e+00 7.511736e-01 5.399590e-01 4.046492e-01 8.045312e-01 8.065922e-01 6.923420e-01 7.574022e-01 7.849435e-01 7.364873e-01 6.391031e-01 5.524686e-01 3.729911e-01 5.446107e-01
<GCONST> 1.346921e+02
<STATE> 3
<MEAN> 39
 -1.255547e-01 -2.821993e+00 -3.687221e+00 -1.114018e+01 -9.312254e+00 2.980884e-01 -7.406487e+00 -3.820162e+00 -2.608148e+00 -1.008584e+00 -2.485958e+00 -2.304747e+00 6.305793e+01 1.570740e-01 2.970985e-02 1.150874e-01 5.858522e-02 4.828675e-02 5.421501e-02 -1.230367e-01 -1.148908e-01 -2.772007e-01 1.299594e-01 1.940175e-01 -8.832932e-02 -1.113382e-02 -2.785209e-01 2.085832e-01 2.860238e-01 4.786623e-01 2.878784e-01 -1.939415e-01 1.719981e-02 -9.703106e-02 -6.153860e-02 -2.075761e-02 7.247778e-02 7.789647e-03 -2.657435e-01
<VARIANCE> 39
 1.557644e+01 4.922968e+01 3.384803e+01 1.048547e+02 4.829769e+01 9.212431e+01 4.080971e+01 5.359927e+01 5.114108e+01 4.442837e+01 5.768961e+01 2.993008e+01 2.556877e+01 4.168063e-01 9.934554e-01 1.031293e+00 1.823164e+00 2.227760e+00 2.153519e+00 1.963199e+00 2.402711e+00 2.137508e+00 1.894433e+00 1.627414e+00 1.512737e+00 7.188674e-01 1.816750e-01 2.504048e-01 2.419468e-01 3.343745e-01 4.144714e-01 4.463089e-01 3.762193e-01 4.755839e-01 4.524308e-01 3.403798e-01 3.447058e-01 3.027877e-01 1.640428e-01
<GCONST> 1.108958e+02
<STATE> 4
<MEAN> 39
 -7.612497e-01 -5.236339e-01 -2.045250e+00 -5.762503e+00 -6.388506e+00 -2.961122e+00 -8.744488e+00 -5.407460e+00 -2.701368e+00 -3.842664e-01 -2.545221e+00 -2.248924e+00 5.955895e+01 -6.664531e-01 9.707756e-01 1.078658e+00 1.805859e+00 1.047196e+00 -7.475583e-01 5.520828e-01 -1.180732e-01 -1.865868e-01 -2.941423e-01 1.686490e-01 4.212921e-02 -1.101840e+00 -3.913853e-01 3.249107e-01 1.630374e-01 3.084791e-01 2.625959e-01 1.501824e-01 3.823367e-01 1.089764e-01 2.016965e-02 -1.862899e-01 -2.403116e-02 2.949759e-02 -3.649976e-01
<VARIANCE> 39
 2.077766e+01 4.201647e+01 3.248917e+01 7.862486e+01 4.781523e+01 8.042489e+01 6.569816e+01 5.700400e+01 6.094105e+01 3.759322e+01 4.849147e+01 2.712368e+01 5.388359e+01 2.154062e+00 2.203391e+00 1.914234e+00 3.919273e+00 3.925827e+00 4.374109e+00 4.454113e+00 4.326230e+00 4.278040e+00 3.071021e+00 2.722881e+00 2.024371e+00 1.943294e+00 3.161272e-01 3.952754e-01 3.408305e-01 5.783889e-01 6.203632e-01 7.035702e-01 8.124209e-01 6.868967e-01 8.725328e-01 5.090634e-01 4.526939e-01 4.141772e-01 3.119462e-01
<GCONST> 1.272377e+02
<TRANSP> 5
 0.000000e+00 1.000000e+00 0.000000e+00 0.000000e+00 0.000000e+00
 0.000000e+00 5.512585e-01 4.487414e-01 0.000000e+00 0.000000e+00
 0.000000e+00 0.000000e+00 7.187773e-01 2.812227e-01 0.000000e+00
 0.000000e+00 0.000000e+00 0.000000e+00 5.072995e-01 4.927005e-01
 0.000000e+00 0.000000e+00 0.000000e+00 0.000000e+00 0.000000e+00
<ENDHMM>
~h "p"
<BEGINHMM>
<NUMSTATES> 5
<STATE> 2
<MEAN> 39
 -2.690771e+00 3.131948e+00 2.596817e+00 2.424409e+00 -3.673608e+00 -4.129032e+00 -3.677175e+00 -4.142706e+00 -2.657997e+00 -2.415611e+00 -2.723363e+00 -2.827190e+00 4.809024e+01 -1.138838e+00 1.503959e+00 -1.588509e-01 1.463729e+00 2.016768e+00 1.533823e+00 1.710067e+00 6.109378e-01 9.966339e-01 6.075699e-01 5.864998e-01 5.445589e-01 -4.124774e+00 -6.397954e-01 -6.171485e-01 -2.124902e-01 -4.289650e-01 -3.166020e-01 7.023565e-02 6.014341e-02 3.224992e-01 2.025932e-01 2.232117e-01 2.257897e-01 1.722032e-01 7.524832e-01
<VARIANCE> 39
 3.772252e+01 3.070782e+01 2.616111e+01 3.421525e+01 3.152841e+01 3.754842e+01 3.610991e+01 3.112113e+01 2.981113e+01 2.476868e+01 3.028741e+01 1.907664e+01 4.437654e+01 3.143888e+00 3.527472e+00 2.935806e+00 3.303615e+00 2.837678e+00 3.775446e+00 3.491401e+00 3.897092e+00 3.383577e+00 2.833978e+00 2.649904e+00 2.114517e+00 3.689184e+00 3.738787e-01 7.910175e-01 3.966919e-01 4.983699e-01 5.081413e-01 6.433105e-01 7.190819e-01 6.249003e-01 5.545791e-01 4.238415e-01 3.792935e-01 3.338114e-01 1.195324e+00
<GCONST> 1.232422e+02
<STATE> 3
<MEAN> 39
 -9.449944e+00 2.411744e+00 1.786461e-01 3.719306e+00 6.712927e-01 1.229616e+00 2.178287e+00 4.684269e-01 2.206065e+00 1.756404e+00 1.670267e+00 1.015221e+00 3.957372e+01 -8.743614e-01 -9.407353e-01 -5.582174e-01 -2.073525e-01 -1.000442e-01 1.679095e-01 1.032102e-01 3.524643e-01 3.514434e-01 2.910857e-01 3.357623e-01 3.257241e-01 9.200816e-01 2.262191e-01 -4.159365e-01 -1.166692e-01 -3.678761e-01 -4.710383e-01 -4.033748e-01 -4.891478e-01 -2.928033e-01 -2.783172e-01 -2.605065e-01 -2.529672e-01 -2.004150e-01 1.362980e+00
<VARIANCE> 39
 1.469165e+01 1.364267e+01 1.111747e+01 1.656722e+01 1.288160e+01 1.449491e+01 1.766226e+01 1.468637e+01 1.605069e+01 1.442618e+01 1.378860e+01 1.140751e+01 2.238160e+01 2.246652e+00 2.596560e+00 1.925678e+00 1.691100e+00 2.231767e+00 2.350672e+00 2.844451e+00 2.290587e+00 2.070275e+00 2.182762e+00 1.853655e+00 1.447075e+00 7.927029e+00 3.493780e-01 4.635511e-01 3.740304e-01 3.947308e-01 4.535187e-01 4.846041e-01 5.217091e-01 4.369244e-01 4.052002e-01 4.280907e-01 3.660537e-01 3.052051e-01 1.069313e+00
<GCONST> 1.070302e+02
<STATE> 4
<MEAN> 39
 -1.209190e+01 -3.721975e+00 -2.360497e+00 2.563638e-01 -3.598843e+00 -2.053361e+00 -1.715135e+00 -1.638345e+00 8.110235e-01 -1.455238e-02 2.209326e-01 3.692140e-02 5.589984e+01 7.747758e-01 -1.034163e+00 -7.678136e-01 -1.565708e+00 -9.611501e-01 -6.612267e-01 -1.165917e+00 -7.642305e-01 -6.979560e-01 -6.777116e-01 -7.390244e-01 -6.864103e-01 3.538179e+00 7.746021e-01 4.486633e-01 1.707682e-01 -2.043575e-01 5.907408e-02 1.015328e-01 -6.024420e-02 -8.346190e-02 -2.146258e-01 -1.511908e-01 -2.176754e-01 -2.568585e-01 -6.305355e-01
<VARIANCE> 39
 4.123693e+01 2.068292e+01 3.262561e+01 2.940386e+01 2.474954e+01 2.768436e+01 2.837693e+01 2.303581e+01 2.246901e+01 2.192439e+01 2.160683e+01 1.556067e+01 4.338628e+01 5.146781e+00 5.002879e+00 3.848263e+00 3.464898e+00 3.954518e+00 4.441659e+00 3.594787e+00 3.071321e+00 3.395859e+00 3.518066e+00 3.036958e+00 2.680813e+00 8.977595e+00 7.227985e-01 7.525916e-01 6.316523e-01 6.650098e-01 7.804219e-01 8.231356e-01 7.612894e-01 6.010462e-01 5.580432e-01 5.752920e-01 4.759132e-01 4.511019e-01 1.141057e+00
<GCONST> 1.267270e+02
<TRANSP> 5
 0.000000e+00 1.000000e+00 0.000000e+00 0.000000e+00 0.000000e+00
 0.000000e+00 6.146634e-01 3.853366e-01 0.000000e+00 0.000000e+00
 0.000000e+00 0.000000e+00 7.624622e-01 2.375378e-01 0.000000e+00
 0.000000e+00 0.000000e+00 0.000000e+00 6.326801e-01 3.673199e-01
 0.000000e+00 0.000000e+00 0.000000e+00 0.000000e+00 0.000000e+00
<ENDHMM>
~h "s"
<BEGINHMM>
<NUMSTATES> 5
<STATE> 2
<MEAN> 39
 -1.005800e+01 1.028288e+00 -2.587246e+00 3.164293e-01 -1.997364e+00 -5.360532e-01 7.815216e-01 -4.017907e-01 5.828759e-01 -5.998926e-02 4.364406e-01 6.508545e-01 4.855947e+01 -1.667174e+00 7.384720e-01 -4.037126e-01 7.836881e-01 4.709941e-01 -1.096373e-01 3.054177e-01 1.445313e-01 2.797483e-01 3.500592e-02 2.345488e-01 9.863186e-02 4.555281e-01 -3.575782e-01 -5.123102e-02 -1.490774e-01 -2.758836e-02 -2.651955e-02 4.602112e-02 5.577241e-02 7.654076e-02 1.606107e-02 1.975456e-02 2.843627e-02 1.464788e-02 2.013678e-01
<VARIANCE> 39
 3.898575e+01 2.363892e+01 2.431007e+01 3.717972e+01 3.595626e+01 4.714901e+01 3.838429e+01 3.343837e+01 3.076497e+01 3.127839e+01 3.037218e+01 2.376102e+01 1.127678e+02 4.399940e+00 2.984113e+00 2.376312e+00 4.283396e+00 3.932094e+00 3.408559e+00 3.573853e+00 2.819859e+00 2.454770e+00 2.605613e+00 2.291729e+00 1.786694e+00 4.886731e+00 5.090492e-01 4.006064e-01 3.696151e-01 4.670552e-01 4.942544e-01 5.418571e-01 5.149406e-01 4.425108e-01 3.892362e-01 4.468266e-01 3.993607e-01 3.412343e-01 5.225508e-01
<GCONST> 1.221977e+02
<STATE> 3
<MEAN> 39
 -2.012431e+01 6.764853e+00 -5.426270e+00 4.119023e+00 -8.921852e-01 -2.388317e+00 5.472206e-01 -7.546608e-01 -7.617676e-01 -2.264273e+00 -7.353310e-01 -1.152214e+00 5.932553e+01 -3.252667e+00 1.597754e-01 -1.426964e+00 6.931988e-01 5.479397e-01 8.544421e-01 1.200612e+00 1.004242e+00 9.458586e-01 8.729070e-01 9.240284e-01 6.608958e-01 -2.501865e-01 7.244195e-01 -5.602626e-01 6.646996e-02 -5.459427e-01 -4.368827e-01 -8.114076e-02 -2.997918e-01 -1.131377e-01 -5.017810e-02 9.802926e-02 -4.796782e-04 7.774299e-02 -9.474692e-02
<VARIANCE> 39
 2.625405e+01 2.633266e+01 2.951310e+01 2.844485e+01 4.292356e+01 3.222786e+01 2.618473e+01 2.767581e+01 2.866534e+01 2.079989e+01 1.922509e+01 1.786606e+01 2.205702e+01 3.507907e+00 2.771493e+00 2.364243e+00 3.039381e+00 3.384893e+00 3.411863e+00 2.984828e+00 2.412831e+00 2.358812e+00 2.295739e+00 2.267418e+00 1.712867e+00 1.259601e+00 4.223242e-01 4.312874e-01 4.238578e-01 4.760978e-01 6.044176e-01 6.027960e-01 5.509694e-01 4.834779e-01 4.123460e-01 4.217705e-01 3.599826e-01 2.989109e-01 1.955274e-01
<GCONST> 1.147878e+02
<STATE> 4
<MEAN> 39
 -2.437390e+01 3.314726e+00 -8.213589e+00 2.090795e+00 -2.233244e+00 -2.074586e+00 1.778980e+00 1.124554e+00 1.714133e+00 1.776345e-02 1.901573e+00 1.769518e+00 5.838909e+01 7.301756e-01 -3.490897e-01 3.707324e-01 -3.649790e-01 -3.778922e-01 -4.891531e-01 -3.772230e-01 -2.021832e-01 -8.592346e-02 -1.918120e-01 -1.906427e-01 -4.272942e-02 7.061695e-02 7.756431e-01 -6.733561e-02 3.649746e-01 -1.182287e-01 -1.520244e-01 -2.152661e-01 -2.851910e-01 -2.055903e-01 -1.927336e-01 -1.804591e-01 -2.453124e-01 -2.056188e-01 5.011289e-02
<VARIANCE> 39
 1.608480e+01 1.689215e+01 2.153808e+01 2.487000e+01 2.679013e+01 2.594770e+01 1.837948e+01 1.686403e+01 1.642257e+01 1.591220e+01 1.461334e+01 1.178209e+01 2.447050e+01 3.815158e+00 1.306951e+00 2.018638e+00 1.699078e+00 1.741512e+00 2.094669e+00 1.858516e+00 1.661305e+00 1.551571e+00 1.603677e+00 1.603578e+00 1.268021e+00 9.733477e-01 3.996348e-01 2.555347e-01 2.758608e-01 3.349478e-01 3.346485e-01 4.219755e-01 4.136901e-01 3.644305e-01 3.128577e-01 3.188175e-01 3.126094e-01 2.400235e-01 1.717870e-01
<GCONST> 1.014434e+02
<TRANSP> 5
 0.000000e+00 1.000000e+00 0.000000e+00 0.000000e+00 0.000000e+00
 0.000000e+00 7.127354e-01 2.872647e-01 0.000000e+00 0.000000e+00
 0.000000e+00 0.000000e+00 5.762309e-01 4.237691e-01 0.000000e+00
 0.000000e+00 0.000000e+00 0.000000e+00 8.483739e-01 1.516261e-01
 0.000000e+00 0.000000e+00 0.000000e+00 0.000000e+00 0.000000e+00
<ENDHMM>
~h "t"
<BEGINHMM>
<NUMSTATES> 5
<STATE> 2
<MEAN> 39
 -8.436969e+00 4.294054e+00 6.142002e-01 2.231246e+00 -2.923912e+00 -3.079728e+00 -6.344741e-01 -2.308775e+00 -1.214716e+00 -2.790291e+00 -2.430468e+00 -1.492691e+00 4.993080e+01 -8.515205e-01 3.035992e-01 1.032105e-01 1.155597e+00 1.401452e+00 1.308143e+00 1.195778e+00 6.530741e-01 7.522759e-01 8.391683e-01 6.698145e-01 4.205462e-01 -2.979629e+00 -2.042646e-01 -7.013401e-01 -3.494293e-01 -4.683861e-01 -2.180574e-01 1.761357e-02 -1.678282e-01 1.534035e-01 7.869493e-02 1.528299e-01 1.439272e-01 6.527831e-02 7.727137e-01
<VARIANCE> 39
 4.703908e+01 3.682336e+01 2.978574e+01 3.847025e+01 4.718254e+01 4.239705e+01 3.488182e+01 3.329313e+01 3.357306e+01 2.990834e+01 2.683616e+01 1.986330e+01 6.746835e+01 3.700377e+00 3.859929e+00 2.870698e+00 3.298572e+00 3.547402e+00 3.583536e+00 3.227611e+00 3.141583e+00 2.981143e+00 2.892831e+00 2.401174e+00 2.066680e+00 4.888416e+00 4.685246e-01 5.994717e-01 4.034200e-01 5.340128e-01 6.505551e-01 7.052184e-01 6.252824e-01 5.849283e-01 5.397708e-01 4.697661e-01 3.996653e-01 3.276218e-01 1.516227e+00
<GCONST> 1.257693e+02
<STATE> 3
<MEAN> 39
 -1.402041e+01 6.323017e-01 -2.821187e+00 9.748186e-01 -1.221245e+00 -6.763948e-01 9.189618e-01 3.324619e-01 1.651133e+00 9.928889e-01 1.327155e+00 9.285755e-01 4.972849e+01 -7.997294e-01 -8.091878e-01 -8.614842e-01 -7.469603e-01 -6.083033e-01 -6.111992e-01 -3.854668e-01 -2.920272e-02 -7.513836e-02 -3.133447e-02 2.001937e-01 1.116073e-01 2.291154e+00 3.293795e-01 1.412273e-01 2.027636e-01 -1.522327e-01 -3.195786e-01 -3.344984e-01 -3.515791e-01 -2.094322e-01 -2.420569e-01 -3.473984e-01 -2.937858e-01 -2.049160e-01 6.069652e-01
<VARIANCE> 39
 4.416871e+01 2.644326e+01 2.945357e+01 3.294235e+01 2.966018e+01 3.028305e+01 2.558614e+01 1.956863e+01 2.176238e+01 1.685270e+01 1.722126e+01 1.236598e+01 1.056797e+02 3.973216e+00 3.256750e+00 3.183249e+00 3.054499e+00 3.355325e+00 3.166808e+00 2.884418e+00 2.502437e+00 2.836015e+00 2.487717e+00 2.095235e+00 1.624576e+00 1.120011e+01 9.704164e-01 6.406341e-01 7.329165e-01 6.245958e-01 6.553953e-01 6.987653e-01 6.414424e-01 4.889299e-01 5.170750e-01 4.732713e-01 4.347382e-01 3.367403e-01 2.507374e+00
<GCONST> 1.237226e+02
<STATE> 4
<MEAN> 39
 -1.284861e+01 -7.166752e-01 -2.655308e+00 1.214426e+00 -9.139501e-01 -7.702233e-01 1.875172e+00 1.285648e+00 1.876199e+00 4.007073e-01 1.323104e+00 1.647016e+00 4.706690e+01 2.361302e-01 1.074139e-02 1.040742e-01 -3.990574e-02 -8.597554e-02 -1.429386e-01 -1.988505e-01 -9.559094e-02 -8.852296e-02 -9.001773e-02 -1.076305e-01 -8.015786e-02 9.841758e-02 1.550769e-01 4.088840e-03 1.001748e-01 -1.359725e-02 -3.783077e-02 -1.049323e-02 -5.728672e-02 -3.970134e-02 -5.760740e-02 -3.361903e-02 -6.398059e-02 -4.934674e-02 -4.202544e-02
<VARIANCE> 39
 3.791119e+01 1.907118e+01 2.088392e+01 2.081607e+01 2.090204e+01 2.447784e+01 2.120092e+01 2.073395e+01 2.095763e+01 1.879190e+01 1.635286e+01 1.392132e+01 7.862273e+01 1.902613e+00 1.270315e+00 1.510906e+00 1.556178e+00 2.101493e+00 2.066169e+00 1.951179e+00 1.760878e+00 1.828585e+00 1.757098e+00 1.576152e+00 1.177326e+00 2.889359e+00 3.255674e-01 2.069618e-01 2.464292e-01 2.463787e-01 2.775175e-01 3.336197e-01 3.401552e-01 3.318160e-01 3.466803e-01 2.928325e-01 2.852156e-01 2.208697e-01 4.526053e-01
<GCONST> 1.038086e+02
<TRANSP> 5
 0.000000e+00 1.000000e+00 0.000000e+00 0.000000e+00 0.000000e+00
 0.000000e+00 6.137522e-01 3.862478e-01 0.000000e+00 0.000000e+00
 0.000000e+00 0.000000e+00 6.619660e-01 3.380340e-01 0.000000e+00
 0.000000e+00 0.000000e+00 0.000000e+00 8.164589e-01 1.835410e-01
 0.000000e+00 0.000000e+00 0.000000e+00 0.000000e+00 0.000000e+00
<ENDHMM>
~h "u"
<BEGINHMM>
<NUMSTATES> 5
<STATE> 2
<MEAN> 39
 -1.025934e+01 2.128945e-01 -4.864059e+00 -1.888073e+00 -1.854014e+00 -1.439459e+00 -5.341029e+00 -3.636184e+00 -2.122462e+00 -1.322771e+00 -1.867481e+00 -3.943732e-01 5.661348e+01 3.618911e+00 8.029563e-01 1.043891e+00 -1.319450e+00 -1.995780e+00 -7.094849e-01 -2.139608e+00 -2.030227e+00 -1.416883e+00 -8.965265e-01 -1.005985e+00 -9.401100e-01 5.192527e-01 3.365965e-01 5.100704e-02 -3.536266e-03 -4.770042e-01 -2.473173e-01 1.368705e-01 -1.166970e-01 -1.696423e-01 -1.823088e-01 1.217137e-01 8.055189e-02 -1.469957e-01 1.378027e-01
<VARIANCE> 39
 6.374332e+01 2.991998e+01 2.562170e+01 5.220179e+01 3.957393e+01 5.904373e+01 5.390715e+01 4.151235e+01 3.773998e+01 2.620595e+01 2.580928e+01 2.471024e+01 3.587089e+01 4.609052e+00 3.370820e+00 3.079138e+00 5.539342e+00 3.581598e+00 5.147085e+00 6.908156e+00 4.020870e+00 3.718578e+00 3.833793e+00 3.851904e+00 2.309901e+00 1.040637e+00 5.152376e-01 4.112362e-01 4.066847e-01 5.369938e-01 5.507166e-01 7.526001e-01 6.886558e-01 6.797612e-01 5.168046e-01 4.973971e-01 4.675943e-01 4.290632e-01 3.740415e-01
<GCONST> 1.268732e+02
<STATE> 3
<MEAN> 39
 -1.034235e+00 1.115703e-01 -3.818047e+00 -9.241053e+00 -8.701925e+00 -2.639138e+00 -1.211035e+01 -8.553150e+00 -5.994061e+00 -1.990340e+00 -4.368621e+00 -3.587753e+00 6.027729e+01 1.880836e+00 1.584374e-01 8.614989e-02 -1.247521e+00 -1.042184e+00 5.915753e-01 -6.022142e-01 -9.179394e-01 -9.679126e-01 -1.524347e-02 1.241525e-01 -4.177116e-01 1.348339e-01 -9.513761e-01 4.444764e-02 -3.456262e-02 7.757643e-01 6.750348e-01 2.097859e-01 7.710441e-01 4.629043e-01 3.558908e-01 9.637515e-02 3.602106e-01 2.873391e-01 -4.599051e-01
<VARIANCE> 39
 2.415799e+01 3.837698e+01 2.886798e+01 8.760532e+01 4.175642e+01 9.001212e+01 8.818893e+01 3.530877e+01 5.652008e+01 3.432711e+01 6.965208e+01 3.323343e+01 3.459082e+01 3.316331e+00 2.958151e+00 1.813073e+00 5.294944e+00 5.008632e+00 5.067735e+00 6.038648e+00 3.475313e+00 3.242875e+00 3.290607e+00 3.379357e+00 2.849802e+00 2.485838e+00 4.067551e-01 6.614884e-01 5.149701e-01 9.783676e-01 6.331642e-01 9.284551e-01 1.141846e+00 6.755093e-01 8.036405e-01 6.576561e-01 6.996115e-01 4.597521e-01 3.676162e-01
<GCONST> 1.322857e+02
<STATE> 4
<MEAN> 39
 1.447592e+00 4.397202e+00 -3.781068e+00 -8.560244e+00 -9.528683e+00 1.446643e+00 -7.224453e+00 -8.396866e+00 -8.340672e+00 -3.589498e+00 -2.635800e+00 -2.808462e+00 5.655939e+01 -2.679744e-01 -1.504242e-02 3.577008e-01 9.530559e-01 5.553448e-01 -2.189818e-01 -1.937044e-01 -4.953429e-02 2.162587e-01 3.360873e-02 1.975001e-01 -8.901776e-02 -3.233714e-01 -3.902097e-01 -6.923360e-02 1.890869e-01 3.811961e-01 2.851618e-01 -1.648140e-01 2.357060e-02 1.613880e-01 2.646094e-01 6.126033e-02 -4.701845e-02 1.623829e-02 -7.100872e-02
<VARIANCE> 39
 2.141339e+01 3.915912e+01 2.617172e+01 1.018337e+02 4.999715e+01 6.507019e+01 6.993822e+01 5.009055e+01 4.553591e+01 3.835938e+01 4.614228e+01 3.103986e+01 3.641803e+01 7.382246e-01 1.397704e+00 1.325110e+00 3.154720e+00 2.593069e+00 2.426560e+00 3.180557e+00 2.334573e+00 2.657629e+00 2.195277e+00 2.007380e+00 1.667556e+00 1.318542e+00 2.409019e-01 1.680199e-01 3.012671e-01 4.614315e-01 4.496419e-01 4.739491e-01 5.133385e-01 5.276926e-01 4.800147e-01 4.310987e-01 3.793827e-01 2.934688e-01 1.030023e-01
<GCONST> 1.153519e+02
<TRANSP> 5
 0.000000e+00 1.000000e+00 0.000000e+00 0.000000e+00 0.000000e+00
 0.000000e+00 4.002154e-01 5.997846e-01 0.000000e+00 0.000000e+00
 0.000000e+00 0.000000e+00 5.553629e-01 4.446371e-01 0.000000e+00
 0.000000e+00 0.000000e+00 0.000000e+00 7.609947e-01 2.390053e-01
 0.000000e+00 0.000000e+00 0.000000e+00 0.000000e+00 0.000000e+00
<ENDHMM>
~h "v"
<BEGINHMM>
<NUMSTATES> 5
<STATE> 2
<MEAN> 39
 -3.555265e+00 -1.429630e-01 3.837153e+00 1.890814e+00 -7.243424e+00 -6.833984e+00 -6.256883e+00 -3.671949e+00 -3.023189e+00 -2.807571e+00 -2.257069e+00 -1.835266e+00 5.821648e+01 -7.776673e-01 1.194634e+00 -4.190300e-02 1.503402e+00 1.305237e+00 8.385962e-01 7.869496e-02 -4.800816e-01 -8.453102e-02 -2.224954e-01 1.136044e-01 -2.001741e-01 -1.112788e+00 -2.539981e-01 -1.177955e-01 -2.440230e-02 -3.460395e-01 -9.856880e-02 1.492884e-01 1.479316e-01 9.415464e-02 -1.047322e-02 -2.681759e-02 -4.659727e-02 -1.125288e-03 2.483717e-01
<VARIANCE> 39
 1.986678e+01 3.519002e+01 3.350145e+01 5.377047e+01 2.790629e+01 4.199052e+01 3.325840e+01 3.881173e+01 3.321285e+01 2.792612e+01 2.630965e+01 1.653620e+01 3.943166e+01 1.766834e+00 1.787177e+00 2.189174e+00 2.567294e+00 2.142934e+00 2.404992e+00 2.664995e+00 2.648044e+00 2.429929e+00 1.803728e+00 1.513877e+00 1.259346e+00 1.010249e+00 1.488134e-01 2.597374e-01 1.924174e-01 3.530349e-01 3.369679e-01 3.379945e-01 3.686825e-01 3.440688e-01 3.068324e-01 3.058766e-01 2.336086e-01 1.840418e-01 1.498719e-01
<GCONST> 1.075480e+02
<STATE> 3
<MEAN> 39
 -7.592007e+00 3.359456e+00 3.840729e+00 4.741234e+00 -3.354121e+00 -3.157252e+00 -4.846197e+00 -4.558633e+00 -3.577116e+00 -3.759883e+00 -2.676776e+00 -2.535373e+00 5.614453e+01 -9.152465e-01 1.110726e-02 -4.693295e-02 3.418204e-02 2.846274e-01 3.644491e-01 2.254433e-01 -7.150773e-02 -7.918526e-02 -9.807675e-02 -5.883828e-02 -5.516027e-02 1.463529e-01 3.882379e-01 -6.421034e-01 -1.128576e-01 -7.697894e-01 -6.349838e-01 -4.016173e-01 -9.205564e-02 2.115482e-01 1.239127e-01 1.165176e-01 -2.788604e-03 3.426488e-02 5.458593e-01
<VARIANCE> 39
 2.912633e+01 3.507789e+01 2.695593e+01 4.851496e+01 2.514538e+01 3.552438e+01 2.739438e+01 2.769777e+01 2.379488e+01 2.114977e+01 2.072507e+01 1.299980e+01 4.035236e+01 1.801387e+00 1.395501e+00 1.311167e+00 1.736628e+00 1.800140e+00 1.884341e+00 1.572071e+00 1.558508e+00 1.556163e+00 1.348593e+00 1.034627e+00 8.445756e-01 7.835675e-01 3.996984e-01 3.768432e-01 3.822735e-01 5.248785e-01 4.237331e-01 4.486644e-01 4.906930e-01 4.569255e-01 3.829385e-01 3.139038e-01 3.122663e-01 2.242429e-01 2.505092e-01
<GCONST> 1.061326e+02
<STATE> 4
<MEAN> 39
 -7.849427e+00 -1.941180e-01 1.789296e+00 1.754089e+00 -4.528593e+00 -4.195289e+00 -4.971045e+00 -3.836666e+00 -2.531822e+00 -3.167408e+00 -2.577026e+00 -2.762131e+00 5.811829e+01 6.553013e-01 -1.313995e+00 -4.597400e-01 -1.689121e+00 -1.260940e+00 -6.068466e-01 -2.621646e-01 5.031798e-01 4.769607e-01 3.063306e-01 4.922965e-03 -4.893405e-02 1.218642e+00 3.496002e-01 -2.908674e-01 2.047986e-02 -3.746645e-01 -3.332042e-01 -1.367293e-01 -7.615676e-02 1.919562e-01 7.264826e-02 1.427600e-02 -2.112296e-02 2.341289e-02 2.046007e-01
<VARIANCE> 39
 4.408813e+01 2.853314e+01 2.923316e+01 5.502542e+01 3.007060e+01 4.195113e+01 3.035490e+01 3.023689e+01 3.181504e+01 2.569559e+01 2.353360e+01 1.561731e+01 4.907675e+01 2.513055e+00 2.291991e+00 2.680767e+00 3.060637e+00 2.676780e+00 2.643454e+00 2.731842e+00 2.319983e+00 2.538819e+00 1.843780e+00 1.905697e+00 1.383655e+00 1.566283e+00 4.508498e-01 3.982933e-01 3.030127e-01 5.198433e-01 4.074376e-01 3.890143e-01 4.742715e-01 4.161368e-01 3.675443e-01 3.331471e-01 2.493111e-01 2.528251e-01 2.516466e-01
<GCONST> 1.140127e+02
<TRANSP> 5
 0.000000e+00 1.000000e+00 0.000000e+00 0.000000e+00 0.000000e+00
 0.000000e+00 4.806862e-01 5.193138e-01 0.000000e+00 0.000000e+00
 0.000000e+00 0.000000e+00 5.010617e-01 4.989383e-01 0.000000e+00
 0.000000e+00 0.000000e+00 0.000000e+00 3.841072e-01 6.158929e-01
 0.000000e+00 0.000000e+00 0.000000e+00 0.000000e+00 0.000000e+00
<ENDHMM>
~h "w"
<BEGINHMM>
<NUMSTATES> 5
<STATE> 2
<MEAN> 39
 -1.004212e+01 -3.285860e-01 -3.569015e+00 1.547787e+00 7.155543e-01 2.833769e+00 2.672942e+00 1.149440e+00 1.468799e+00 2.360779e+00 1.507541e+00 1.679346e+00 4.247491e+01 6.430218e-01 2.489952e-01 -3.965291e-02 -5.845269e-01 -4.910261e-01 7.673996e-02 -6.922231e-02 -4.515657e-01 -7.419718e-01 -9.642708e-02 -2.197876e-01 -2.667486e-01 3.986009e-01 3.084936e-01 1.018117e-01 5.494276e-02 -1.811360e-01 -2.636965e-01 -1.251341e-01 -1.576846e-01 -1.970543e-01 -2.373402e-01 -1.713586e-01 -1.759227e-01 -1.622268e-01 2.538681e-01
<VARIANCE> 39
 1.921837e+01 1.720065e+01 2.020431e+01 2.254038e+01 2.261524e+01 2.932180e+01 3.078786e+01 2.215960e+01 2.614660e+01 2.179066e+01 1.828143e+01 1.547738e+01 4.643103e+01 1.961305e+00 1.837301e+00 1.754970e+00 2.393203e+00 2.713644e+00 2.356520e+00 2.606318e+00 2.449290e+00 2.740450e+00 2.502286e+00 2.212147e+00 1.754191e+00 1.532699e+00 2.793082e-01 3.062569e-01 2.741568e-01 3.628065e-01 4.229458e-01 4.361296e-01 5.041702e-01 4.279179e-01 4.586194e-01 4.486210e-01 3.897012e-01 3.202292e-01 2.863976e-01
<GCONST> 1.096813e+02
<STATE> 3
<MEAN> 39
 -2.357490e+00 2.982369e+00 -2.559408e+00 -4.463012e+00 -6.359518e+00 -4.777169e-01 -2.053774e+00 -4.259464e+00 -6.318690e+00 -1.800059e+00 -2.774254e+00 -2.766783e+00 5.105259e+01 2.932142e+00 2.837434e-01 -2.879000e-01 -2.406280e+00 -2.209635e+00 -6.639501e-01 -1.460616e+00 -1.377442e+00 -1.427583e+00 -7.625078e-01 -8.733795e-01 -9.942878e-01 2.425784e+00 -2.146374e-01 -5.537090e-01 -2.709825e-01 -1.421221e-01 2.342215e-01 1.645656e-01 4.559487e-02 2.131840e-01 3.648025e-01 3.579122e-01 2.399222e-01 1.638675e-01 2.682291e-01
<VARIANCE> 39
 4.141174e+01 2.662884e+01 2.836479e+01 5.280024e+01 4.693262e+01 5.170510e+01 4.364157e+01 3.799818e+01 3.996855e+01 2.840434e+01 3.357288e+01 2.180571e+01 4.348351e+01 2.398691e+00 3.149937e+00 2.302651e+00 3.825369e+00 3.576087e+00 5.016438e+00 3.994598e+00 3.601597e+00 4.311312e+00 3.502525e+00 3.876188e+00 2.533917e+00 3.136199e+00 6.031672e-01 4.786691e-01 3.612586e-01 5.941715e-01 7.352251e-01 6.334474e-01 6.152735e-01 6.056716e-01 7.046904e-01 5.535380e-01 5.157838e-01 4.061585e-01 4.447815e-01
<GCONST> 1.266519e+02
<STATE> 4
<MEAN> 39
 2.740881e+00 -1.680567e+00 -6.573915e+00 -1.249494e+01 -9.326122e+00 1.676553e+00 -6.060807e+00 -5.460957e+00 -7.540727e+00 8.250782e-01 -1.601881e+00 -3.828637e+00 6.111916e+01 -1.054711e-01 -1.809848e+00 -7.330043e-01 -2.683682e-01 5.735727e-01 -2.299152e-01 -8.980562e-01 2.359424e-01 9.538100e-01 6.748931e-01 -2.346775e-01 -6.347086e-01 1.741874e+00 -5.368593e-01 -1.477128e-01 2.514236e-01 6.693493e-01 2.257782e-01 -3.775603e-01 1.981979e-01 4.267038e-01 4.453875e-01 -1.962700e-01 -2.457516e-01 -3.583455e-02 -1.954501e-01
<VARIANCE> 39
 1.547156e+01 3.533983e+01 2.911776e+01 5.827337e+01 4.342165e+01 8.188567e+01 4.784547e+01 4.277862e+01 5.180962e+01 3.985721e+01 6.741211e+01 2.619406e+01 2.521085e+01 1.298696e+00 1.576915e+00 1.275932e+00 3.711245e+00 2.711041e+00 4.079170e+00 2.594145e+00 2.636785e+00 4.077056e+00 3.115234e+00 3.142053e+00 2.444872e+00 1.207287e+00 2.865633e-01 2.992371e-01 3.289550e-01 4.375811e-01 7.829121e-01 6.806384e-01 6.032622e-01 5.492844e-01 6.562389e-01 8.193288e-01 5.805808e-01 4.657613e-01 1.756877e-01
<GCONST> 1.211254e+02
<TRANSP> 5
 0.000000e+00 1.000000e+00 0.000000e+00 0.000000e+00 0.000000e+00
 0.000000e+00 7.786864e-01 2.213137e-01 0.000000e+00 0.000000e+00
 0.000000e+00 0.000000e+00 6.252950e-01 3.747050e-01 0.000000e+00
